{"learner":{"attributes":{"best_iteration":"289","best_score":"0.31556186228799243","scikit_learn":"{\"_estimator_type\": \"classifier\"}"},"feature_names":[],"feature_types":[],"gradient_booster":{"model":{"gbtree_model_param":{"num_parallel_tree":"1","num_trees":"1160"},"iteration_indptr":[0,4,8,12,16,20,24,28,32,36,40,44,48,52,56,60,64,68,72,76,80,84,88,92,96,100,104,108,112,116,120,124,128,132,136,140,144,148,152,156,160,164,168,172,176,180,184,188,192,196,200,204,208,212,216,220,224,228,232,236,240,244,248,252,256,260,264,268,272,276,280,284,288,292,296,300,304,308,312,316,320,324,328,332,336,340,344,348,352,356,360,364,368,372,376,380,384,388,392,396,400,404,408,412,416,420,424,428,432,436,440,444,448,452,456,460,464,468,472,476,480,484,488,492,496,500,504,508,512,516,520,524,528,532,536,540,544,548,552,556,560,564,568,572,576,580,584,588,592,596,600,604,608,612,616,620,624,628,632,636,640,644,648,652,656,660,664,668,672,676,680,684,688,692,696,700,704,708,712,716,720,724,728,732,736,740,744,748,752,756,760,764,768,772,776,780,784,788,792,796,800,804,808,812,816,820,824,828,832,836,840,844,848,852,856,860,864,868,872,876,880,884,888,892,896,900,904,908,912,916,920,924,928,932,936,940,944,948,952,956,960,964,968,972,976,980,984,988,992,996,1000,1004,1008,1012,1016,1020,1024,1028,1032,1036,1040,1044,1048,1052,1056,1060,1064,1068,1072,1076,1080,1084,1088,1092,1096,1100,1104,1108,1112,1116,1120,1124,1128,1132,1136,1140,1144,1148,1152,1156,1160],"tree_info":[0,1,2,3,0,1,2,3,0,1,2,3,0,1,2,3,0,1,2,3,0,1,2,3,0,1,2,3,0,1,2,3,0,1,2,3,0,1,2,3,0,1,2,3,0,1,2,3,0,1,2,3,0,1,2,3,0,1,2,3,0,1,2,3,0,1,2,3,0,1,2,3,0,1,2,3,0,1,2,3,0,1,2,3,0,1,2,3,0,1,2,3,0,1,2,3,0,1,2,3,0,1,2,3,0,1,2,3,0,1,2,3,0,1,2,3,0,1,2,3,0,1,2,3,0,1,2,3,0,1,2,3,0,1,2,3,0,1,2,3,0,1,2,3,0,1,2,3,0,1,2,3,0,1,2,3,0,1,2,3,0,1,2,3,0,1,2,3,0,1,2,3,0,1,2,3,0,1,2,3,0,1,2,3,0,1,2,3,0,1,2,3,0,1,2,3,0,1,2,3,0,1,2,3,0,1,2,3,0,1,2,3,0,1,2,3,0,1,2,3,0,1,2,3,0,1,2,3,0,1,2,3,0,1,2,3,0,1,2,3,0,1,2,3,0,1,2,3,0,1,2,3,0,1,2,3,0,1,2,3,0,1,2,3,0,1,2,3,0,1,2,3,0,1,2,3,0,1,2,3,0,1,2,3,0,1,2,3,0,1,2,3,0,1,2,3,0,1,2,3,0,1,2,3,0,1,2,3,0,1,2,3,0,1,2,3,0,1,2,3,0,1,2,3,0,1,2,3,0,1,2,3,0,1,2,3,0,1,2,3,0,1,2,3,0,1,2,3,0,1,2,3,0,1,2,3,0,1,2,3,0,1,2,3,0,1,2,3,0,1,2,3,0,1,2,3,0,1,2,3,0,1,2,3,0,1,2,3,0,1,2,3,0,1,2,3,0,1,2,3,0,1,2,3,0,1,2,3,0,1,2,3,0,1,2,3,0,1,2,3,0,1,2,3,0,1,2,3,0,1,2,3,0,1,2,3,0,1,2,3,0,1,2,3,0,1,2,3,0,1,2,3,0,1,2,3,0,1,2,3,0,1,2,3,0,1,2,3,0,1,2,3,0,1,2,3,0,1,2,3,0,1,2,3,0,1,2,3,0,1,2,3,0,1,2,3,0,1,2,3,0,1,2,3,0,1,2,3,0,1,2,3,0,1,2,3,0,1,2,3,0,1,2,3,0,1,2,3,0,1,2,3,0,1,2,3,0,1,2,3,0,1,2,3,0,1,2,3,0,1,2,3,0,1,2,3,0,1,2,3,0,1,2,3,0,1,2,3,0,1,2,3,0,1,2,3,0,1,2,3,0,1,2,3,0,1,2,3,0,1,2,3,0,1,2,3,0,1,2,3,0,1,2,3,0,1,2,3,0,1,2,3,0,1,2,3,0,1,2,3,0,1,2,3,0,1,2,3,0,1,2,3,0,1,2,3,0,1,2,3,0,1,2,3,0,1,2,3,0,1,2,3,0,1,2,3,0,1,2,3,0,1,2,3,0,1,2,3,0,1,2,3,0,1,2,3,0,1,2,3,0,1,2,3,0,1,2,3,0,1,2,3,0,1,2,3,0,1,2,3,0,1,2,3,0,1,2,3,0,1,2,3,0,1,2,3,0,1,2,3,0,1,2,3,0,1,2,3,0,1,2,3,0,1,2,3,0,1,2,3,0,1,2,3,0,1,2,3,0,1,2,3,0,1,2,3,0,1,2,3,0,1,2,3,0,1,2,3,0,1,2,3,0,1,2,3,0,1,2,3,0,1,2,3,0,1,2,3,0,1,2,3,0,1,2,3,0,1,2,3,0,1,2,3,0,1,2,3,0,1,2,3,0,1,2,3,0,1,2,3,0,1,2,3,0,1,2,3,0,1,2,3,0,1,2,3,0,1,2,3,0,1,2,3,0,1,2,3,0,1,2,3,0,1,2,3,0,1,2,3,0,1,2,3,0,1,2,3,0,1,2,3,0,1,2,3,0,1,2,3,0,1,2,3,0,1,2,3,0,1,2,3,0,1,2,3,0,1,2,3,0,1,2,3,0,1,2,3,0,1,2,3,0,1,2,3,0,1,2,3,0,1,2,3,0,1,2,3,0,1,2,3,0,1,2,3,0,1,2,3,0,1,2,3,0,1,2,3,0,1,2,3,0,1,2,3,0,1,2,3,0,1,2,3,0,1,2,3,0,1,2,3,0,1,2,3,0,1,2,3,0,1,2,3,0,1,2,3,0,1,2,3,0,1,2,3,0,1,2,3,0,1,2,3,0,1,2,3,0,1,2,3,0,1,2,3,0,1,2,3,0,1,2,3,0,1,2,3,0,1,2,3,0,1,2,3,0,1,2,3,0,1,2,3,0,1,2,3,0,1,2,3,0,1,2,3,0,1,2,3,0,1,2,3,0,1,2,3,0,1,2,3,0,1,2,3,0,1,2,3,0,1,2,3,0,1,2,3,0,1,2,3,0,1,2,3,0,1,2,3,0,1,2,3,0,1,2,3,0,1,2,3,0,1,2,3,0,1,2,3,0,1,2,3,0,1,2,3,0,1,2,3,0,1,2,3,0,1,2,3,0,1,2,3,0,1,2,3,0,1,2,3,0,1,2,3,0,1,2,3],"trees":[{"base_weights":[1.6990532E-3,-1.961774E-2,1.5832195E0,1.8423823E-1,-1.3896915E-1,3.955309E-1,9.6710396E-1,8.929755E-1,1.6235594E-1,1.083747E0,-1.533801E-1,1.6190791E0,5.455197E-1,1.0820785E0,-4.2175796E-2,8.57579E-1,1.4461428E-1,1.2187903E0,-1.05894186E-1,4.9795538E-1,-1.7106058E-1,-0E0,1.705661E0,3.5401058E-1,3.0769458E-1,1.1209179E0,-6.711871E-2,1.9417435E-1,-4.3239485E-2,-8.718475E-2,9.110301E-1,1.6272694E-1,-4.512129E-1,1.2758822E0,-6.711871E-2,5.929718E-1,-9.471171E-2,4.7489476E-1,-1.903716E-1,1.7963885E0,-0E0,3.037926E-1,1.01963215E-1,-6.372648E-3,1.1672066E0,8.99756E-2,-4.872408E-2,1.0039754E0,3.0034812E-2,7.767679E-1,1.4930622E-1,2.5662908E-1,-4.995536E-1,-5.904311E-2,1.3287511E0,1.446448E0,4.8229256E-1,-1.04188345E-1,5.3600657E-1,6.3486624E-1,-2.0577589E-1,3.785586E-1,9.156603E-2,2.4104415E-1,-0E0,1.221079E0,-0E0,1.0951097E0,1.4403538E-2,2.867036E-1,-5.767646E-2,-8.718475E-2,8.3970857E-1,9.549306E-1,1.3900742E-1,2.7096656E-1,-5.3750235E-1,1.3764125E0,-4.872408E-2,-0E0,1.5467551E0,-8.828422E-2,5.5417854E-1,5.809524E-1,-1.0916083E-1,-1.0748535E-1,7.721649E-1,4.9625367E-1,-2.196736E-1,-1.0542122E-1,1.83069E-1,2.511817E-1,-4.872408E-2,1.787854E-1,-2.3078723E-2,-4.872408E-2,2.2676037E-1,2.2133203E-1,-2.4502547E-2,-8.718475E-2,1.8167768E-1,-5.2874375E-2,2.1518345E-1,2.9421693E-1,2.6560724E-2,1.228049E-1,-1.1258357E-1,-3.5075985E-2,2.83581E-1,-0E0,3.3141193E-1,1.2462807E-1,-6.873762E-2,-1.0707694E-1,1.2504171E-1,1.8363152E-1,-0E0,1.3242783E-1,-7.23431E-2,-2.4332384E-2,-7.193034E-2,2.2133203E-1,-4.1575126E-2],"categories":[],"categories_nodes":[],"categories_segments":[],"categories_sizes":[],"default_left":[1,0,0,0,0,0,1,1,0,0,0,0,0,1,0,0,1,1,0,1,0,0,1,0,0,0,0,0,0,0,1,0,0,0,0,0,0,0,0,0,0,0,0,0,1,0,0,0,0,0,0,0,0,0,1,0,0,0,1,0,0,0,0,0,1,1,0,0,0,0,0,0,0,0,0,0,0,0,0,0,0,0,1,0,0,0,1,1,1,0,0,0,0,0,0,0,0,0,0,0,0,0,0,0,0,0,0,0,0,0,0,0,0,0,0,0,0,0,0,0,0,0,0],"id":0,"left_children":[1,3,5,7,9,-1,11,13,15,17,19,21,23,25,27,29,31,33,-1,35,37,-1,39,-1,41,43,-1,45,-1,-1,47,49,51,53,-1,55,-1,57,59,61,-1,-1,63,-1,65,-1,-1,67,69,71,73,-1,75,-1,77,79,81,-1,83,85,87,-1,-1,-1,89,91,93,95,97,-1,-1,-1,99,101,103,-1,105,107,-1,-1,109,-1,111,113,-1,-1,115,117,119,121,-1,-1,-1,-1,-1,-1,-1,-1,-1,-1,-1,-1,-1,-1,-1,-1,-1,-1,-1,-1,-1,-1,-1,-1,-1,-1,-1,-1,-1,-1,-1,-1,-1],"loss_changes":[5.153969E2,3.6603668E2,4.6070923E1,8.517319E1,1.665527E2,0E0,2.006395E1,3.0088211E1,6.556807E1,2.4823837E1,1.07816315E2,5.600357E0,1.2770016E1,8.433289E0,1.1664398E0,9.762192E0,5.6517708E1,1.0042969E1,0E0,2.3011208E1,1.1377124E2,0E0,4.5960464E0,0E0,9.42371E0,8.180679E0,0E0,1.3228596E0,0E0,0E0,9.623291E0,4.1221573E1,1.2524958E1,9.276321E0,0E0,1.9393593E1,0E0,1.6209171E1,1.12491974E2,1.2693329E0,0E0,0E0,4.612521E0,0E0,7.294754E0,0E0,0E0,9.447548E0,7.2169223E0,8.725197E0,4.046911E1,0E0,1.0226494E1,0E0,8.333023E0,4.7618637E0,1.3581673E1,0E0,1.2319405E1,2.6410614E1,8.4812744E1,0E0,0E0,0E0,3.2496443E0,7.326233E0,1.3342907E0,6.297287E0,2.5274205E0,0E0,0E0,0E0,9.617401E0,9.950275E0,3.9338097E1,0E0,4.449711E0,7.223694E0,0E0,0E0,5.286312E0,0E0,1.1969269E1,1.2124092E1,0E0,0E0,1.6640251E1,2.4281929E1,1.1679529E2,3.3606198E0,0E0,0E0,0E0,0E0,0E0,0E0,0E0,0E0,0E0,0E0,0E0,0E0,0E0,0E0,0E0,0E0,0E0,0E0,0E0,0E0,0E0,0E0,0E0,0E0,0E0,0E0,0E0,0E0,0E0,0E0,0E0,0E0,0E0],"parents":[2147483647,0,0,1,1,2,2,3,3,4,4,6,6,7,7,8,8,9,9,10,10,11,11,12,12,13,13,14,14,15,15,16,16,17,17,19,19,20,20,22,22,24,24,25,25,27,27,30,30,31,31,32,32,33,33,35,35,37,37,38,38,39,39,42,42,44,44,47,47,48,48,49,49,50,50,52,52,54,54,55,55,56,56,58,58,59,59,60,60,64,64,65,65,66,66,67,67,68,68,72,72,73,73,74,74,76,76,77,77,80,80,82,82,83,83,86,86,87,87,88,88,89,89],"right_children":[2,4,6,8,10,-1,12,14,16,18,20,22,24,26,28,30,32,34,-1,36,38,-1,40,-1,42,44,-1,46,-1,-1,48,50,52,54,-1,56,-1,58,60,62,-1,-1,64,-1,66,-1,-1,68,70,72,74,-1,76,-1,78,80,82,-1,84,86,88,-1,-1,-1,90,92,94,96,98,-1,-1,-1,100,102,104,-1,106,108,-1,-1,110,-1,112,114,-1,-1,116,118,120,122,-1,-1,-1,-1,-1,-1,-1,-1,-1,-1,-1,-1,-1,-1,-1,-1,-1,-1,-1,-1,-1,-1,-1,-1,-1,-1,-1,-1,-1,-1,-1,-1,-1],"split_conditions":[3.0207896E-1,7.580128E1,5.07437E-1,5.04036E-1,2.7455094E-1,3.955309E-1,6.7E1,1.0672925E-1,2.8275695E-1,2.00001E0,4.0152025E-1,6.3394535E-1,5.5084044E-1,1.9668986E-1,5.2E1,4.5264873E-1,1E0,1.5501189E-1,-1.05894186E-1,1.4765655E-1,5.247583E-1,-0E0,2.4813564E-1,3.5401058E-1,5.55384E-1,2.3645923E-1,-6.711871E-2,3.3249208E-1,-4.3239485E-2,-8.718475E-2,9.958058E-2,3.0537912E-1,4.0605113E-1,4.4917965E-1,-6.711871E-2,1.3306965E-1,-9.471171E-2,2.4582882E-1,3.299926E-1,5.219628E-1,-0E0,3.037926E-1,3.4110665E-1,-6.372648E-3,1.1497695E-1,8.99756E-2,-4.872408E-2,7.3E1,3.2426935E-1,2.826555E-1,5.4466915E-1,2.5662908E-1,3.628861E-1,-5.904311E-2,1.8147646E-1,3.196168E-1,1.5799801E-1,-1.04188345E-1,1.6072415E-1,6.7124885E-1,2.698269E-1,3.785586E-1,9.156603E-2,2.4104415E-1,3.8381007E-1,1.818777E-1,3.285775E-1,3.0905396E-1,4.0293416E-1,2.867036E-1,-5.767646E-2,-8.718475E-2,3.1522924E-1,1.7671853E-1,6.4349145E-1,2.7096656E-1,3.27004E-1,2.0573089E-1,-4.872408E-2,-0E0,8.0700494E-2,-8.828422E-2,1.9231744E-1,3.9467305E-1,-1.0916083E-1,-1.0748535E-1,9.732367E-2,6.6678114E-2,9.7710615E-1,6.923491E-1,1.83069E-1,2.511817E-1,-4.872408E-2,1.787854E-1,-2.3078723E-2,-4.872408E-2,2.2676037E-1,2.2133203E-1,-2.4502547E-2,-8.718475E-2,1.8167768E-1,-5.2874375E-2,2.1518345E-1,2.9421693E-1,2.6560724E-2,1.228049E-1,-1.1258357E-1,-3.5075985E-2,2.83581E-1,-0E0,3.3141193E-1,1.2462807E-1,-6.873762E-2,-1.0707694E-1,1.2504171E-1,1.8363152E-1,-0E0,1.3242783E-1,-7.23431E-2,-2.4332384E-2,-7.193034E-2,2.2133203E-1,-4.1575126E-2],"split_indices":[3230,5006,374,3147,1697,0,5006,4443,2569,5000,1914,1180,422,1604,5006,4781,5000,4298,0,1780,3071,0,1780,0,649,4778,0,662,0,0,1780,422,374,2424,0,1914,0,2569,3392,3230,0,0,1889,0,2395,0,0,5006,4346,2904,4327,0,1412,0,1064,658,3226,0,1819,2181,1604,0,0,0,3392,3226,2451,2597,2044,0,0,0,4396,1780,2494,0,3339,575,0,0,1461,0,3011,4153,0,0,1780,3226,5000,1308,0,0,0,0,0,0,0,0,0,0,0,0,0,0,0,0,0,0,0,0,0,0,0,0,0,0,0,0,0,0,0,0,0],"split_type":[0,0,0,0,0,0,0,0,0,0,0,0,0,0,0,0,0,0,0,0,0,0,0,0,0,0,0,0,0,0,0,0,0,0,0,0,0,0,0,0,0,0,0,0,0,0,0,0,0,0,0,0,0,0,0,0,0,0,0,0,0,0,0,0,0,0,0,0,0,0,0,0,0,0,0,0,0,0,0,0,0,0,0,0,0,0,0,0,0,0,0,0,0,0,0,0,0,0,0,0,0,0,0,0,0,0,0,0,0,0,0,0,0,0,0,0,0,0,0,0,0,0,0],"sum_hessian":[1.5247875E4,1.5045E4,2.02875E2,5.553E3,9.492E3,1.2225E2,8.0625E1,1.64625E2,5.388375E3,1.095E2,9.3825E3,3.0375E1,5.025E1,1.37625E2,2.7E1,1.32375E2,5.256E3,1.01625E2,7.875E0,2.46375E2,9.136125E3,1.125E0,2.925E1,7.125E0,4.3125E1,1.34625E2,3E0,9.375E0,1.7625E1,4.5E0,1.27875E2,5.102625E3,1.53375E2,9.8625E1,3E0,2.25375E2,2.1E1,2.63625E2,8.8725E3,2.775E1,1.5E0,5.25E0,3.7875E1,4.5E0,1.30125E2,7.125E0,2.25E0,1.1475E2,1.3125E1,1.0725E2,4.995375E3,3.375E0,1.5E2,2.625E0,9.6E1,2.4375E1,2.01E2,1.425E1,2.49375E2,1.6125E2,8.71125E3,2.5125E1,2.625E0,3E0,3.4875E1,1.2375E2,6.375E0,1.0425E2,1.05E1,2.625E0,1.05E1,4.5E0,1.0275E2,6.15E1,4.933875E3,2.25E0,1.4775E2,9.375E1,2.25E0,1.125E0,2.325E1,1.35E1,1.875E2,2.40375E2,9E0,1.6125E1,1.45125E2,1.67625E2,8.543625E3,3.1875E1,3E0,1.215E2,2.25E0,1.125E0,5.25E0,2.25E0,1.02E2,1.5E0,9E0,4.5E0,9.825E1,4.875E0,5.6625E1,2.175E1,4.912125E3,2.25E0,1.455E2,1.875E0,9.1875E1,1.125E0,2.2125E1,1.75125E2,1.2375E1,8.25E0,2.32125E2,1.2225E2,2.2875E1,1.41375E2,2.625E1,5.029125E3,3.5145E3,1.5E0,3.0375E1],"tree_param":{"num_deleted":"0","num_feature":"5007","num_nodes":"123","size_leaf_vector":"1"}},{"base_weights":[2.2870323E-3,-2.774226E-2,1.5559858E0,-1.158443E-1,1.9331534E-1,1.6054312E0,-7.3827945E-2,-1.2670481E-1,1.4355384E0,-5.2068412E-2,5.477473E-1,-9.325719E-2,1.6483473E0,-1.4625826E-1,5.26572E-1,-6.711871E-2,1.5244269E0,-5.3723085E-1,6.198454E-4,4.6569216E-1,1.0821759E0,-5.8167953E-2,1.6892487E0,-1.6430555E-1,5.7103527E-1,4.561584E-1,1.471492E0,1.5961878E0,-4.872408E-2,-5.6703955E-1,4.8958692E-1,-6.862464E-2,4.3088627E-1,1.5306108E0,4.2982495E-1,1.1394951E0,-8.1869446E-2,-4.872408E-2,1.7088487E0,-1.7243646E-1,9.033524E-1,3.511436E-1,8.699303E-1,2.870609E-1,7.3034257E-1,-0E0,3.2691726E-1,1.6596801E0,-3.5075985E-2,-5.9074223E-1,7.6023585E-1,1.6799684E-1,-1.6177958E-2,-8.5505396E-2,9.985845E-1,3.694199E-1,1.563631E0,-0E0,1.5828443E0,3.802695E-1,1.1900424E0,-3.941121E-2,1.2099754E0,-4.872408E-2,1.7287775E0,-2.011909E-1,8.494961E-2,-9.1352455E-2,1.0139441E0,3.0973157E-1,2.929521E-1,-9.325719E-2,9.507433E-1,3.3921143E-1,-1.10083476E-1,5.8252525E-1,1.4376951E0,-1.6177958E-2,1.7130982E0,-6.029974E-1,1.787854E-1,-0E0,2.7096656E-1,-4.944175E-1,-4.8574544E-2,1.2120802E0,-7.361075E-2,2.023571E-1,6.797768E-1,3.572422E-1,1.3260092E-1,1.6316417E0,-0E0,3.5539398E-1,1.6581867E0,-8.340187E-2,1.2807345E0,1.25061E0,-8.718475E-2,-3.5075985E-2,1.7456422E0,-4.1394614E-2,2.0459457E-1,1.1667348E-2,2.858759E-1,1.787854E-1,-9.5731124E-2,-4.872408E-2,2.1416998E-1,-5.7453234E-2,7.737987E-2,-4.604922E-2,2.0931073E-1,1.5908567E-2,1.1487042E-1,3.5161522E-1,9.374447E-2,3.167667E-1,-0E0,-0E0,3.5096E-1,-1.2304121E-1,7.8091286E-2,1.787854E-1,-1.02470875E-1,1.0622762E-3,-6.756445E-2,-0E0,2.7825522E-1,-9.265798E-2,5.2502353E-2,-7.39065E-2,1.6085161E-1,-1.6177958E-2,1.787854E-1,3.334828E-1,-0E0,-9.356694E-2,7.631343E-2,-0E0,3.530319E-1,-2.988484E-2,2.78866E-1,2.5788713E-1,-8.340187E-2,-3.5075985E-2,3.5254917E-1],"categories":[],"categories_nodes":[],"categories_segments":[],"categories_sizes":[],"default_left":[1,1,1,1,0,0,0,1,0,0,1,0,0,1,0,0,1,1,1,0,1,0,0,1,0,1,0,1,0,1,1,1,1,0,1,0,0,0,0,1,0,0,0,1,1,0,0,0,0,1,0,0,0,0,1,0,0,0,1,1,0,0,1,0,0,1,1,0,0,0,0,0,0,0,0,0,1,0,0,1,0,0,0,0,1,0,0,0,0,0,0,1,0,0,0,0,0,1,0,0,0,0,0,0,0,0,0,0,0,0,0,0,0,0,0,0,0,0,0,0,0,0,0,0,0,0,0,0,0,0,0,0,0,0,0,0,0,0,0,0,0,0,0,0,0,0,0],"id":1,"left_children":[1,3,5,7,9,11,-1,13,15,17,19,-1,21,23,25,-1,27,29,31,33,35,-1,37,39,41,43,45,47,-1,49,51,53,55,57,59,61,-1,-1,63,65,67,69,71,73,75,-1,-1,77,-1,79,81,-1,-1,83,85,87,89,-1,91,93,95,-1,97,-1,99,101,103,105,107,-1,109,-1,111,113,-1,115,117,-1,119,121,-1,-1,-1,123,125,127,-1,129,131,-1,133,135,-1,137,139,-1,141,143,-1,-1,145,-1,-1,-1,-1,-1,-1,-1,-1,-1,-1,-1,-1,-1,-1,-1,-1,-1,-1,-1,-1,-1,-1,-1,-1,-1,-1,-1,-1,-1,-1,-1,-1,-1,-1,-1,-1,-1,-1,-1,-1,-1,-1,-1,-1,-1,-1],"loss_changes":[7.134395E2,2.9156943E2,2.8907715E1,1.7942506E2,3.7132825E2,2.6520569E1,0E0,1.3557915E2,1.2873566E1,6.484244E1,7.503955E1,0E0,2.344458E1,1.3340674E2,1.856398E1,0E0,1.03160095E1,7.790848E0,6.7981865E1,5.5950775E1,2.0547943E1,0E0,1.175238E1,8.693054E1,1.5426262E1,1.24050255E1,5.2864227E0,9.1085205E0,0E0,7.682762E0,1.9591967E0,3.4488335E1,2.015377E1,5.0606537E0,5.377112E1,2.1950592E1,0E0,0E0,1.1963684E1,7.412808E1,9.118683E0,8.545982E0,1.1953796E1,7.803587E0,9.182705E0,0E0,0E0,7.6503296E0,0E0,4.3450546E0,2.745043E0,0E0,0E0,2.8612743E1,9.577093E0,1.4831509E1,3.1983185E0,0E0,2.431572E0,4.189801E1,1.3877213E1,0E0,1.5131836E1,0E0,1.0072998E1,6.3110504E1,3.4576195E1,2.5901048E0,5.7304306E0,0E0,7.8852024E0,0E0,1.2091194E1,9.897177E0,0E0,9.904421E0,4.8278503E0,0E0,5.982834E0,3.181839E0,0E0,0E0,0E0,3.8086128E0,2.7846554E1,5.022087E0,0E0,7.8318644E0,1.402869E1,0E0,1.2170887E0,2.235939E0,0E0,2.919394E1,5.8603363E0,0E0,1.4861923E1,1.4432556E1,0E0,0E0,1.02265625E1,0E0,0E0,0E0,0E0,0E0,0E0,0E0,0E0,0E0,0E0,0E0,0E0,0E0,0E0,0E0,0E0,0E0,0E0,0E0,0E0,0E0,0E0,0E0,0E0,0E0,0E0,0E0,0E0,0E0,0E0,0E0,0E0,0E0,0E0,0E0,0E0,0E0,0E0,0E0,0E0,0E0,0E0,0E0,0E0,0E0,0E0],"parents":[2147483647,0,0,1,1,2,2,3,3,4,4,5,5,7,7,8,8,9,9,10,10,12,12,13,13,14,14,16,16,17,17,18,18,19,19,20,20,22,22,23,23,24,24,25,25,26,26,27,27,29,29,30,30,31,31,32,32,33,33,34,34,35,35,38,38,39,39,40,40,41,41,42,42,43,43,44,44,47,47,49,49,50,50,53,53,54,54,55,55,56,56,58,58,59,59,60,60,62,62,64,64,65,65,66,66,67,67,68,68,70,70,72,72,73,73,75,75,76,76,78,78,79,79,83,83,84,84,85,85,87,87,88,88,90,90,91,91,93,93,94,94,96,96,97,97,100,100],"right_children":[2,4,6,8,10,12,-1,14,16,18,20,-1,22,24,26,-1,28,30,32,34,36,-1,38,40,42,44,46,48,-1,50,52,54,56,58,60,62,-1,-1,64,66,68,70,72,74,76,-1,-1,78,-1,80,82,-1,-1,84,86,88,90,-1,92,94,96,-1,98,-1,100,102,104,106,108,-1,110,-1,112,114,-1,116,118,-1,120,122,-1,-1,-1,124,126,128,-1,130,132,-1,134,136,-1,138,140,-1,142,144,-1,-1,146,-1,-1,-1,-1,-1,-1,-1,-1,-1,-1,-1,-1,-1,-1,-1,-1,-1,-1,-1,-1,-1,-1,-1,-1,-1,-1,-1,-1,-1,-1,-1,-1,-1,-1,-1,-1,-1,-1,-1,-1,-1,-1,-1,-1,-1,-1],"split_conditions":[1.0780126E-1,1E0,1.3700096E-1,1.4872736E-1,2.00001E0,3.1028453E-1,-7.3827945E-2,2.0631662E-1,2.4329568E-1,5.2111983E-1,9.587173E-2,-9.325719E-2,2.9165134E-1,1.5387918E-1,1E0,-6.711871E-2,3.019662E-1,1.2044309E-1,2.75E-1,6.133853E-1,2.1637762E-1,-5.8167953E-2,3.8666221E-1,2.3510647E-1,3.140724E-1,8E1,1.4559566E1,2.2493263E-1,-4.872408E-2,2.0695601E-1,1.327226E-1,1.8871209E-1,2.5091553E-1,4.0871868E-1,1.8106939E-1,3.0924585E-1,-8.1869446E-2,-4.872408E-2,4.9529633E-1,8.682942E-2,3.7615484E-1,3.3798793E-1,8.2626605E-1,6.098934E-1,1.08773015E-1,-0E0,3.2691726E-1,5.8653E-1,-3.5075985E-2,2.7050686E-1,2.9019168E-1,1.6799684E-1,-1.6177958E-2,6.3785017E-1,3.4969386E-1,4.5431605E-1,4.0831512E-1,-0E0,1.8537134E-1,1.3426495E-1,2.4641049E-1,-3.941121E-2,1.7783748E-1,-4.872408E-2,2.09776E-1,1.5928625E-1,1.917811E-1,2.5254002E-1,2.4755852E-1,3.0973157E-1,2.4533339E-1,-9.325719E-2,5.408798E-1,3.327761E-1,-1.10083476E-1,6.495641E-1,2.3594888E-1,-1.6177958E-2,3.0348098E-1,2.2415887E-1,1.787854E-1,-0E0,2.7096656E-1,2.802322E-1,4.019E-1,3.6775407E-1,-7.361075E-2,2.4595669E-1,3.607915E-1,3.572422E-1,4.8048568E-1,3.196985E-1,-0E0,2.00001E0,7.072668E-1,-8.340187E-2,5.5182266E-1,1.4438896E-1,-8.718475E-2,-3.5075985E-2,3.7681192E-1,-4.1394614E-2,2.0459457E-1,1.1667348E-2,2.858759E-1,1.787854E-1,-9.5731124E-2,-4.872408E-2,2.1416998E-1,-5.7453234E-2,7.737987E-2,-4.604922E-2,2.0931073E-1,1.5908567E-2,1.1487042E-1,3.5161522E-1,9.374447E-2,3.167667E-1,-0E0,-0E0,3.5096E-1,-1.2304121E-1,7.8091286E-2,1.787854E-1,-1.02470875E-1,1.0622762E-3,-6.756445E-2,-0E0,2.7825522E-1,-9.265798E-2,5.2502353E-2,-7.39065E-2,1.6085161E-1,-1.6177958E-2,1.787854E-1,3.334828E-1,-0E0,-9.356694E-2,7.631343E-2,-0E0,3.530319E-1,-2.988484E-2,2.78866E-1,2.5788713E-1,-8.340187E-2,-3.5075985E-2,3.5254917E-1],"split_indices":[1642,5000,2556,3843,5002,2734,0,1747,1914,3814,1780,0,4717,3888,1747,0,2482,3147,5001,1332,1697,0,1520,4933,3888,5006,5006,4458,0,4395,3007,3888,1604,3905,1747,3071,0,0,4864,1780,1862,4162,4306,2482,1780,0,0,3049,0,4443,2656,0,0,518,2920,5001,1604,0,4327,3844,4778,0,1570,0,2552,202,3456,1871,3226,0,3226,0,3769,1747,0,1149,2503,0,3431,4708,0,0,0,906,5004,5003,0,138,1867,0,1604,1432,0,422,208,0,3071,136,0,0,2747,0,0,0,0,0,0,0,0,0,0,0,0,0,0,0,0,0,0,0,0,0,0,0,0,0,0,0,0,0,0,0,0,0,0,0,0,0,0,0,0,0,0,0,0,0,0],"split_type":[0,0,0,0,0,0,0,0,0,0,0,0,0,0,0,0,0,0,0,0,0,0,0,0,0,0,0,0,0,0,0,0,0,0,0,0,0,0,0,0,0,0,0,0,0,0,0,0,0,0,0,0,0,0,0,0,0,0,0,0,0,0,0,0,0,0,0,0,0,0,0,0,0,0,0,0,0,0,0,0,0,0,0,0,0,0,0,0,0,0,0,0,0,0,0,0,0,0,0,0,0,0,0,0,0,0,0,0,0,0,0,0,0,0,0,0,0,0,0,0,0,0,0,0,0,0,0,0,0,0,0,0,0,0,0,0,0,0,0,0,0,0,0,0,0,0,0],"sum_hessian":[1.5262875E4,1.4973375E4,2.895E2,1.070925E4,4.264125E3,2.8275E2,6.75E0,1.063575E4,7.35E1,2.5185E3,1.745625E3,5.25E0,2.775E2,1.032825E4,3.075E2,3E0,7.05E1,2.47875E2,2.270625E3,1.515375E3,2.3025E2,5.25E0,2.7225E2,1.007625E4,2.52E2,2.87625E2,1.9875E1,6.825E1,2.25E0,2.41875E2,6E0,1.9545E3,3.16125E2,4.8E1,1.467375E3,2.22375E2,7.875E0,2.25E0,2.7E2,1.000125E4,7.5E1,1.47375E2,1.04625E2,1.80375E2,1.0725E2,1.875E0,1.8E1,6.6375E1,1.875E0,2.385E2,3.375E0,4.5E0,1.5E0,1.92525E3,2.925E1,3.01125E2,1.5E1,1.125E0,4.6875E1,1.37925E3,8.8125E1,1.05E1,2.11875E2,2.25E0,2.6775E2,8.99925E3,1.002E3,6.75E0,6.825E1,5.625E0,1.4175E2,5.25E0,9.9375E1,1.71E2,9.375E0,9.0375E1,1.6875E1,1.5E0,6.4875E1,2.37375E2,1.125E0,1.125E0,2.25E0,1.57125E2,1.768125E3,2.5875E1,3.375E0,1.98E2,1.03125E2,1.2375E1,2.625E0,4.5E1,1.875E0,1.354125E3,2.5125E1,4.125E0,8.4E1,2.07375E2,4.5E0,1.875E0,2.65875E2,8.958E3,4.125E1,9.83625E2,1.8375E1,1.125E0,5.625E0,2.25E0,6.6E1,1.8375E1,1.23375E2,6.75E0,9.2625E1,8.325E1,8.775E1,6.75E0,8.3625E1,1.575E1,1.125E0,1.125E0,6.375E1,2.355E2,1.875E0,1.125E0,1.56E2,1.488375E3,2.7975E2,3.75E0,2.2125E1,1.5E1,1.83E2,1.0125E1,9.3E1,1.5E0,1.125E0,4.3875E1,1.125E0,4.05E1,1.313625E3,1.125E0,2.4E1,5.625E0,7.8375E1,2.0325E2,4.125E0,1.875E0,2.64E2],"tree_param":{"num_deleted":"0","num_feature":"5007","num_nodes":"147","size_leaf_vector":"1"}},{"base_weights":[-3.0049086E-3,1.1490973E0,-2.46147E-2,-5.767646E-2,1.2085829E0,9.4074446E-1,-4.722869E-2,-9.5731124E-2,1.2484705E0,3.9423725E-1,7.1572983E-1,-5.331921E-2,1.6409601E0,-9.5731124E-2,1.2900919E0,3.574584E-1,9.173397E-1,-9.060147E-2,2.1204835E-1,3.7823606E-1,2.6532015E-1,1.3217826E0,-8.340187E-2,7.461541E-1,-5.8653146E-2,-6.2807985E-2,9.629768E-1,-1.01273194E-1,6.861242E-1,2.8040996E-1,-5.5606616E-1,-0E0,2.501525E-1,-7.894345E-2,1.3514965E0,-5.904311E-2,8.1720144E-1,-1.9368596E-1,1.8433584E-1,-6.2807985E-2,1.0116754E0,-1.0789136E-1,9.530317E-1,-3.4924698E-1,7.964796E-1,2.2028409E-1,9.5839304E-1,2.7096656E-1,-5.960881E-1,2.2133203E-1,-9.325719E-2,-7.361075E-2,1.3790087E0,-5.904311E-2,8.9577276E-1,2.2133203E-1,-2.6985607E-1,1.0539995E0,-8.340187E-2,6.150803E-1,-1.1601441E-1,1.6916668E0,9.8326325E-2,2.3732641E-1,-1.1552214E-1,8.6526585E-1,-4.566712E-2,7.3582906E-1,1.5396897E-1,-5.2874375E-2,1.0123355E0,2.2133203E-1,-6.2347305E-1,2.8237173E-1,-1.5313955E-2,-5.904311E-2,1.9662602E-1,1.787854E-1,-6.610955E-2,2.1887438E-1,-7.894345E-2,1.4742705E-1,-1.0087635E-1,1.3303632E-1,-2.442887E-2,-0E0,3.6037445E-1,-9.04348E-2,4.2739477E-2,-3.5075985E-2,2.2133203E-1,1.5033937E-1,3.6269608E-1,-8.408778E-2,1.6012E-1,2.8445822E-1,2.6771814E-2,2.1248761E-1,-1.5313955E-2,1.787854E-1,-1.2887879E-1],"categories":[],"categories_nodes":[],"categories_segments":[],"categories_sizes":[],"default_left":[0,0,0,0,0,0,1,0,0,0,1,1,0,0,1,0,0,1,1,0,1,0,0,0,1,0,0,1,0,1,0,0,0,0,0,0,0,0,0,0,1,0,0,0,1,0,0,0,0,0,0,0,1,0,0,0,0,1,0,1,0,0,1,1,0,0,0,0,0,0,1,0,0,0,0,0,0,0,0,0,0,0,0,0,0,0,0,0,0,0,0,0,0,0,0,0,0,0,0,0,0],"id":2,"left_children":[1,3,5,-1,7,9,11,-1,13,-1,15,17,19,-1,21,23,25,27,29,-1,31,33,-1,35,37,-1,39,41,43,45,47,49,-1,-1,51,-1,53,55,-1,-1,57,59,61,63,65,67,69,-1,71,-1,-1,-1,73,-1,75,-1,77,79,-1,81,83,85,87,89,-1,91,-1,93,95,-1,97,-1,99,-1,-1,-1,-1,-1,-1,-1,-1,-1,-1,-1,-1,-1,-1,-1,-1,-1,-1,-1,-1,-1,-1,-1,-1,-1,-1,-1,-1],"loss_changes":[3.794266E2,2.4923523E1,3.2667108E2,0E0,1.909317E1,7.650427E1,1.4938861E2,0E0,1.9971252E1,0E0,1.918042E1,1.4438809E2,1.5925766E1,0E0,1.5012238E1,1.741167E1,1.0738968E1,1.0570279E2,9.416214E1,0E0,2.9980452E0,1.40364685E1,0E0,4.604458E0,6.0296702E0,0E0,1.1509384E1,8.75007E1,2.0219986E1,6.620703E1,1.0886082E1,3.6271126E0,0E0,0E0,1.2951843E1,0E0,5.187248E0,3.856885E0,0E0,0E0,1.0874649E1,7.3362076E1,4.7707306E1,2.5182607E0,1.168042E1,5.1100174E1,9.536087E0,0E0,6.604004E0,0E0,0E0,0E0,1.30112915E1,0E0,5.8677864E0,0E0,2.7096536E0,1.0350769E1,0E0,1.928046E1,5.9054916E1,8.605141E0,2.2052171E0,2.2439377E0,0E0,1.314521E1,0E0,1.3311897E1,3.296192E1,0E0,7.8679657E0,0E0,4.5630836E0,0E0,0E0,0E0,0E0,0E0,0E0,0E0,0E0,0E0,0E0,0E0,0E0,0E0,0E0,0E0,0E0,0E0,0E0,0E0,0E0,0E0,0E0,0E0,0E0,0E0,0E0,0E0,0E0],"parents":[2147483647,0,0,1,1,2,2,4,4,5,5,6,6,8,8,10,10,11,11,12,12,14,14,15,15,16,16,17,17,18,18,20,20,21,21,23,23,24,24,26,26,27,27,28,28,29,29,30,30,31,31,34,34,36,36,37,37,40,40,41,41,42,42,43,43,44,44,45,45,46,46,48,48,52,52,54,54,56,56,57,57,59,59,60,60,61,61,62,62,63,63,65,65,67,67,68,68,70,70,72,72],"right_children":[2,4,6,-1,8,10,12,-1,14,-1,16,18,20,-1,22,24,26,28,30,-1,32,34,-1,36,38,-1,40,42,44,46,48,50,-1,-1,52,-1,54,56,-1,-1,58,60,62,64,66,68,70,-1,72,-1,-1,-1,74,-1,76,-1,78,80,-1,82,84,86,88,90,-1,92,-1,94,96,-1,98,-1,100,-1,-1,-1,-1,-1,-1,-1,-1,-1,-1,-1,-1,-1,-1,-1,-1,-1,-1,-1,-1,-1,-1,-1,-1,-1,-1,-1,-1],"split_conditions":[6.455368E-1,1.5008141E-1,5.049373E-1,-5.767646E-2,3.5474768E-1,4.7258037E-1,3.1662858E-1,-9.5731124E-2,4.5687416E-1,3.9423725E-1,6.02E-1,5.849576E-1,5.2E1,-9.5731124E-2,1.6087854E-1,2.187191E-1,6.082121E-1,2.5569418E-1,1.216479E-1,3.7823606E-1,3.8503793E-1,3.548476E-1,-8.340187E-2,1.5732262E-1,4.62E-1,-6.2807985E-2,2.9865015E-1,2.7264595E-1,3.212435E-1,1.6107242E-1,1.7262734E-1,5.0748074E-1,2.501525E-1,-7.894345E-2,3.4516385E-1,-5.904311E-2,2.4919304E-1,3.6417457E-1,1.8433584E-1,-6.2807985E-2,2.0832649E-1,3.8032672E-1,5.2E1,9.1E1,2.0545626E-1,3.3090708E-1,3.340537E-1,2.7096656E-1,3.8181227E-1,2.2133203E-1,-9.325719E-2,-7.361075E-2,1.1155144E-1,-5.904311E-2,1.4507471E-1,2.2133203E-1,5.160784E-1,2.1199718E-1,-8.340187E-2,1.2145944E-1,3.6262015E-1,2.6742315E-1,6.7E1,3.1315374E-1,-1.1552214E-1,4.9366972E-1,-4.566712E-2,2.1168183E-1,3.0275336E-1,-5.2874375E-2,1.1427005E-1,2.2133203E-1,3.2649243E-1,2.8237173E-1,-1.5313955E-2,-5.904311E-2,1.9662602E-1,1.787854E-1,-6.610955E-2,2.1887438E-1,-7.894345E-2,1.4742705E-1,-1.0087635E-1,1.3303632E-1,-2.442887E-2,-0E0,3.6037445E-1,-9.04348E-2,4.2739477E-2,-3.5075985E-2,2.2133203E-1,1.5033937E-1,3.6269608E-1,-8.408778E-2,1.6012E-1,2.8445822E-1,2.6771814E-2,2.1248761E-1,-1.5313955E-2,1.787854E-1,-1.2887879E-1],"split_indices":[2326,2612,138,0,1258,4868,1336,0,3620,0,5002,5002,5006,0,2800,138,1136,3526,1604,0,31,4246,0,133,5003,0,4905,741,3226,1867,1401,1431,0,0,1105,0,1810,1095,0,0,1134,2965,5006,5006,1780,2734,1258,0,3666,0,0,0,1862,0,3888,0,839,2648,0,649,2907,3239,5006,3532,0,3526,0,4246,2907,0,632,0,3751,0,0,0,0,0,0,0,0,0,0,0,0,0,0,0,0,0,0,0,0,0,0,0,0,0,0,0,0],"split_type":[0,0,0,0,0,0,0,0,0,0,0,0,0,0,0,0,0,0,0,0,0,0,0,0,0,0,0,0,0,0,0,0,0,0,0,0,0,0,0,0,0,0,0,0,0,0,0,0,0,0,0,0,0,0,0,0,0,0,0,0,0,0,0,0,0,0,0,0,0,0,0,0,0,0,0,0,0,0,0,0,0,0,0,0,0,0,0,0,0,0,0,0,0,0,0,0,0,0,0,0,0],"sum_hessian":[1.5277125E4,2.80125E2,1.4997E4,1.05E1,2.69625E2,3.42E2,1.4655E4,5.625E0,2.64E2,6E1,2.82E2,1.460325E4,5.175E1,5.625E0,2.58375E2,1.035E2,1.785E2,1.2807375E4,1.795875E3,4.3125E1,8.625E0,2.5425E2,4.125E0,5.4375E1,4.9125E1,5.625E0,1.72875E2,1.263525E4,1.72125E2,1.650375E3,1.455E2,6.75E0,1.875E0,3.75E0,2.505E2,2.625E0,5.175E1,4.425E1,4.875E0,5.625E0,1.6725E2,1.2557625E4,7.7625E1,1.575E1,1.56375E2,1.517625E3,1.3275E2,2.25E0,1.4325E2,1.5E0,5.25E0,3.375E0,2.47125E2,2.625E0,4.9125E1,1.5E0,4.275E1,1.63125E2,4.125E0,1.38E2,1.2419625E4,4.0875E1,3.675E1,3.375E0,1.2375E1,1.47375E2,9E0,1.71E2,1.346625E3,4.875E0,1.27875E2,1.5E0,1.4175E2,2.4225E2,4.875E0,2.625E0,4.65E1,1.125E0,4.1625E1,1.59375E2,3.75E0,1.2525E2,1.275E1,9.525E1,1.2324375E4,2.25E0,3.8625E1,4.875E0,3.1875E1,1.875E0,1.5E0,1.33125E2,1.425E1,8.25E0,1.6275E2,1.9875E1,1.32675E3,1.23E2,4.875E0,1.125E0,1.40625E2],"tree_param":{"num_deleted":"0","num_feature":"5007","num_nodes":"101","size_leaf_vector":"1"}},{"base_weights":[-3.7837615E-3,-3.1503018E-2,7.4261194E-1,-5.195359E-2,6.885542E-1,6.477565E-1,1.4682595E0,-6.4675815E-2,1.12641E0,-7.784214E-2,7.208986E-1,4.5878038E-1,8.3089375E-1,-1.6177958E-2,1.5215662E0,-7.745493E-2,9.9750763E-1,-4.604922E-2,1.1959918E0,-5.767646E-2,7.510804E-1,-1.1380949E-1,5.1384145E-1,8.6463004E-1,-6.690845E-2,3.4762442E-1,2.2214781E-1,-8.906076E-2,7.348801E-1,1.3465359E0,4.7536874E-1,-8.340187E-2,1.2504556E0,7.148076E-1,3.4164736E-1,3.369685E-1,4.630484E-1,-7.894345E-2,8.892807E-1,-1.0700967E-1,4.360884E-1,-1.1602815E-1,8.3248895E-1,-9.5731124E-2,1.4677162E0,1.0539268E-1,9.312439E-1,-7.894345E-2,1.3028075E0,6.7876935E-1,3.5157877E-1,9.987144E-1,3.6504516E-1,9.1473794E-1,-7.894345E-2,-1.19050115E-1,6.4214534E-1,9.991187E-1,3.674791E-1,-9.986339E-2,8.8657576E-1,-3.5075985E-2,1.5114179E0,2.501525E-1,1.0850775E-2,1.1361061E0,-7.361075E-2,-5.904311E-2,1.3411882E0,6.262545E-1,1.4012227E0,1.1691339E0,-0E0,1.0458235E0,2.9898417E-1,9.383724E-1,-7.361075E-2,-2.5502035E-2,1.6826372E-1,-1.2426879E-1,1.6345815E-1,-8.340187E-2,2.3136202E-1,-1.1435532E-1,8.4878564E-2,1.5441397E-1,2.9706427E-1,-3.5075985E-2,3.113893E-1,2.501525E-1,-9.286984E-3,-3.5075985E-2,2.548714E-1,-4.872408E-2,2.7505934E-1,-2.5117366E-2,1.3170654E-1,-1.6177958E-2,3.091664E-1,-3.5075985E-2,2.5961074E-1,-0E0,2.3606291E-1,2.768084E-1,5.0831076E-2,1.925448E-1,-7.361075E-2],"categories":[],"categories_nodes":[],"categories_segments":[],"categories_sizes":[],"default_left":[1,1,0,1,0,0,0,1,0,0,0,0,1,0,0,1,0,0,0,0,1,0,0,0,0,0,0,1,0,0,0,0,0,1,0,0,0,0,1,1,0,0,0,0,0,0,1,0,0,1,0,1,0,1,0,1,0,0,0,0,0,0,0,0,0,0,0,0,0,0,0,0,0,0,0,1,0,0,0,0,0,0,0,0,0,0,0,0,0,0,0,0,0,0,0,0,0,0,0,0,0,0,0,0,0,0,0],"id":3,"left_children":[1,3,5,7,9,11,13,15,17,-1,19,21,23,-1,25,27,29,-1,31,-1,33,-1,35,37,-1,-1,-1,39,41,43,45,-1,47,49,-1,-1,51,-1,53,55,57,-1,59,-1,61,63,65,-1,67,69,-1,71,73,75,-1,77,79,81,83,-1,85,-1,87,-1,89,91,-1,-1,93,95,97,99,-1,101,103,105,-1,-1,-1,-1,-1,-1,-1,-1,-1,-1,-1,-1,-1,-1,-1,-1,-1,-1,-1,-1,-1,-1,-1,-1,-1,-1,-1,-1,-1,-1,-1],"loss_changes":[3.146828E2,2.1585869E2,3.5273926E1,2.1336307E2,1.451326E1,1.5473801E1,6.353653E0,1.911701E2,1.5281143E1,0E0,1.2483795E1,1.3735302E1,1.0118912E1,0E0,2.0768433E0,1.3120578E2,2.8671036E1,0E0,1.3692337E1,0E0,1.0718491E1,0E0,1.1517097E1,7.92247E0,0E0,0E0,0E0,1.2959508E2,2.5565384E1,2.3062103E1,1.0669814E1,0E0,1.3146622E1,1.1355362E1,0E0,0E0,1.0325928E1,0E0,8.214844E0,1.1976668E2,1.6214668E1,0E0,1.3712715E1,0E0,7.954788E0,3.2030919E0,8.740377E0,0E0,9.481659E0,1.1558685E1,0E0,6.4423637E0,7.2467575E0,7.5845795E0,0E0,1.0599083E2,4.679879E1,1.1491978E1,2.1719082E1,0E0,9.697388E0,0E0,8.319214E0,0E0,3.7094123E0,5.799217E0,0E0,0E0,8.385162E0,8.678375E0,6.208893E0,6.000988E0,0E0,3.0583038E0,6.947525E0,7.8445435E0,0E0,0E0,0E0,0E0,0E0,0E0,0E0,0E0,0E0,0E0,0E0,0E0,0E0,0E0,0E0,0E0,0E0,0E0,0E0,0E0,0E0,0E0,0E0,0E0,0E0,0E0,0E0,0E0,0E0,0E0,0E0],"parents":[2147483647,0,0,1,1,2,2,3,3,4,4,5,5,6,6,7,7,8,8,10,10,11,11,12,12,14,14,15,15,16,16,18,18,20,20,22,22,23,23,27,27,28,28,29,29,30,30,32,32,33,33,36,36,38,38,39,39,40,40,42,42,44,44,45,45,46,46,48,48,49,49,51,51,52,52,53,53,55,55,56,56,57,57,58,58,60,60,62,62,64,64,65,65,68,68,69,69,70,70,71,71,73,73,74,74,75,75],"right_children":[2,4,6,8,10,12,14,16,18,-1,20,22,24,-1,26,28,30,-1,32,-1,34,-1,36,38,-1,-1,-1,40,42,44,46,-1,48,50,-1,-1,52,-1,54,56,58,-1,60,-1,62,64,66,-1,68,70,-1,72,74,76,-1,78,80,82,84,-1,86,-1,88,-1,90,92,-1,-1,94,96,98,100,-1,102,104,106,-1,-1,-1,-1,-1,-1,-1,-1,-1,-1,-1,-1,-1,-1,-1,-1,-1,-1,-1,-1,-1,-1,-1,-1,-1,-1,-1,-1,-1,-1,-1],"split_conditions":[1.6361798E-1,1.8940477E-1,5.0967765E-1,1.535309E-1,5.384746E-1,2.4388783E-1,2.00001E0,2.3618054E-1,3.0003238E-1,-7.784214E-2,2.527438E-1,5.800436E-1,2.9490915E-1,-1.6177958E-2,7.717115E-1,2.6088887E-1,1E0,-4.604922E-2,3.1280592E-1,-5.767646E-2,2.3111694E-1,-1.1380949E-1,5.8194447E-1,4.1732472E-1,-6.690845E-2,3.4762442E-1,2.2214781E-1,1.1723516E-1,6.2620586E-1,4.2518038E-1,3.3791372E-1,-8.340187E-2,3.6471447E-1,2.4528344E-1,3.4164736E-1,3.369685E-1,1.8450467E-1,-7.894345E-2,3.0022627E-1,1.524791E-1,2.4904583E-1,-1.1602815E-1,2.2696982E-1,-9.5731124E-2,7.7875096E-1,2.4025612E-1,3.4108317E-1,-7.894345E-2,2.5390166E-1,1.4158632E-1,3.5157877E-1,1.3914248E-1,2.1295151E-1,3.4969583E-1,-7.894345E-2,2.367353E-1,3.109041E-1,3.378169E-1,5.7688075E-1,-9.986339E-2,6.0462135E-1,-3.5075985E-2,3.2827407E-1,2.501525E-1,2.6981947E-1,5.961868E-1,-7.361075E-2,-5.904311E-2,2.1233647E-1,2.77332E-1,1.06765755E-1,3.1687108E-1,-0E0,4.375559E-1,3.1924838E-1,2.4737592E-1,-7.361075E-2,-2.5502035E-2,1.6826372E-1,-1.2426879E-1,1.6345815E-1,-8.340187E-2,2.3136202E-1,-1.1435532E-1,8.4878564E-2,1.5441397E-1,2.9706427E-1,-3.5075985E-2,3.113893E-1,2.501525E-1,-9.286984E-3,-3.5075985E-2,2.548714E-1,-4.872408E-2,2.7505934E-1,-2.5117366E-2,1.3170654E-1,-1.6177958E-2,3.091664E-1,-3.5075985E-2,2.5961074E-1,-0E0,2.3606291E-1,2.768084E-1,5.0831076E-2,1.925448E-1,-7.361075E-2],"split_indices":[2569,1862,2569,1004,1931,2569,1862,4768,4579,0,1458,1697,2395,0,2569,4370,649,0,3236,0,326,0,4780,532,0,0,0,422,2436,3007,4768,0,1822,518,0,0,1780,0,2522,1480,3226,0,4178,0,964,3226,3814,0,84,2503,0,4153,2503,741,0,2914,4868,3339,3230,0,4370,0,2395,0,3501,493,0,0,1257,2904,1819,4849,0,632,1004,1819,0,0,0,0,0,0,0,0,0,0,0,0,0,0,0,0,0,0,0,0,0,0,0,0,0,0,0,0,0,0,0],"split_type":[0,0,0,0,0,0,0,0,0,0,0,0,0,0,0,0,0,0,0,0,0,0,0,0,0,0,0,0,0,0,0,0,0,0,0,0,0,0,0,0,0,0,0,0,0,0,0,0,0,0,0,0,0,0,0,0,0,0,0,0,0,0,0,0,0,0,0,0,0,0,0,0,0,0,0,0,0,0,0,0,0,0,0,0,0,0,0,0,0,0,0,0,0,0,0,0,0,0,0,0,0,0,0,0,0,0,0],"sum_hessian":[1.523775E4,1.4693625E4,5.44125E2,1.4289375E4,4.0425E2,4.83E2,6.1125E1,1.4137875E4,1.515E2,1.0875E1,3.93375E2,2.4075E2,2.4225E2,1.5E0,5.9625E1,1.3971E4,1.66875E2,6.75E0,1.4475E2,1.05E1,3.82875E2,1.125E1,2.295E2,2.3625E2,6E0,3.675E1,2.2875E1,1.3775625E4,1.95375E2,9.8625E1,6.825E1,4.125E0,1.40625E2,3.705E2,1.2375E1,8.25E0,2.2125E2,3.75E0,2.325E2,1.332225E4,4.53375E2,1.275E1,1.82625E2,5.625E0,9.3E1,3.9E1,2.925E1,3.75E0,1.36875E2,3.59625E2,1.0875E1,3.225E1,1.89E2,2.2875E2,3.75E0,1.3113E4,2.0925E2,4.725E1,4.06125E2,6.375E0,1.7625E2,1.875E0,9.1125E1,1.875E0,3.7125E1,2.5875E1,3.375E0,2.625E0,1.3425E2,3.37125E2,2.25E1,2.8125E1,4.125E0,1.5E1,1.74E2,2.25375E2,3.375E0,1.299975E4,1.1325E2,2.475E1,1.845E2,4.125E0,4.3125E1,2.2125E1,3.84E2,1.5E2,2.625E1,1.875E0,8.925E1,1.875E0,3.525E1,1.875E0,2.4E1,2.25E0,1.32E2,1.275E1,3.24375E2,1.5E0,2.1E1,1.875E0,2.625E1,1.125E0,1.3875E1,5.625E0,1.68375E2,2.22E2,3.375E0],"tree_param":{"num_deleted":"0","num_feature":"5007","num_nodes":"107","size_leaf_vector":"1"}},{"base_weights":[1.1698827E-3,-1.9073984E-2,1.1302631E0,1.5398023E-1,-1.249077E-1,2.935875E-1,7.425434E-1,6.762307E-1,1.3549744E-1,5.108863E-1,-1.4058731E-1,1.1690171E0,5.722184E-1,7.8636247E-1,-2.3263283E-3,1.5122014E-1,-4.1438776E-1,5.793804E-1,-6.639321E-2,4.9938643E-1,-1.5382935E-1,1.2588245E0,-2.5438929E-2,4.7028005E-1,2.6396468E-1,1.2644824E0,6.643645E-1,1.157131E0,1.4471658E-1,2.3991588E-1,-4.7939023E-1,6.239657E-1,-1.0611322E-1,6.1560136E-1,-1.1708539E-1,2.6807502E-1,-1.7329217E-1,1.3011187E0,-0E0,1.2211418E0,3.4884053E-1,-8.9173345E-3,1.3467855E0,7.015701E-1,-7.73459E-2,-4.0438127E-2,1.271115E0,-3.8760278E-1,1.5484637E-1,1.6399768E-1,-4.9839267E-1,6.6756797E-1,-1.0475772E-1,7.5204724E-1,-0E0,1.6703074E0,1.9531007E-1,-1.2977447E-1,-1.570519E-1,2.7651763E-1,5.341087E-2,-0E0,2.8795704E-1,2.6776466E-1,2.1275061E-1,-0E0,1.4213649E0,-7.461437E-2,7.3402333E-1,-0E0,2.687831E-1,6.957021E-1,-4.403003E-1,8.2442755E-1,1.4576921E-1,1.4771158E-1,-5.17393E-1,-7.719775E-2,7.1081793E-1,-2.8674865E-1,8.4085816E-1,2.6929367E-1,-1.5429357E-1,-0E0,3.6338493E-1,1.0691593E0,8.779016E-2,6.407583E-1,-1.6577151E-1,3.0436873E-1,8.681198E-2,-0E0,2.9647514E-1,1.5419742E-1,-1.5877182E-2,2.280206E-1,-0E0,1.7120078E-1,-9.392834E-2,-6.7742884E-2,1.786374E-1,1.5302719E-1,2.7301688E-2,1.3681364E-1,-1.0744635E-1,-9.803227E-2,1.5024213E-1,3.8165044E-2,-9.0305604E-2,-6.97897E-2,1.8101919E-1,2.0388578E-1,-5.5207253E-2,-0E0,2.3205768E-1,3.2816008E-2,-1.2152536E-1,3.6468837E-2,2.1652977E-1,9.583309E-2,-3.4881745E-2,2.2355819E-1,3.620478E-3],"categories":[],"categories_nodes":[],"categories_segments":[],"categories_sizes":[],"default_left":[1,0,0,0,0,0,1,1,1,1,0,1,1,0,0,0,0,1,0,1,0,1,0,0,0,0,1,0,0,0,0,1,0,1,0,0,0,0,0,0,0,0,0,0,0,0,0,0,0,0,0,0,0,0,0,0,0,0,0,0,0,0,0,0,0,0,0,0,1,0,0,0,0,0,0,0,0,0,0,0,0,0,0,0,0,0,1,0,0,0,0,0,0,0,0,0,0,0,0,0,0,0,0,0,0,0,0,0,0,0,0,0,0,0,0,0,0,0,0,0,0,0,0],"id":4,"left_children":[1,3,5,7,9,-1,11,13,15,17,19,21,23,25,-1,27,29,31,-1,33,35,37,-1,39,-1,41,43,45,47,-1,49,51,-1,53,-1,55,57,59,-1,61,63,-1,65,67,-1,-1,69,71,73,-1,75,77,-1,79,81,83,85,-1,87,-1,-1,-1,-1,-1,89,-1,91,-1,93,-1,-1,95,97,99,101,-1,103,-1,105,107,109,-1,111,-1,-1,113,115,117,119,-1,121,-1,-1,-1,-1,-1,-1,-1,-1,-1,-1,-1,-1,-1,-1,-1,-1,-1,-1,-1,-1,-1,-1,-1,-1,-1,-1,-1,-1,-1,-1,-1,-1],"loss_changes":[3.492837E2,2.741781E2,3.288797E1,5.408725E1,9.236258E1,0E0,7.48452E0,1.5233894E1,4.7240906E1,1.3138058E1,7.6616165E1,5.042263E0,5.324238E0,7.73452E0,0E0,3.3734924E1,1.5508802E1,1.046331E1,0E0,2.322131E1,7.293051E1,1.5379562E0,0E0,6.127676E0,0E0,4.5751686E0,5.6801376E0,6.1878395E0,2.8425484E1,0E0,3.5207138E0,1.0276527E1,0E0,1.438699E1,0E0,3.809861E1,6.491751E1,1.1170692E0,0E0,3.8485966E0,8.49876E0,0E0,4.123642E0,5.0186615E0,0E0,0E0,3.931717E0,5.4945116E0,3.0768555E1,0E0,3.391739E0,9.208488E0,0E0,1.3180183E1,5.5668054E0,5.881916E0,3.3940804E1,0E0,5.683531E1,0E0,0E0,0E0,0E0,0E0,9.483955E0,0E0,2.4519997E0,0E0,4.479805E0,0E0,0E0,1.2537678E0,3.4341888E0,6.064678E0,2.8663406E1,0E0,3.4660568E0,0E0,9.441391E0,1.0727844E0,1.0296562E1,0E0,3.4307706E0,0E0,0E0,4.668144E0,1.7319231E1,1.6656303E1,4.508629E1,0E0,3.3812735E0,0E0,0E0,0E0,0E0,0E0,0E0,0E0,0E0,0E0,0E0,0E0,0E0,0E0,0E0,0E0,0E0,0E0,0E0,0E0,0E0,0E0,0E0,0E0,0E0,0E0,0E0,0E0,0E0,0E0,0E0,0E0,0E0],"parents":[2147483647,0,0,1,1,2,2,3,3,4,4,6,6,7,7,8,8,9,9,10,10,11,11,12,12,13,13,15,15,16,16,17,17,19,19,20,20,21,21,23,23,25,25,26,26,27,27,28,28,30,30,31,31,33,33,35,35,36,36,37,37,39,39,40,40,42,42,43,43,46,46,47,47,48,48,50,50,51,51,53,53,54,54,55,55,56,56,58,58,64,64,66,66,68,68,71,71,72,72,73,73,74,74,76,76,78,78,79,79,80,80,82,82,85,85,86,86,87,87,88,88,90,90],"right_children":[2,4,6,8,10,-1,12,14,16,18,20,22,24,26,-1,28,30,32,-1,34,36,38,-1,40,-1,42,44,46,48,-1,50,52,-1,54,-1,56,58,60,-1,62,64,-1,66,68,-1,-1,70,72,74,-1,76,78,-1,80,82,84,86,-1,88,-1,-1,-1,-1,-1,90,-1,92,-1,94,-1,-1,96,98,100,102,-1,104,-1,106,108,110,-1,112,-1,-1,114,116,118,120,-1,122,-1,-1,-1,-1,-1,-1,-1,-1,-1,-1,-1,-1,-1,-1,-1,-1,-1,-1,-1,-1,-1,-1,-1,-1,-1,-1,-1,-1,-1,-1,-1,-1],"split_conditions":[2.6393074E-1,7.7E1,5.190076E-1,5.04036E-1,3.2166693E-1,2.935875E-1,6E1,1.1946833E-1,1E0,1.5037411E-1,3.4990454E-1,2.6508635E-1,2.7034754E-1,1.2994175E-1,-2.3263283E-3,2.00001E0,4.0605113E-1,1.5832813E-1,-6.639321E-2,2.1790862E-1,3.4609684E-1,2.4374947E-1,-2.5438929E-2,4.0605113E-1,2.6396468E-1,4.1419685E-1,2.1063797E-1,3.9740017E-1,9.5016104E-1,2.3991588E-1,3.8274294E-1,2.0442435E-1,-1.0611322E-1,9.376706E-2,-1.1708539E-1,4.1255605E-1,2.00001E0,5.003298E-1,-0E0,5.0727546E-1,5.55384E-1,-8.9173345E-3,1.3075142E-1,5.057891E-1,-7.73459E-2,-4.0438127E-2,2.4027283E-1,3.2994327E-1,5.4466915E-1,1.6399768E-1,4.6100223E-1,2.9108733E-1,-1.0475772E-1,5.2918875E-1,4.7369492E-1,3.8795358E-1,9.8156855E-2,-1.2977447E-1,1.4716655E0,2.7651763E-1,5.341087E-2,-0E0,2.8795704E-1,2.6776466E-1,3.1112164E-1,-0E0,1.283334E-1,-7.461437E-2,2.2232541E-1,-0E0,2.687831E-1,5.2E1,3.195291E-1,2.4604048E-1,2.7643645E-1,1.4771158E-1,6.4250183E-1,-7.719775E-2,2.1982394E-1,2.2921914E-1,1.7960128E-1,2.6929367E-1,3.6668366E-1,-0E0,3.6338493E-1,4.4E-1,1.4223115E-1,2.00001E0,1.760048E-1,3.0436873E-1,2.9630098E-1,-0E0,2.9647514E-1,1.5419742E-1,-1.5877182E-2,2.280206E-1,-0E0,1.7120078E-1,-9.392834E-2,-6.7742884E-2,1.786374E-1,1.5302719E-1,2.7301688E-2,1.3681364E-1,-1.0744635E-1,-9.803227E-2,1.5024213E-1,3.8165044E-2,-9.0305604E-2,-6.97897E-2,1.8101919E-1,2.0388578E-1,-5.5207253E-2,-0E0,2.3205768E-1,3.2816008E-2,-1.2152536E-1,3.6468837E-2,2.1652977E-1,9.583309E-2,-3.4881745E-2,2.2355819E-1,3.620478E-3],"split_indices":[3230,5006,1169,3147,1914,0,5006,4443,5000,1780,3392,1819,422,3147,0,1671,374,658,0,2181,3814,1780,0,374,0,1515,3226,3283,3650,0,1850,2376,0,1780,0,374,2326,3230,0,615,649,0,4778,2886,0,0,4778,2569,4327,0,2870,649,0,202,1002,4240,3814,0,862,0,0,0,0,0,443,0,1914,0,3501,0,0,5006,27,1862,422,0,572,0,3526,2503,2904,0,1544,0,0,5003,138,5000,1867,0,1458,0,0,0,0,0,0,0,0,0,0,0,0,0,0,0,0,0,0,0,0,0,0,0,0,0,0,0,0,0,0,0,0],"split_type":[0,0,0,0,0,0,0,0,0,0,0,0,0,0,0,0,0,0,0,0,0,0,0,0,0,0,0,0,0,0,0,0,0,0,0,0,0,0,0,0,0,0,0,0,0,0,0,0,0,0,0,0,0,0,0,0,0,0,0,0,0,0,0,0,0,0,0,0,0,0,0,0,0,0,0,0,0,0,0,0,0,0,0,0,0,0,0,0,0,0,0,0,0,0,0,0,0,0,0,0,0,0,0,0,0,0,0,0,0,0,0,0,0,0,0,0,0,0,0,0,0,0,0],"sum_hessian":[1.5239295E4,1.4970578E4,2.68716E2,5.6780083E3,9.29257E3,1.4179655E2,1.2691945E2,1.9197513E2,5.486033E3,2.2201811E2,9.070552E3,3.4058563E1,9.286089E1,1.6648048E2,2.5494646E1,5.3353394E3,1.5069398E2,2.0638614E2,1.5631974E1,1.8225461E2,8.888297E3,3.247156E1,1.5870012E0,8.335454E1,9.506349E0,3.158406E1,1.3489642E2,3.2930138E1,5.302409E3,5.028629E0,1.4566536E2,1.9933485E2,7.0512834E0,1.6549614E2,1.6758465E1,3.897826E2,8.498515E3,3.1274532E1,1.1970297E0,1.0071813E1,7.328273E1,1.275107E0,3.0308954E1,1.3120312E2,3.693297E0,1.9490551E0,3.0981081E1,9.71525E1,5.205257E3,1.187416E0,1.4447794E2,1.929277E2,6.407152E0,1.3618053E2,2.9315615E1,1.817069E1,3.7161188E2,2.7833597E2,8.220179E3,2.8094933E1,3.1795995E0,1.0963851E0,8.975428E0,7.6281238E0,6.56546E1,1.1020253E0,2.9206928E1,2.9468894E0,1.2825624E2,1.136109E0,2.9844973E1,3.5107448E0,9.3641754E1,6.783976E1,5.137417E3,1.2573913E0,1.4322055E2,6.699158E0,1.8622855E2,9.899737E0,1.26280785E2,2.2595956E0,2.705602E1,1.102166E0,1.7068523E1,3.9415234E1,3.3219666E2,8.747382E1,8.132705E3,4.7374234E0,6.0917183E1,1.275107E0,2.7931822E1,1.2369416E2,4.562074E0,1.9895211E0,1.5212237E0,1.1567969E0,9.2484955E1,3.0042362E0,6.4835526E1,7.380234E1,5.0636147E3,1.392198E0,1.4182835E2,5.2181807E0,1.8101036E2,1.2100407E0,8.689697E0,5.6949E0,1.20585884E2,1.5807832E0,2.5475237E1,2.5486145E0,3.686662E1,3.0075726E2,3.1439384E1,4.418159E1,4.3292233E1,1.0586394E2,8.026841E3,2.6111767E0,5.8306004E1],"tree_param":{"num_deleted":"0","num_feature":"5007","num_nodes":"123","size_leaf_vector":"1"}},{"base_weights":[-1.2857814E-3,-2.7484225E-2,1.1964533E0,-1.0587916E-1,1.6334423E-1,-9.243738E-2,1.2250348E0,-1.2853931E-1,3.830545E-1,-4.3675918E-2,4.4664273E-1,-5.3958263E-2,1.2482884E0,-1.380345E-1,1.0318274E0,3.4649903E-1,3.0781385E-1,-8.082842E-2,4.859842E-1,-3.3452713E-1,4.8560467E-1,-7.280081E-2,1.2697085E0,-1.4321026E-1,1.4109622E0,-6.897284E-2,1.1015224E0,1.9325551E-1,6.3919526E-1,-4.158368E-2,-4.5910078E-1,-1.1580618E-1,6.1552155E-1,-4.0525413E-1,2.2133306E-1,-1.6063924E-1,5.3172016E-1,1.07914515E-1,1.3040818E0,-1.5133522E-1,7.128071E-1,-0E0,1.4842074E0,-0E0,1.1610502E0,2.6263833E-1,1.5662509E-1,7.085379E-1,-1.02914326E-1,-9.608959E-3,-5.443022E-1,2.8539452E-1,-4.9772552E-1,-9.060289E-2,6.9892865E-1,2.134093E-1,-4.5906436E-1,2.6330957E-1,-2.0320517E-1,4.535844E-1,9.548517E-1,2.0488325E-1,-1.6415413E-1,-2.6409212E-2,1.3244808E0,-1.562412E-1,1.0806236E0,4.8426047E-1,2.4192424E-1,-0E0,1.5623516E0,-3.699398E-2,1.2053292E0,8.944893E-1,1.1360131E-1,5.0109935E-1,9.6988285E-1,-2.344476E-2,1.0876495E0,-5.902501E-1,2.127577E-1,-5.2844864E-1,2.4419177E-1,-4.057132E-2,7.475076E-1,-5.258324E-1,1.5408233E-1,2.6037475E-1,-2.4740973E-1,-2.1417458E-1,4.9907392E-1,-1.186696E-1,1.0157825E0,-1.0478934E-1,1.3289678E-1,1.3430731E0,-2.270879E-2,-3.2391038E-2,1.676306E-1,-8.494998E-3,2.3975699E-1,-9.0449475E-2,1.1279388E-1,-0E0,3.291213E-1,2.496718E-1,-2.8010884E-2,2.0489417E-1,-0E0,1.8322019E-2,2.731612E-1,1.3869244E-1,8.244629E-4,-0E0,2.0044246E-1,-7.578648E-3,1.9261776E-1,-5.131483E-2,2.5449145E-1,4.9650084E-2,-1.2118461E-1,1.6284636E-1,-1.10146895E-1,-6.2253922E-2,1.598586E-1,1.9597435E-1,-1.149215E-1,-1.24371566E-1,-1.2367077E-2,-5.6750763E-2,1.4847445E-1,-3.769787E-2,1.06731884E-1,1.8186893E-1,-6.327135E-2,2.1418987E-1,-2.8060699E-2,2.716852E-1,-4.856723E-2],"categories":[],"categories_nodes":[],"categories_segments":[],"categories_sizes":[],"default_left":[1,1,0,1,0,0,0,1,1,1,0,0,0,1,0,0,0,1,0,1,0,0,0,1,0,0,0,0,1,1,0,0,0,0,0,0,1,0,0,1,0,0,0,0,0,0,0,0,0,1,1,0,1,0,0,0,1,0,0,0,0,0,1,0,1,1,0,0,0,0,0,0,1,1,1,0,0,1,0,0,0,0,0,0,0,0,0,0,0,1,0,0,1,0,0,1,0,0,0,0,0,0,0,0,0,0,0,0,0,0,0,0,0,0,0,0,0,0,0,0,0,0,0,0,0,0,0,0,0,0,0,0,0,0,0,0,0,0,0],"id":5,"left_children":[1,3,5,7,9,-1,11,13,15,17,19,-1,21,23,25,27,-1,29,31,33,35,-1,37,39,41,-1,43,45,47,49,51,-1,53,55,-1,57,59,61,63,65,67,-1,69,-1,71,-1,73,75,-1,77,79,-1,81,-1,83,-1,85,-1,87,89,91,-1,93,-1,95,97,99,101,-1,-1,103,-1,105,107,109,111,113,115,117,119,-1,121,-1,-1,123,125,-1,-1,127,129,131,133,135,-1,-1,137,-1,-1,-1,-1,-1,-1,-1,-1,-1,-1,-1,-1,-1,-1,-1,-1,-1,-1,-1,-1,-1,-1,-1,-1,-1,-1,-1,-1,-1,-1,-1,-1,-1,-1,-1,-1,-1,-1,-1,-1,-1,-1,-1],"loss_changes":[4.773803E2,2.2314958E2,1.6334015E1,1.17007515E2,2.549614E2,0E0,1.212439E1,1.10720795E2,1.7907257E1,4.9010685E1,5.6042267E1,0E0,1.1899719E1,7.944197E1,8.618835E0,1.9606167E1,0E0,3.437569E1,2.2665443E1,8.4179945E0,5.246808E1,0E0,1.1243866E1,6.911479E1,4.507927E0,0E0,5.809265E0,1.0997497E1,1.26420555E1,3.3716694E1,1.5441116E1,0E0,1.337616E1,6.3034124E0,0E0,6.451825E0,5.2629456E1,3.3402753E0,9.965027E0,5.9166443E1,8.882172E0,0E0,4.8434906E0,0E0,5.410118E0,0E0,8.382257E0,6.4616165E0,0E0,2.9502003E1,9.163563E0,0E0,1.1044266E1,0E0,6.5062256E0,0E0,6.640053E0,0E0,6.795705E0,4.2253174E1,1.7329697E1,0E0,2.2843444E0,0E0,9.113281E0,5.5557816E1,6.1280823E0,5.112076E0,0E0,0E0,5.194359E0,0E0,5.2358093E0,2.5285006E0,6.3639793E0,7.4571877E0,2.7781143E0,2.7429295E1,7.0083523E0,1.9841003E0,0E0,6.31538E0,0E0,0E0,7.677849E0,5.6339054E0,0E0,0E0,7.120244E0,5.5150714E0,3.1124146E1,2.3175583E0,1.614418E1,0E0,0E0,8.303528E0,0E0,0E0,0E0,0E0,0E0,0E0,0E0,0E0,0E0,0E0,0E0,0E0,0E0,0E0,0E0,0E0,0E0,0E0,0E0,0E0,0E0,0E0,0E0,0E0,0E0,0E0,0E0,0E0,0E0,0E0,0E0,0E0,0E0,0E0,0E0,0E0,0E0,0E0,0E0,0E0,0E0,0E0,0E0],"parents":[2147483647,0,0,1,1,2,2,3,3,4,4,6,6,7,7,8,8,9,9,10,10,12,12,13,13,14,14,15,15,17,17,18,18,19,19,20,20,22,22,23,23,24,24,26,26,27,27,28,28,29,29,30,30,32,32,33,33,35,35,36,36,37,37,38,38,39,39,40,40,42,42,44,44,46,46,47,47,49,49,50,50,52,52,54,54,56,56,58,58,59,59,60,60,62,62,64,64,65,65,66,66,67,67,70,70,72,72,73,73,74,74,75,75,76,76,77,77,78,78,79,79,81,81,84,84,85,85,88,88,89,89,90,90,91,91,92,92,95,95],"right_children":[2,4,6,8,10,-1,12,14,16,18,20,-1,22,24,26,28,-1,30,32,34,36,-1,38,40,42,-1,44,46,48,50,52,-1,54,56,-1,58,60,62,64,66,68,-1,70,-1,72,-1,74,76,-1,78,80,-1,82,-1,84,-1,86,-1,88,90,92,-1,94,-1,96,98,100,102,-1,-1,104,-1,106,108,110,112,114,116,118,120,-1,122,-1,-1,124,126,-1,-1,128,130,132,134,136,-1,-1,138,-1,-1,-1,-1,-1,-1,-1,-1,-1,-1,-1,-1,-1,-1,-1,-1,-1,-1,-1,-1,-1,-1,-1,-1,-1,-1,-1,-1,-1,-1,-1,-1,-1,-1,-1,-1,-1,-1,-1,-1,-1,-1,-1],"split_conditions":[1.17340945E-1,1E0,2.9428855E-1,1.1392545E-1,2.00001E0,-9.243738E-2,1.7831822E-1,1.4872736E-1,2.293264E-1,4.2E-1,2.00001E0,-5.3958263E-2,2.9829058E-1,1.8306552E-1,2.4329568E-1,3.5193828E-1,3.0781385E-1,4.673018E-1,4.7014242E-1,1.8714271E-1,2.00001E0,-7.280081E-2,1.797367E-1,1.3270147E-1,2.6506305E-1,-6.897284E-2,3.5942057E-1,4.1093382E-1,6.098934E-1,1.8736315E-1,5.3455704E-1,-1.1580618E-1,3.004327E-1,3.2566467E-1,2.2133306E-1,4.7674325E-1,8.682942E-2,2.00001E0,2.237047E-1,3.7307733E-1,6.62802E-1,-0E0,3.914234E-1,-0E0,7.5465894E-1,2.6263833E-1,3.3484846E-1,5.169237E-1,-1.02914326E-1,1.5984978E-1,2.5543264E-1,2.8539452E-1,2.1879701E-1,-9.060289E-2,2.5081933E-1,2.134093E-1,2.9054382E-1,2.6330957E-1,3.1943434E-1,3.1030503E-1,3.0924585E-1,2.0488325E-1,2.700648E-1,-2.6409212E-2,2.3181938E-1,1.49529E-1,2.8575057E-1,6.1952084E-1,2.4192424E-1,-0E0,3.6379543E-1,-3.699398E-2,3.4125438E-1,1.0774705E-1,2.1363196E-1,4.3567017E-1,3.7710896E-1,2.1860337E-1,2.1659528E-1,3.1982866E-1,2.127577E-1,2.0725448E-1,2.4419177E-1,-4.057132E-2,2.7877066E-1,2.4980393E-1,1.5408233E-1,2.6037475E-1,1.8925087E-1,2.2842805E-1,2.00001E0,2.0456804E-1,1.349175E-1,-1.0478934E-1,1.3289678E-1,2.4833092E-1,-2.270879E-2,-3.2391038E-2,1.676306E-1,-8.494998E-3,2.3975699E-1,-9.0449475E-2,1.1279388E-1,-0E0,3.291213E-1,2.496718E-1,-2.8010884E-2,2.0489417E-1,-0E0,1.8322019E-2,2.731612E-1,1.3869244E-1,8.244629E-4,-0E0,2.0044246E-1,-7.578648E-3,1.9261776E-1,-5.131483E-2,2.5449145E-1,4.9650084E-2,-1.2118461E-1,1.6284636E-1,-1.10146895E-1,-6.2253922E-2,1.598586E-1,1.9597435E-1,-1.149215E-1,-1.24371566E-1,-1.2367077E-2,-5.6750763E-2,1.4847445E-1,-3.769787E-2,1.06731884E-1,1.8186893E-1,-6.327135E-2,2.1418987E-1,-2.8060699E-2,2.716852E-1,-4.856723E-2],"split_indices":[1642,5000,3839,1747,5002,0,2965,3843,1149,5001,4370,0,2734,989,1914,1747,0,5004,1169,2800,2965,0,4443,4933,3011,0,2455,2455,2482,3230,4221,0,1867,4001,0,1488,1780,5000,4717,1977,4933,0,704,0,3801,0,2612,1747,0,26,1604,0,2395,0,4525,0,448,0,141,1867,3071,0,2,0,4902,4911,1780,2796,0,0,4335,0,190,1780,2130,1747,255,1747,2904,4489,0,4396,0,0,2734,4204,0,0,2965,202,1862,4298,1889,0,0,2747,0,0,0,0,0,0,0,0,0,0,0,0,0,0,0,0,0,0,0,0,0,0,0,0,0,0,0,0,0,0,0,0,0,0,0,0,0,0,0,0,0,0,0],"split_type":[0,0,0,0,0,0,0,0,0,0,0,0,0,0,0,0,0,0,0,0,0,0,0,0,0,0,0,0,0,0,0,0,0,0,0,0,0,0,0,0,0,0,0,0,0,0,0,0,0,0,0,0,0,0,0,0,0,0,0,0,0,0,0,0,0,0,0,0,0,0,0,0,0,0,0,0,0,0,0,0,0,0,0,0,0,0,0,0,0,0,0,0,0,0,0,0,0,0,0,0,0,0,0,0,0,0,0,0,0,0,0,0,0,0,0,0,0,0,0,0,0,0,0,0,0,0,0,0,0,0,0,0,0,0,0,0,0,0,0],"sum_hessian":[1.5243875E4,1.4918697E4,3.251777E2,1.0577805E4,4.3408926E3,4.8937097E0,3.20284E2,1.0111243E4,4.6656198E2,2.5066023E3,1.8342904E3,4.278164E0,3.1600583E2,1.0030288E4,8.095489E1,4.5353354E2,1.3028453E1,2.3441458E3,1.6245651E2,8.59524E1,1.748338E3,3.5333705E0,3.1247247E2,9.997834E3,3.24545E1,3.2329617E0,7.7721924E1,3.0005936E2,1.5347417E2,2.1262761E3,2.1786961E2,1.6742449E1,1.4571407E2,8.279684E1,3.155561E0,1.15159424E2,1.6331786E3,9.736905E0,3.0273557E2,9.905172E3,9.266165E1,1.1211045E0,3.1333395E1,3.5009022E0,7.422102E1,8.2787075E0,2.9178064E2,1.456255E2,7.8486595E0,2.0011309E3,1.2514537E2,3.6101556E0,2.1425945E2,9.675018E0,1.3603905E2,2.06887E0,8.0727974E1,2.2941914E0,1.12865234E2,1.3810713E3,2.521072E2,2.6527836E0,7.0841217E0,3.6271296E0,2.9910843E2,9.866956E3,3.8216263E1,6.523532E1,2.7426332E1,1.1156209E0,3.0217775E1,1.7124844E0,7.250854E1,1.4506908E1,2.7727374E2,8.371389E1,6.1911617E1,1.9774047E3,2.3726171E1,1.22454926E2,2.6904433E0,2.1128409E2,2.9753652E0,5.994503E0,1.3004454E2,7.746369E1,3.2642775E0,2.3115408E0,1.1055369E2,8.679463E1,1.2942767E3,1.2775176E1,2.3933202E2,5.7634783E0,1.3206437E0,2.9589813E2,3.210281E0,9.811799E3,5.515714E1,2.9868348E0,3.5229427E1,4.123139E0,6.1112183E1,1.1064359E0,2.911134E1,7.089943E1,1.6091049E0,1.3361521E1,1.1453882E0,2.7362366E2,3.6500795E0,5.9003155E1,2.471074E1,1.1925582E0,6.071906E1,1.9501299E3,2.7274765E1,2.2957134E0,2.1430456E1,1.1383475E0,1.21316574E2,2.5716128E0,2.0871248E2,5.2004437E0,1.2484409E2,1.6193492E0,7.5844345E1,3.477972E1,7.577397E1,8.202502E1,4.769614E0,6.0723804E1,1.2335529E3,1.1121244E0,1.1663052E1,2.2915855E2,1.0173453E1,2.9365097E2,2.2471664E0],"tree_param":{"num_deleted":"0","num_feature":"5007","num_nodes":"139","size_leaf_vector":"1"}},{"base_weights":[3.4004715E-4,8.830209E-1,-1.9739818E-2,-3.1919914E-1,9.3313134E-1,8.112157E-1,-3.889472E-2,-1.17492296E-1,3.1478126E-2,-1.0707686E-1,9.7037685E-1,2.8335947E-1,6.582239E-1,-7.027147E-2,1.7353266E-1,1.7560634E-1,-5.9435368E-2,1.0242695E0,-9.307907E-2,5.879992E-1,1.4181166E0,-7.681734E-2,9.9894285E-1,2.3049586E-1,-5.057815E-1,1.0558254E0,-1.0306372E-1,2.3240109E-1,-4.497238E-1,6.31658E-1,-7.485026E-2,-0E0,3.0076334E-1,-8.451251E-2,8.8187265E-1,1.4756304E0,-1.6618489E-1,2.7244657E-1,-2.8812534E-1,2.2383764E-1,-5.384576E-1,1.0840347E0,-8.931407E-2,-1.19689636E-1,3.41323E-2,-9.972411E-2,6.685885E-1,8.406295E-1,-9.0554334E-2,-4.6153296E-2,9.1481763E-1,3.0385482E-1,-0E0,2.0950913E-1,-6.451E-2,2.4893233E-1,9.483069E-1,3.0628973E-1,-3.5022092E-1,2.1789089E-1,-5.71991E-1,-8.886292E-2,1.1130275E0,-1.0267462E-1,7.0623934E-1,-0E0,1.1484534E0,-7.4278206E-2,-3.9630398E-1,9.696302E-1,-0E0,1.1746764E0,2.3310241E-1,-7.54459E-2,1.0556489E0,6.4238024E-1,-4.3814003E-1,2.2330527E-1,-6.0001355E-1,-8.5445985E-2,2.2704469E-1,-9.9604554E-2,1.4800309E-1,2.6234528E-1,-3.08993E-2,-1.4508112E-2,2.6398176E-1,1.8354802E-1,-1.5911706E-2,1.4397609E-1,-8.409145E-2,-2.5540873E-2,1.9986728E-1,2.711341E-1,-0E0,4.413938E-2,2.84765E-1,1.9698868E-2,2.5004175E-1,-0E0,3.0670363E-1,2.8982732E-1,-9.903097E-2,-0E0,-1.2424181E-1],"categories":[],"categories_nodes":[],"categories_segments":[],"categories_sizes":[],"default_left":[0,0,0,1,0,0,1,0,1,0,1,0,1,1,1,0,0,1,0,1,0,1,0,1,0,1,0,0,1,0,0,0,0,0,0,1,0,1,0,0,0,0,0,0,0,0,0,0,1,0,1,0,0,0,0,0,0,0,0,0,0,0,0,0,0,0,0,0,0,0,0,1,1,0,0,1,0,0,0,0,0,0,0,0,0,0,0,0,0,0,0,0,0,0,0,0,0,0,0,0,0,0,0,0,0],"id":6,"left_children":[1,3,5,7,9,11,13,-1,15,-1,17,-1,19,21,23,-1,-1,25,27,29,31,33,35,37,39,41,-1,-1,43,45,-1,-1,-1,47,49,51,53,55,57,-1,59,61,-1,-1,-1,-1,63,65,67,-1,69,-1,-1,-1,-1,71,73,-1,75,-1,77,-1,79,-1,81,83,85,87,89,91,-1,93,95,-1,97,99,101,-1,103,-1,-1,-1,-1,-1,-1,-1,-1,-1,-1,-1,-1,-1,-1,-1,-1,-1,-1,-1,-1,-1,-1,-1,-1,-1,-1],"loss_changes":[2.6973154E2,2.1044678E1,2.3555106E2,1.7191288E0,1.8417694E1,2.8720245E1,9.660422E1,0E0,1.9394712E0,0E0,1.907669E1,0E0,1.2241646E1,8.774391E1,7.193155E1,0E0,0E0,1.5462128E1,6.356871E0,1.07080765E1,2.467701E0,9.2072716E1,4.3523163E1,3.746093E1,7.38398E0,1.3402832E1,0E0,0E0,1.5633357E0,1.020565E1,0E0,0E0,0E0,6.909441E1,4.3087387E0,4.612297E0,3.7183218E0,2.4214088E1,1.3651493E1,0E0,7.550335E0,1.3796112E1,0E0,0E0,0E0,0E0,1.05998E1,2.0848827E1,6.1241707E1,0E0,4.0992813E0,0E0,0E0,0E0,0E0,2.1288162E1,8.180798E0,0E0,1.0784596E1,0E0,6.448639E0,0E0,1.0688446E1,0E0,9.506302E0,4.369706E0,1.3380058E1,6.0957672E1,1.6691597E1,3.7543411E0,0E0,6.432289E0,2.0889664E1,0E0,7.93639E0,6.154558E0,1.1898813E1,0E0,2.218113E0,0E0,0E0,0E0,0E0,0E0,0E0,0E0,0E0,0E0,0E0,0E0,0E0,0E0,0E0,0E0,0E0,0E0,0E0,0E0,0E0,0E0,0E0,0E0,0E0,0E0,0E0],"parents":[2147483647,0,0,1,1,2,2,3,3,4,4,5,5,6,6,8,8,10,10,12,12,13,13,14,14,17,17,18,18,19,19,20,20,21,21,22,22,23,23,24,24,25,25,28,28,29,29,33,33,34,34,35,35,36,36,37,37,38,38,40,40,41,41,46,46,47,47,48,48,50,50,55,55,56,56,58,58,60,60,62,62,64,64,65,65,66,66,67,67,68,68,69,69,71,71,72,72,74,74,75,75,76,76,78,78],"right_children":[2,4,6,8,10,12,14,-1,16,-1,18,-1,20,22,24,-1,-1,26,28,30,32,34,36,38,40,42,-1,-1,44,46,-1,-1,-1,48,50,52,54,56,58,-1,60,62,-1,-1,-1,-1,64,66,68,-1,70,-1,-1,-1,-1,72,74,-1,76,-1,78,-1,80,-1,82,84,86,88,90,92,-1,94,96,-1,98,100,102,-1,104,-1,-1,-1,-1,-1,-1,-1,-1,-1,-1,-1,-1,-1,-1,-1,-1,-1,-1,-1,-1,-1,-1,-1,-1,-1,-1],"split_conditions":[2.00001E0,4.399222E-1,3.1413388E-1,2.2628681E-1,3.6991933E-1,3.8158372E-1,5.849576E-1,-1.17492296E-1,1.7223369E-1,-1.0707686E-1,1.1685626E-1,2.8335947E-1,1.14641055E-1,2.62447E-1,1.1767279E-1,1.7560634E-1,-5.9435368E-2,1.594513E-1,2.1387435E-1,2.4345501E-1,2.2467843E-1,3.2913795E-1,6.9E1,1.3881733E-1,2.6569754E-1,1.1155144E-1,-1.0306372E-1,2.3240109E-1,1.8747197E-1,5.904735E-1,-7.485026E-2,-0E0,3.0076334E-1,4.4583946E-1,4.3132785E-1,1.8584585E-1,7.4720156E-1,8.5959315E-2,4.508657E-1,2.2383764E-1,3.9828107E-1,3.548476E-1,-8.931407E-2,-1.19689636E-1,3.41323E-2,-9.972411E-2,3.4105575E-1,8.638047E1,9.176918E-2,-4.6153296E-2,1.5973277E-1,3.0385482E-1,-0E0,2.0950913E-1,-6.451E-2,3.6384195E-1,1.9408478E-1,3.0628973E-1,3.55E-1,2.1789089E-1,3.5435542E-1,-8.886292E-2,3.12327E-1,-1.0267462E-1,3.0339774E-1,3.3779868E-1,1.406843E-1,4.377044E-1,4.1330966E-1,5.167091E-1,-0E0,1.3511063E-1,2.2546516E-1,-7.54459E-2,7.69E-1,1.2860246E-1,2.8420946E-1,2.2330527E-1,2.5289878E-1,-8.5445985E-2,2.2704469E-1,-9.9604554E-2,1.4800309E-1,2.6234528E-1,-3.08993E-2,-1.4508112E-2,2.6398176E-1,1.8354802E-1,-1.5911706E-2,1.4397609E-1,-8.409145E-2,-2.5540873E-2,1.9986728E-1,2.711341E-1,-0E0,4.413938E-2,2.84765E-1,1.9698868E-2,2.5004175E-1,-0E0,3.0670363E-1,2.8982732E-1,-9.903097E-2,-0E0,-1.2424181E-1],"split_indices":[2326,3147,138,4682,4543,4868,5002,0,1835,0,4953,0,4794,31,1604,0,0,4153,173,3037,2556,3526,5006,3071,74,1862,0,0,325,1134,0,0,0,198,1757,4370,1320,843,1059,0,542,4246,0,0,0,0,3952,5006,1747,0,1780,0,0,0,0,3868,632,0,5001,0,210,0,1849,0,3324,3650,1780,3236,3748,1914,0,3147,3593,0,5002,1780,569,0,2800,0,0,0,0,0,0,0,0,0,0,0,0,0,0,0,0,0,0,0,0,0,0,0,0,0,0],"split_type":[0,0,0,0,0,0,0,0,0,0,0,0,0,0,0,0,0,0,0,0,0,0,0,0,0,0,0,0,0,0,0,0,0,0,0,0,0,0,0,0,0,0,0,0,0,0,0,0,0,0,0,0,0,0,0,0,0,0,0,0,0,0,0,0,0,0,0,0,0,0,0,0,0,0,0,0,0,0,0,0,0,0,0,0,0,0,0,0,0,0,0,0,0,0,0,0,0,0,0,0,0,0,0,0,0],"sum_hessian":[1.5176423E4,3.380682E2,1.48383545E4,1.2758171E1,3.2531003E2,3.3293176E2,1.4505423E4,8.417284E0,4.3408866E0,7.338499E0,3.1797153E2,6.5287186E1,2.6764456E2,1.2642342E4,1.8630807E3,1.7204217E0,2.6204648E0,3.0340454E2,1.4566982E1,2.467478E2,2.0896765E1,1.2566612E4,7.5729225E1,1.7203588E3,1.4272188E2,2.9798535E2,5.4191957E0,2.4760604E0,1.2090922E1,2.3702351E2,9.724283E0,1.2724832E0,1.962428E1,1.2467825E4,9.878753E1,5.416983E1,2.1559395E1,1.5933148E3,1.2704399E2,2.0104716E0,1.407114E2,2.9316666E2,4.818704E0,1.08608465E1,1.230076E0,6.599903E0,2.3042361E2,7.958765E1,1.2388237E4,2.0280447E0,9.675948E1,5.3075054E1,1.0947765E0,1.5532056E0,2.0006187E1,1.5415437E3,5.1771076E1,3.3936553E0,1.2365034E2,2.047223E0,1.3866418E2,4.7970505E0,2.883696E2,6.2473917E0,2.2417622E2,2.1348152E1,5.8239494E1,1.1765246E4,6.229916E2,9.043986E1,6.319626E0,2.4468634E1,1.5170751E3,3.205813E0,4.856526E1,9.050799E0,1.1459953E2,1.4878044E0,1.3717638E2,3.4408433E0,2.8492874E2,5.2669773E0,2.1890924E2,1.8126051E0,1.9535547E1,6.598215E0,5.1641277E1,6.1036545E1,1.1704209E4,1.2182432E1,6.1080914E2,1.5973351E0,8.884252E1,2.1759058E1,2.7095764E0,1.5026602E3,1.4414938E1,9.049932E0,3.951533E1,5.2163844E0,3.8344154E0,2.6053052E0,1.1199423E2,3.483416E0,1.3369296E2],"tree_param":{"num_deleted":"0","num_feature":"5007","num_nodes":"105","size_leaf_vector":"1"}},{"base_weights":[-1.7163918E-3,-2.8420396E-2,5.6092757E-1,-3.9749566E-2,1.2247765E0,3.800106E-1,7.718821E-1,-5.8937535E-2,5.4858536E-1,1.2845243E0,-4.6390057E-2,-8.9651026E-2,4.1479495E-1,8.008034E-1,-7.3911704E-2,-6.9414206E-2,9.400627E-1,-2.3956876E-1,5.824916E-1,-0E0,1.3446534E0,-4.055339E-1,4.4785687E-1,-8.887162E-2,8.208687E-1,-7.423198E-2,3.623645E-1,-6.999665E-2,1.0066472E0,-3.819607E-1,1.4378425E-1,-2.5761777E-1,6.089262E-1,-8.30758E-2,1.7853096E-1,-5.676138E-2,1.3886181E0,-1.0993081E-1,6.591023E-2,-7.945441E-2,4.7857317E-1,8.3970493E-1,-8.549666E-2,-8.71635E-2,4.7335216E-1,-7.7500276E-2,1.0452237E0,-0E0,-1.0494961E-1,1.8481731E-1,-9.575972E-2,-1.1933189E-1,6.399626E-1,1.4284602E0,-4.79146E-2,5.2047306E-1,-8.843416E-2,-7.905131E-2,8.5681456E-1,-1.0017606E-1,4.6820778E-1,1.3780442E0,4.2893586E-1,-0E0,1.1013445E0,2.1335784E-1,-3.2777113E-1,-1.0050434E-1,6.593234E-1,1.4671334E0,-0E0,5.5506796E-1,-1.321805E-1,-2.3360358E-1,1.8937913E-1,8.7491477E-1,-4.056334E-2,-2.1537144E-2,1.389097E-1,-1.18657246E-1,1.076498E-1,-0E0,2.9903933E-1,4.8530404E-2,1.2780765E-1,-5.5034876E-2,2.2735217E-1,1.6798376E-1,-1.02720395E-1,2.4187975E-1,1.22341804E-1,3.0021015E-1,-0E0,1.1570766E-1,-9.632651E-2,1.8711965E-1,-7.202222E-2,4.6873223E-2,-6.8732716E-2,-7.140418E-2,1.7811935E-1],"categories":[],"categories_nodes":[],"categories_segments":[],"categories_sizes":[],"default_left":[1,1,0,1,1,0,1,1,0,0,0,0,0,0,0,1,0,1,0,1,0,1,0,0,1,1,0,0,0,0,0,0,0,0,0,0,1,0,0,0,1,0,0,1,0,0,0,0,0,0,0,0,0,1,0,1,1,0,1,1,0,0,0,0,0,0,0,0,0,1,0,1,0,0,0,0,0,0,0,0,0,0,0,0,0,0,0,0,0,0,0,0,0,0,0,0,0,0,0,0,0],"id":7,"left_children":[1,3,5,7,9,11,13,15,17,19,-1,-1,21,23,-1,25,27,29,31,33,35,37,39,-1,41,43,-1,-1,45,47,-1,49,51,-1,-1,-1,53,-1,-1,-1,55,57,-1,59,61,-1,63,-1,-1,-1,-1,65,67,69,-1,71,73,-1,75,77,79,81,83,-1,85,-1,87,-1,89,91,-1,93,95,97,-1,99,-1,-1,-1,-1,-1,-1,-1,-1,-1,-1,-1,-1,-1,-1,-1,-1,-1,-1,-1,-1,-1,-1,-1,-1,-1],"loss_changes":[2.2857541E2,2.056531E2,2.5203201E1,1.6243901E2,1.2312485E1,1.0832806E1,1.0915634E1,1.4551573E2,1.2490341E1,1.0330444E1,0E0,0E0,9.886776E0,8.193512E0,0E0,1.23915474E2,1.3096939E1,2.3003478E0,1.0063751E1,2.0426764E0,9.7000885E0,1.6657143E0,9.173622E0,0E0,7.671417E0,9.735909E1,0E0,0E0,8.149811E0,1.0991058E0,0E0,3.1341E0,1.006636E1,0E0,0E0,0E0,8.773605E0,0E0,0E0,0E0,8.377449E0,6.899048E0,0E0,9.710063E1,1.0940971E1,0E0,8.451675E0,0E0,0E0,0E0,0E0,3.6435964E0,9.31189E0,7.378998E0,0E0,7.495369E0,2.8280585E0,0E0,6.353821E0,7.813628E1,2.293113E1,1.9525356E0,1.1065678E1,0E0,7.127121E0,0E0,3.1920872E0,0E0,8.672607E0,6.321518E0,0E0,7.5113525E0,3.3128095E0,1.184231E0,0E0,6.2621E0,0E0,0E0,0E0,0E0,0E0,0E0,0E0,0E0,0E0,0E0,0E0,0E0,0E0,0E0,0E0,0E0,0E0,0E0,0E0,0E0,0E0,0E0,0E0,0E0,0E0],"parents":[2147483647,0,0,1,1,2,2,3,3,4,4,5,5,6,6,7,7,8,8,9,9,12,12,13,13,15,15,16,16,17,17,18,18,19,19,20,20,21,21,22,22,24,24,25,25,28,28,29,29,31,31,32,32,36,36,40,40,41,41,43,43,44,44,46,46,51,51,52,52,53,53,55,55,56,56,58,58,59,59,60,60,61,61,62,62,64,64,66,66,68,68,69,69,71,71,72,72,73,73,75,75],"right_children":[2,4,6,8,10,12,14,16,18,20,-1,-1,22,24,-1,26,28,30,32,34,36,38,40,-1,42,44,-1,-1,46,48,-1,50,52,-1,-1,-1,54,-1,-1,-1,56,58,-1,60,62,-1,64,-1,-1,-1,-1,66,68,70,-1,72,74,-1,76,78,80,82,84,-1,86,-1,88,-1,90,92,-1,94,96,98,-1,100,-1,-1,-1,-1,-1,-1,-1,-1,-1,-1,-1,-1,-1,-1,-1,-1,-1,-1,-1,-1,-1,-1,-1,-1,-1],"split_conditions":[1.2779532E-1,2.6830718E-1,2.4388783E-1,1.7810746E-1,2.6658618E-1,3.1778318E-1,2.9092225E-1,1.7572616E-1,7.1244264E-1,2.989749E-1,-4.6390057E-2,-8.9651026E-2,5.800436E-1,1.1491818E0,-7.3911704E-2,6.393271E-1,3.0003238E-1,2.5355732E-1,2.0411289E-1,1.7283252E-1,4.9628386E-1,1.2269584E-1,3.2747728E-1,-8.887162E-2,2.184742E-1,1.9910432E-1,3.623645E-1,-6.999665E-2,2.2464593E-1,2.8669167E-1,1.4378425E-1,2.45966E-1,1.1154878E0,-8.30758E-2,1.7853096E-1,-5.676138E-2,3.561371E-1,-1.0993081E-1,6.591023E-2,-7.945441E-2,1.3565639E-1,9.1811955E-1,-8.549666E-2,1.9316779E-1,4.1243452E-1,-7.7500276E-2,2.777947E-1,-0E0,-1.0494961E-1,1.8481731E-1,-9.575972E-2,7.50981E-1,5.834887E-1,2.0515725E-1,-4.79146E-2,1.5581554E-1,1.9244947E-1,-7.905131E-2,2.2570235E-1,2.4623212E-1,5.8544534E-1,3.288067E-1,3.08863E-1,-0E0,3.4732798E-1,2.1335784E-1,5.0004894E-1,-1.0050434E-1,5.176066E-1,3.875864E-1,-0E0,1.9571912E-1,2.6159275E-1,1.1492509E-1,1.8937913E-1,7.933002E-1,-4.056334E-2,-2.1537144E-2,1.389097E-1,-1.18657246E-1,1.076498E-1,-0E0,2.9903933E-1,4.8530404E-2,1.2780765E-1,-5.5034876E-2,2.2735217E-1,1.6798376E-1,-1.02720395E-1,2.4187975E-1,1.22341804E-1,3.0021015E-1,-0E0,1.1570766E-1,-9.632651E-2,1.8711965E-1,-7.202222E-2,4.6873223E-2,-6.8732716E-2,-7.140418E-2,1.7811935E-1],"split_indices":[2569,1757,2569,1862,848,3908,2395,257,2815,374,0,0,1697,4305,0,4918,4579,2556,2904,1780,2520,3239,1544,0,4794,422,0,0,2612,2815,0,3007,1458,0,0,0,2433,0,0,0,3501,1601,0,4370,2283,0,1634,0,0,0,0,1592,624,1819,0,848,257,0,1819,2914,2436,1852,422,0,1822,0,2480,0,2556,3661,0,2886,4725,1780,0,3019,0,0,0,0,0,0,0,0,0,0,0,0,0,0,0,0,0,0,0,0,0,0,0,0,0],"split_type":[0,0,0,0,0,0,0,0,0,0,0,0,0,0,0,0,0,0,0,0,0,0,0,0,0,0,0,0,0,0,0,0,0,0,0,0,0,0,0,0,0,0,0,0,0,0,0,0,0,0,0,0,0,0,0,0,0,0,0,0,0,0,0,0,0,0,0,0,0,0,0,0,0,0,0,0,0,0,0,0,0,0,0,0,0,0,0,0,0,0,0,0,0,0,0,0,0,0,0,0,0],"sum_hessian":[1.5242085E4,1.4553286E4,6.8879877E2,1.4423998E4,1.2928847E2,3.7362576E2,3.1517297E2,1.3970209E4,4.537883E2,1.2480111E2,4.487363E0,1.3867189E1,3.5975858E2,3.0823517E2,6.937791E0,1.3826471E4,1.4373877E2,1.757955E1,4.3620877E2,5.237827E0,1.19563286E2,1.2754414E1,3.4700418E2,4.07177E0,3.0416342E2,1.3792029E4,3.444111E1,6.340003E0,1.3739877E2,1.6306385E1,1.2731657E0,1.22149E1,4.2399387E2,4.1118097E0,1.126017E0,2.574945E0,1.16988335E2,1.1716561E1,1.0378518E0,1.1019687E1,3.359845E2,3.0045187E2,3.711543E0,1.3475709E4,3.163203E2,3.0020761E0,1.343967E2,3.8867342E0,1.241965E1,1.1000773E0,1.1114823E1,1.6169298E1,4.0782455E2,1.147528E2,2.2355397E0,3.142825E2,2.1701994E1,3.2971451E0,2.9715472E2,1.3169039E4,3.066703E2,1.3283723E1,3.030366E2,6.424674E0,1.2797202E2,1.5359576E0,1.4633342E1,5.883934E0,4.0194064E2,1.1218757E2,2.5652285E0,2.997515E2,1.4530981E1,2.0052183E1,1.649812E0,2.930227E2,4.1320133E0,1.3047199E4,1.2183938E2,1.8030334E1,2.8863995E2,1.1944135E0,1.208931E1,1.6326152E2,1.3977505E2,2.5370812E0,1.2543494E2,1.1694405E0,1.3463901E1,2.9736776E1,3.7220386E2,1.0996048E2,2.2270925E0,2.9410437E2,5.6471305E0,1.6604755E0,1.2870505E1,2.2641592E0,1.7788023E1,2.885002E0,2.901377E2],"tree_param":{"num_deleted":"0","num_feature":"5007","num_nodes":"101","size_leaf_vector":"1"}},{"base_weights":[1.5924921E-3,-1.9531876E-2,8.5529953E-1,1.2507674E-1,-1.11472785E-1,2.3853135E-1,5.935964E-1,1.0201128E0,1.1171361E-1,6.64708E-1,-1.2999071E-1,9.195448E-1,4.1558933E-1,-7.6437935E-2,1.0930614E0,7.9662174E-1,1.01458706E-1,1.591954E0,5.2582073E-1,4.3102995E-1,-1.4832878E-1,-5.8739543E-2,9.7559136E-1,1.8804318E-1,9.2427075E-1,1.1473738E0,-5.6605365E-2,-3.465812E-2,1.0218248E0,5.405781E-1,8.643976E-2,3.334448E-1,-0E0,3.2327437E-1,4.476989E-1,-1.1396264E-1,4.9486655E-1,-5.1106818E-2,-3.035077E-1,1.0229895E0,-3.937905E-2,3.0892608E-1,8.193449E-2,-4.4723097E-2,1.0122228E0,-4.2176194E-2,1.195091E0,2.836881E-1,-4.6052533E-1,-5.4219063E-2,1.0850428E0,6.3528496E-1,-2.59343E-2,5.7017463E-1,7.335022E-2,3.012978E-1,3.7591678E-1,-1.05480425E-1,5.367141E-1,-1.24499954E-1,-2.1576127E-2,4.3370172E-1,-3.4473807E-1,1.0642772E0,-2.5284583E-2,1.2564045E0,-2.8642645E-2,-3.392725E-2,1.0957142E0,-2.3702255E-2,1.2350917E0,3.6921795E-2,-1.1859192E-1,1.1507484E0,-5.0592702E-2,9.612522E-1,4.948036E-1,7.9894847E-1,2.8770658E-1,1.0808058E0,6.7026615E-2,3.3071658E-1,3.1573364E-1,5.867541E-1,-2.967302E-1,-1.3121343E-1,2.0480722E-3,1.2615037E0,3.633E-1,1.4982286E-1,-3.9689824E-1,1.1016347E0,-8.222643E-3,-1.4940579E-2,3.3280793E-1,2.1721613E-1,-1.5587565E-1,-0E0,1.1415346E0,-2.0462725E-2,2.5514206E-1,-3.7572835E-2,2.4194662E-1,2.047118E-1,-3.213446E-2,6.747789E-2,1.8696569E-1,1.7230104E-1,-2.9281884E-2,2.5295E-1,2.9920477E-2,3.1984445E-1,1.10728875E-1,1.7125712E-1,1.2021551E-2,1.606001E-1,3.5263326E-2,1.0348636E-1,2.7488932E-1,1.8360129E-2,-9.48024E-2,2.0644236E-1,-1.9695328E-3,-1.4185867E-2,3.0393168E-1,3.029114E-1,6.0996242E-2,2.87932E-1,9.4082365E-3,2.1981347E-2,-8.755014E-2,2.2731984E-1,-2.4609072E-3,-7.006177E-2,8.733981E-2,2.3608068E-1,-0E0],"categories":[],"categories_nodes":[],"categories_segments":[],"categories_sizes":[],"default_left":[1,0,0,0,0,0,1,0,0,0,0,0,1,0,1,0,0,1,0,0,1,0,1,0,0,0,0,0,0,1,0,0,0,0,0,0,0,0,0,1,0,0,0,0,0,0,0,0,0,0,1,0,0,0,0,0,0,0,1,0,0,0,0,1,0,0,0,0,0,0,0,0,0,0,0,1,0,1,0,0,0,0,0,1,0,0,0,0,0,0,0,1,0,0,0,0,0,0,1,0,0,0,0,0,0,0,0,0,0,0,0,0,0,0,0,0,0,0,0,0,0,0,0,0,0,0,0,0,0,0,0,0,0,0,0,0,0],"id":8,"left_children":[1,3,5,7,9,-1,11,13,15,17,19,21,23,-1,25,27,29,31,33,35,37,-1,39,41,43,45,-1,47,49,51,53,-1,-1,-1,55,-1,57,59,61,63,-1,-1,65,-1,67,-1,69,-1,71,-1,73,75,-1,77,79,-1,81,-1,83,-1,85,87,89,91,-1,93,95,-1,97,-1,99,-1,-1,101,-1,103,105,107,109,111,113,-1,115,117,119,-1,121,123,125,127,129,131,-1,-1,-1,-1,133,-1,135,-1,-1,-1,-1,-1,-1,-1,-1,-1,-1,-1,-1,-1,-1,-1,-1,-1,-1,-1,-1,-1,-1,-1,-1,-1,-1,-1,-1,-1,-1,-1,-1,-1,-1,-1,-1,-1,-1],"loss_changes":[2.7433112E2,1.9684088E2,3.0608368E1,6.778241E1,1.297352E2,0E0,1.0839577E1,9.340759E0,3.901751E1,2.4884956E1,9.0790726E1,5.588146E0,1.4932325E1,0E0,6.86615E0,1.6261295E1,3.6292015E1,2.9781113E0,1.3621437E1,1.7865726E1,1.2894357E2,0E0,4.6451416E0,1.2521714E1,4.938019E0,5.985199E0,0E0,1.012384E1,6.1795197E0,1.206657E1,3.365519E1,0E0,0E0,0E0,1.1319237E1,0E0,1.1384399E1,8.8392235E1,1.0019089E2,4.0537567E0,0E0,0E0,1.2858497E1,0E0,4.7263145E0,0E0,4.9909515E0,0E0,1.5962081E0,0E0,6.447731E0,5.948059E0,0E0,8.067654E0,3.2533848E1,0E0,1.0678379E1,0E0,1.0900467E1,0E0,7.570553E1,8.549366E0,8.080295E1,3.6355515E0,0E0,6.0009565E0,1.1048028E1,0E0,1.877018E0,0E0,5.080757E0,0E0,0E0,5.777031E0,0E0,4.0379906E0,6.7858086E0,5.140999E0,7.53085E0,6.526085E0,2.7776299E1,0E0,9.799225E0,1.1212021E1,1.2859024E0,0E0,6.0092213E1,5.5671654E0,9.114254E0,3.80592E1,5.8827026E1,3.4659271E0,0E0,0E0,0E0,0E0,8.690744E0,0E0,1.4989548E0,0E0,0E0,0E0,0E0,0E0,0E0,0E0,0E0,0E0,0E0,0E0,0E0,0E0,0E0,0E0,0E0,0E0,0E0,0E0,0E0,0E0,0E0,0E0,0E0,0E0,0E0,0E0,0E0,0E0,0E0,0E0,0E0,0E0,0E0,0E0,0E0,0E0,0E0],"parents":[2147483647,0,0,1,1,2,2,3,3,4,4,6,6,7,7,8,8,9,9,10,10,11,11,12,12,14,14,15,15,16,16,17,17,18,18,19,19,20,20,22,22,23,23,24,24,25,25,27,27,28,28,29,29,30,30,34,34,36,36,37,37,38,38,39,39,42,42,44,44,46,46,48,48,50,50,51,51,53,53,54,54,56,56,58,58,60,60,61,61,62,62,63,63,65,65,66,66,68,68,70,70,73,73,75,75,76,76,77,77,78,78,79,79,80,80,82,82,83,83,84,84,86,86,87,87,88,88,89,89,90,90,91,91,96,96,98,98],"right_children":[2,4,6,8,10,-1,12,14,16,18,20,22,24,-1,26,28,30,32,34,36,38,-1,40,42,44,46,-1,48,50,52,54,-1,-1,-1,56,-1,58,60,62,64,-1,-1,66,-1,68,-1,70,-1,72,-1,74,76,-1,78,80,-1,82,-1,84,-1,86,88,90,92,-1,94,96,-1,98,-1,100,-1,-1,102,-1,104,106,108,110,112,114,-1,116,118,120,-1,122,124,126,128,130,132,-1,-1,-1,-1,134,-1,136,-1,-1,-1,-1,-1,-1,-1,-1,-1,-1,-1,-1,-1,-1,-1,-1,-1,-1,-1,-1,-1,-1,-1,-1,-1,-1,-1,-1,-1,-1,-1,-1,-1,-1,-1,-1,-1,-1],"split_conditions":[2.0734388E-1,7.7E1,1E0,3.561385E-1,6.484582E-1,2.3853135E-1,8.3E1,4.0434662E-1,6.0976845E-1,2.4648793E-1,5.247583E-1,3.2309774E-1,4.27E-1,-7.6437935E-2,2.3364738E-1,4.3161497E-1,5.04036E-1,1.5529008E-1,3.3506536E-1,2.4747418E-1,1E0,-5.8739543E-2,2.4618389E-1,4.4413272E-1,4.9959815E-1,2.3334615E-1,-5.6605365E-2,2.5377008E-1,3.3489165E-1,1.7330162E-1,2.8275695E-1,3.334448E-1,-0E0,3.2327437E-1,4.8727295E-1,-1.1396264E-1,3.9467305E-1,2.00001E0,2.8432783E-1,2.6508635E-1,-3.937905E-2,3.0892608E-1,2.8745332E-1,-4.4723097E-2,4.1072023E-1,-4.2176194E-2,4.1810718E-1,2.836881E-1,1.7638902E-1,-5.4219063E-2,2.5440112E-1,1.4986178E-1,-2.59343E-2,5.2E1,6.1409086E-1,3.012978E-1,8.290729E-1,-1.05480425E-1,1.386221E-1,-1.24499954E-1,1E0,3.446079E-1,3.302051E-1,2.184027E-1,-2.5284583E-2,3.7460443E-1,3.4314623E-1,-3.392725E-2,4.210209E-1,-2.3702255E-2,2.4377522E-1,3.6921795E-2,-1.1859192E-1,4.0446964E-1,-5.0592702E-2,1.1497695E-1,3.394509E-1,1.393845E-1,2.6347163E-1,5.3816303E1,1.6767114E-1,3.3071658E-1,6.89E-1,1.3515317E-1,5.56E-1,-1.3121343E-1,1.4716655E0,4.4677562E-1,3.6402866E-1,6.971663E-1,2.5205556E-1,2.3951384E-1,-8.222643E-3,-1.4940579E-2,3.3280793E-1,2.1721613E-1,3.4801152E-1,-0E0,9.888127E-2,-2.0462725E-2,2.5514206E-1,-3.7572835E-2,2.4194662E-1,2.047118E-1,-3.213446E-2,6.747789E-2,1.8696569E-1,1.7230104E-1,-2.9281884E-2,2.5295E-1,2.9920477E-2,3.1984445E-1,1.10728875E-1,1.7125712E-1,1.2021551E-2,1.606001E-1,3.5263326E-2,1.0348636E-1,2.7488932E-1,1.8360129E-2,-9.48024E-2,2.0644236E-1,-1.9695328E-3,-1.4185867E-2,3.0393168E-1,3.029114E-1,6.0996242E-2,2.87932E-1,9.4082365E-3,2.1981347E-2,-8.755014E-2,2.2731984E-1,-2.4609072E-3,-7.006177E-2,8.733981E-2,2.3608068E-1,-0E0],"split_indices":[3230,5006,1169,4915,1697,0,5006,326,2433,2569,3071,129,5002,0,4395,1780,3147,326,4396,2569,5000,0,1087,1029,3945,1961,0,3071,1029,1524,2569,0,0,0,4162,0,4153,2326,1604,1819,0,0,1931,0,3843,0,1087,0,1087,0,2556,3147,0,5006,918,0,2374,0,1757,0,1149,2656,1520,1258,0,2877,1458,0,133,0,1029,0,0,4911,0,2395,3147,1780,326,5006,3007,0,5002,4178,5002,0,862,813,3348,1909,1867,1634,0,0,0,0,3230,0,1780,0,0,0,0,0,0,0,0,0,0,0,0,0,0,0,0,0,0,0,0,0,0,0,0,0,0,0,0,0,0,0,0,0,0,0,0,0,0],"split_type":[0,0,0,0,0,0,0,0,0,0,0,0,0,0,0,0,0,0,0,0,0,0,0,0,0,0,0,0,0,0,0,0,0,0,0,0,0,0,0,0,0,0,0,0,0,0,0,0,0,0,0,0,0,0,0,0,0,0,0,0,0,0,0,0,0,0,0,0,0,0,0,0,0,0,0,0,0,0,0,0,0,0,0,0,0,0,0,0,0,0,0,0,0,0,0,0,0,0,0,0,0,0,0,0,0,0,0,0,0,0,0,0,0,0,0,0,0,0,0,0,0,0,0,0,0,0,0,0,0,0,0,0,0,0,0,0,0],"sum_hessian":[1.5171964E4,1.4805075E4,3.6688812E2,5.75074E3,9.054335E3,1.5817236E2,2.0871577E2,8.317136E1,5.667569E3,2.0955685E2,8.844778E3,7.138942E1,1.3732635E2,3.447466E0,7.972389E1,8.188649E1,5.5856826E3,2.5896366E1,1.8366049E2,2.7818405E2,8.566594E3,2.404467E0,6.8984955E1,9.6452515E1,4.0873837E1,7.735753E1,2.3663602E0,1.673903E1,6.514745E1,1.8235054E2,5.403332E3,2.464258E1,1.2537849E0,1.096438E1,1.726961E2,1.56746435E1,2.625094E2,5.2705435E3,3.2960508E3,6.705015E1,1.9348028E0,5.978812E0,9.04737E1,2.1779852E0,3.869585E1,1.9741625E0,7.538337E1,3.1080427E0,1.3630988E1,2.3468926E0,6.2800564E1,1.6089595E2,2.1454584E1,1.4015878E2,5.2631733E3,9.649041E0,1.6304706E2,9.326709E0,2.531827E2,2.571605E2,5.013383E3,1.7326787E2,3.122783E3,6.546472E1,1.5854249E0,8.039601E0,8.2434105E1,1.8569894E0,3.683886E1,1.57933E0,7.380404E1,1.2082006E0,1.2422788E1,6.0521004E1,2.2795582E0,4.5860245E1,1.15035706E2,7.533774E1,6.4821045E1,3.1522339E1,5.231651E3,6.1694245E0,1.5687764E2,2.3992152E2,1.3261168E1,1.8081181E2,4.8325713E3,1.2046681E1,1.6122119E2,2.963097E2,2.8264734E3,6.406316E1,1.4015625E0,1.4865206E0,6.553081E0,7.419591E0,7.501451E1,1.4929751E0,3.5345886E1,1.544083E0,7.225996E1,1.9101114E0,5.8610893E1,4.4195976E1,1.6642696E0,8.672098E1,2.8314726E1,7.153495E1,3.8027875E0,6.817985E0,5.800306E1,1.4626278E1,1.689606E1,4.3925827E1,5.187725E3,3.3079967E1,1.23797676E2,2.2218248E2,1.7739056E1,2.734341E0,1.0526827E1,5.553463E1,4.7770366E3,1.4785904E0,1.0568091E1,6.535339E0,1.5468585E2,2.0832447E1,2.7547723E2,2.0924573E2,2.6172275E3,6.2837788E1,1.225374E0,5.7690586E1,1.7323927E1,3.4103104E1,1.2427818E0],"tree_param":{"num_deleted":"0","num_feature":"5007","num_nodes":"137","size_leaf_vector":"1"}},{"base_weights":[3.8070986E-3,-1.9800236E-2,9.855575E-1,-9.2166126E-2,1.5336433E-1,1.0095713E0,-6.6033915E-2,-1.0803774E-1,4.8508635E-1,-1.992987E-2,3.7581173E-1,-4.925896E-2,1.0342793E0,-1.2541777E-1,3.8068092E-1,3.2240754E-1,8.6592966E-1,-4.5154786E-1,2.0106565E-2,-4.4650152E-1,4.2402616E-1,1.0614066E0,-4.503111E-3,-4.9919775E-1,-1.0471358E-1,3.0744478E-1,1.787195E-1,-7.118699E-2,3.7312198E-1,-7.773639E-2,9.4219613E-1,-5.004221E-1,4.7409892E-1,-3.0457715E-2,4.0052387E-1,-4.9749878E-1,2.1057513E-1,-1.8215403E-1,4.6551815E-1,-8.461908E-2,1.0818342E0,1.0861188E-1,-5.394895E-2,6.75391E-1,-5.133149E-1,-1.3481346E-1,1.5992862E-1,3.3610848E-1,-1.0856717E-1,4.097944E-1,-1.0156684E-1,-7.029044E-2,1.0127524E0,-5.236524E-1,2.2323476E-1,-2.986152E-2,7.2511446E-1,-4.1007534E-1,2.4328388E-3,-1.9066514E-1,4.651105E-1,1.6059585E-1,-5.500238E-1,2.4253812E-1,-2.374066E-1,-2.831477E-1,4.955636E-1,-6.452056E-2,1.0943156E0,-2.398994E-2,2.523744E-1,2.4110298E-1,-5.208411E-1,-1.3879383E-1,1.2785747E0,1.1942857E-1,1.210239E0,-1.075082E-1,3.6046168E-1,-9.567056E-2,4.4474143E-1,-6.2138226E-2,1.0721982E0,-5.4684645E-1,5.979312E-1,-1.9215371E-2,2.1040523E-1,2.853768E-1,-4.4481093E-1,-4.2018208E-1,3.5220005E-2,1.4465736E-1,-4.178687E-1,5.151041E-1,-9.661318E-2,-5.777754E-1,1.2797144E-1,-2.8179306E-1,2.3224242E-1,1.8439005E-1,-3.353707E-1,4.2953944E-1,8.690477E-1,-0E0,1.1089154E0,1.4294162E-1,-1.060097E-1,-2.9665401E-2,8.448154E-2,-2.3353484E-2,2.846901E-1,1.875988E-2,2.3463197E-1,2.7242404E-1,-5.698493E-2,-8.727202E-2,7.7333055E-2,-9.5800444E-2,9.614401E-2,-4.8915137E-2,2.2498159E-1,1.3322125E-1,-1.132591E-1,-0E0,2.3197041E-1,-9.80837E-2,1.4048985E-1,2.2227262E-1,-8.9739814E-2,-4.106251E-2,1.863167E-2,-1.1291702E-1,-0E0,-2.7951196E-2,1.1344393E-1,-1.2270858E-1,1.9756232E-3,-6.4014815E-2,2.071894E-1,1.5860803E-1,-7.767825E-2,-1.2829605E-2,9.429189E-2,1.8187028E-1,-7.778785E-2,-5.509011E-2,2.2413309E-1],"categories":[],"categories_nodes":[],"categories_segments":[],"categories_sizes":[],"default_left":[1,1,1,1,0,0,0,1,0,0,0,0,1,0,0,0,0,1,1,1,0,0,0,0,1,0,0,0,1,0,0,1,0,0,0,0,0,0,0,0,0,0,0,0,0,1,1,0,0,0,0,0,0,1,0,0,0,0,0,0,1,0,1,0,1,0,1,0,0,0,0,0,0,1,0,1,1,0,0,0,0,0,0,0,0,0,0,0,1,0,0,0,0,0,0,1,0,1,0,0,0,0,1,0,0,0,0,0,0,0,0,0,0,0,0,0,0,0,0,0,0,0,0,0,0,0,0,0,0,0,0,0,0,0,0,0,0,0,0,0,0,0,0,0,0,0,0],"id":9,"left_children":[1,3,5,7,9,11,-1,13,15,17,19,-1,21,23,25,27,29,31,33,35,37,39,41,43,45,47,-1,-1,49,-1,51,53,55,57,59,61,-1,63,65,-1,67,-1,-1,69,71,73,75,77,-1,79,-1,-1,81,83,-1,-1,85,87,89,91,93,-1,95,-1,97,99,101,-1,103,-1,-1,-1,105,107,109,111,113,-1,115,-1,117,-1,119,121,123,-1,-1,-1,125,127,129,-1,131,133,-1,135,-1,137,-1,-1,139,141,143,-1,145,-1,-1,-1,-1,-1,-1,-1,-1,-1,-1,-1,-1,-1,-1,-1,-1,-1,-1,-1,-1,-1,-1,-1,-1,-1,-1,-1,-1,-1,-1,-1,-1,-1,-1,-1,-1,-1,-1,-1,-1,-1,-1],"loss_changes":[3.5191165E2,1.8532141E2,1.19878235E1,9.532269E1,1.682428E2,1.166684E1,0E0,8.6094955E1,1.6092735E1,4.265486E1,7.578757E1,0E0,1.061084E1,7.540071E1,1.1911308E1,6.8517284E0,8.416756E0,9.6080475E0,4.336714E1,7.7988453E0,4.568277E1,1.0976929E1,1.060712E0,8.521248E0,7.406708E1,7.366831E0,0E0,0E0,5.977478E0,0E0,7.788231E0,7.2784996E0,2.07897E0,2.498999E1,1.0372768E1,6.981928E0,0E0,8.145914E0,3.8280792E1,0E0,6.6462097E0,0E0,0E0,3.630245E0,6.272064E0,4.6112625E1,3.9100647E1,6.2633324E0,0E0,5.6066723E0,0E0,0E0,6.6285706E0,5.2571373E0,0E0,0E0,3.0198455E0,9.631306E0,2.4830978E1,5.0888963E0,1.1511772E1,0E0,3.3942127E0,0E0,6.3136244E0,3.7011938E0,3.8859985E1,0E0,6.0970764E0,0E0,0E0,0E0,5.773239E0,4.4366486E1,5.80616E0,2.3544577E1,8.880333E0,0E0,6.0983315E0,0E0,5.8498955E0,0E0,5.8429565E0,4.686882E0,1.9951788E0,0E0,0E0,0E0,8.205111E0,5.293852E0,2.3417927E1,0E0,1.0715597E0,8.209919E0,0E0,2.5710678E0,0E0,5.033823E0,0E0,0E0,3.5534296E0,2.9028992E1,1.2870499E1,0E0,6.1710205E0,0E0,0E0,0E0,0E0,0E0,0E0,0E0,0E0,0E0,0E0,0E0,0E0,0E0,0E0,0E0,0E0,0E0,0E0,0E0,0E0,0E0,0E0,0E0,0E0,0E0,0E0,0E0,0E0,0E0,0E0,0E0,0E0,0E0,0E0,0E0,0E0,0E0,0E0,0E0,0E0,0E0,0E0],"parents":[2147483647,0,0,1,1,2,2,3,3,4,4,5,5,7,7,8,8,9,9,10,10,12,12,13,13,14,14,15,15,16,16,17,17,18,18,19,19,20,20,21,21,22,22,23,23,24,24,25,25,28,28,30,30,31,31,32,32,33,33,34,34,35,35,37,37,38,38,40,40,43,43,44,44,45,45,46,46,47,47,49,49,52,52,53,53,56,56,57,57,58,58,59,59,60,60,62,62,64,64,65,65,66,66,68,68,72,72,73,73,74,74,75,75,76,76,78,78,80,80,82,82,83,83,84,84,88,88,89,89,90,90,92,92,93,93,95,95,97,97,100,100,101,101,102,102,104,104],"right_children":[2,4,6,8,10,12,-1,14,16,18,20,-1,22,24,26,28,30,32,34,36,38,40,42,44,46,48,-1,-1,50,-1,52,54,56,58,60,62,-1,64,66,-1,68,-1,-1,70,72,74,76,78,-1,80,-1,-1,82,84,-1,-1,86,88,90,92,94,-1,96,-1,98,100,102,-1,104,-1,-1,-1,106,108,110,112,114,-1,116,-1,118,-1,120,122,124,-1,-1,-1,126,128,130,-1,132,134,-1,136,-1,138,-1,-1,140,142,144,-1,146,-1,-1,-1,-1,-1,-1,-1,-1,-1,-1,-1,-1,-1,-1,-1,-1,-1,-1,-1,-1,-1,-1,-1,-1,-1,-1,-1,-1,-1,-1,-1,-1,-1,-1,-1,-1,-1,-1,-1,-1,-1,-1],"split_conditions":[1.0780126E-1,1E0,1.3538167E-1,1.5740569E-1,2.00001E0,1.7889784E-1,-6.6033915E-2,1.896553E-1,3.844912E-1,5.2111983E-1,7.717115E-1,-4.925896E-2,1.3465266E-1,2.00001E0,6.190128E-1,3.6839753E-1,8.2626605E-1,1.2044309E-1,3.43E-1,1.8052977E-1,2.00001E0,3.6547187E-1,4.0641576E-1,1.536992E-1,8.682942E-2,6.0819775E-1,1.787195E-1,-7.118699E-2,2.246353E-1,-7.773639E-2,5.408798E-1,2.238721E-1,2.2296666E-1,6.3785017E-1,3.11636E-1,3.574687E-1,2.1057513E-1,2.6926166E-1,1.5485419E0,-8.461908E-2,2.2353646E-1,1.0861188E-1,-5.394895E-2,1.7079313E-1,4.020062E-1,2.591197E-1,1.0730043E-1,2.4579982E-1,-1.0856717E-1,3.8263857E-1,-1.0156684E-1,-7.029044E-2,1.6597377E0,2.4794675E-1,2.2323476E-1,-2.986152E-2,2.1610323E-1,2.562801E-1,2.00001E0,4E-1,2.6004273E-1,1.6059585E-1,1.750458E-1,2.4253812E-1,1.673701E-1,5.5536836E-1,8.539305E-2,-6.452056E-2,2.7012435E-1,-2.398994E-2,2.523744E-1,2.4110298E-1,5.135357E-1,1.8142907E-1,4.102078E-1,1.5369582E-1,1.8844946E-1,-1.075082E-1,7.369282E-1,-9.567056E-2,2.5046873E-1,-6.2138226E-2,6.091421E-1,1.7864013E-1,1.7245217E-1,-1.9215371E-2,2.1040523E-1,2.853768E-1,2.4492703E-1,2.4037325E-1,6.59E-1,1.4465736E-1,-5.106E-1,6.436203E-1,-9.661318E-2,1.5536372E-1,1.2797144E-1,1.6317281E-1,2.3224242E-1,1.8439005E-1,5.1190424E-1,4.8227498E-1,2.1474394E-1,-0E0,3.2481965E-1,1.4294162E-1,-1.060097E-1,-2.9665401E-2,8.448154E-2,-2.3353484E-2,2.846901E-1,1.875988E-2,2.3463197E-1,2.7242404E-1,-5.698493E-2,-8.727202E-2,7.7333055E-2,-9.5800444E-2,9.614401E-2,-4.8915137E-2,2.2498159E-1,1.3322125E-1,-1.132591E-1,-0E0,2.3197041E-1,-9.80837E-2,1.4048985E-1,2.2227262E-1,-8.9739814E-2,-4.106251E-2,1.863167E-2,-1.1291702E-1,-0E0,-2.7951196E-2,1.1344393E-1,-1.2270858E-1,1.9756232E-3,-6.4014815E-2,2.071894E-1,1.5860803E-1,-7.767825E-2,-1.2829605E-2,9.429189E-2,1.8187028E-1,-7.778785E-2,-5.509011E-2,2.2413309E-1],"split_indices":[1642,5000,2556,3888,5002,2965,0,1747,3888,3814,2569,0,2569,2569,1747,3501,4306,3147,5001,1977,2965,1520,38,2015,1780,1747,0,0,4915,0,3769,1462,3729,518,1520,1293,0,3888,518,0,314,0,0,1835,739,4512,4525,2904,0,4129,0,0,4777,1604,0,0,2522,1111,3071,5002,346,0,994,0,4778,1308,1780,0,2739,0,0,0,2784,1149,1977,4652,4711,0,4994,0,4725,0,4668,3071,843,0,0,0,1802,468,5002,0,5004,1697,0,1747,0,2503,0,0,3208,1867,1697,0,2705,0,0,0,0,0,0,0,0,0,0,0,0,0,0,0,0,0,0,0,0,0,0,0,0,0,0,0,0,0,0,0,0,0,0,0,0,0,0,0,0,0,0],"split_type":[0,0,0,0,0,0,0,0,0,0,0,0,0,0,0,0,0,0,0,0,0,0,0,0,0,0,0,0,0,0,0,0,0,0,0,0,0,0,0,0,0,0,0,0,0,0,0,0,0,0,0,0,0,0,0,0,0,0,0,0,0,0,0,0,0,0,0,0,0,0,0,0,0,0,0,0,0,0,0,0,0,0,0,0,0,0,0,0,0,0,0,0,0,0,0,0,0,0,0,0,0,0,0,0,0,0,0,0,0,0,0,0,0,0,0,0,0,0,0,0,0,0,0,0,0,0,0,0,0,0,0,0,0,0,0,0,0,0,0,0,0,0,0,0,0,0,0],"sum_hessian":[1.5148055E4,1.4791947E4,3.561069E2,1.0435854E4,4.3560938E3,3.5045544E2,5.6514645E0,1.0158373E4,2.7748087E2,2.4466736E3,1.9094202E3,6.0262966E0,3.4442914E2,9.811509E3,3.4686343E2,1.965611E2,8.0919754E1,2.0907954E2,2.237594E3,1.0458052E2,1.8048397E3,3.3644412E2,7.9850287E0,5.122686E2,9.29924E3,3.0559143E2,4.1271996E1,1.2329523E1,1.8423157E2,3.8986812E0,7.702107E1,1.9965433E2,9.425228E0,1.9734825E3,2.6411157E2,1.0197442E2,2.6061025E0,1.1422573E2,1.6906139E3,3.886792E0,3.325573E2,1.4157503E0,6.5692787E0,5.124977E0,5.0714365E2,8.352632E3,9.466084E2,2.9684705E2,8.744404E0,1.780177E2,6.213868E0,3.2734823E0,7.37476E1,1.9763936E2,2.0149577E0,1.7947142E0,7.630514E0,1.589825E2,1.8145E3,2.4641186E1,2.3947038E2,3.0867662E0,9.888765E1,3.4124737E0,1.1081326E2,6.400204E1,1.6266119E3,2.2365766E0,3.3032074E2,1.717473E0,3.407504E0,1.4109465E0,5.057327E2,8.330175E3,2.245783E1,9.127168E2,3.38916E1,6.855308E0,2.8999173E2,5.611006E0,1.724067E2,2.4793763E0,7.126822E1,1.945966E2,3.0427577E0,1.5295125E0,6.1010017E0,2.1659207E0,1.5681657E2,1.2840475E2,1.6860953E3,3.9724338E0,2.066875E1,2.2851541E2,1.0954974E1,9.755169E1,1.3359609E0,1.08336464E2,2.4767933E0,1.6773207E0,6.232472E1,1.3849958E3,2.41616E2,3.694217E0,3.2662653E2,2.809282E0,5.029234E2,8.192834E3,1.373407E2,1.573774E0,2.0884056E1,8.9230304E2,2.0413736E1,3.1314032E1,2.5775683E0,7.9852633E0,2.8200647E2,5.378032E0,1.6702867E2,2.0649807E0,6.920324E1,2.1515734E0,1.9244504E2,1.0812043E0,1.9615535E0,1.5177467E2,5.041899E0,1.4950796E0,1.2690968E2,3.242561E2,1.3618392E3,1.448062E1,6.1881304E0,1.5598148E1,2.1291727E2,9.3287254E1,4.2644367E0,1.06230125E2,2.1063416E0,1.8023708E0,6.0522346E1,1.0680725E2,1.2781886E3,2.3488489E2,6.731107E0,2.0606856E0,3.2456586E2],"tree_param":{"num_deleted":"0","num_feature":"5007","num_nodes":"147","size_leaf_vector":"1"}},{"base_weights":[4.110598E-3,-1.3484236E-2,7.2446185E-1,6.2074196E-1,-3.1374305E-2,-9.4506435E-2,7.7312016E-1,2.3356557E-1,4.817925E-1,-3.7442327E-2,1.099895E0,8.102622E-1,-7.8862436E-2,-1.02258585E-1,5.207468E-1,5.8292896E-1,-4.7948956E-2,-2.9910533E-2,1.1424541E0,-7.4180275E-2,8.36375E-1,-9.661586E-2,5.547792E-1,-1.0910984E-1,6.3194495E-1,-5.8035046E-2,4.2265412E-1,-1.1132169E-2,1.1781722E0,-8.076099E-2,8.601131E-1,5.894788E-1,-1.0481834E-1,-1.015422E-1,6.6570455E-1,-6.4379975E-2,6.7794883E-1,-3.8649046E-1,4.8900238E-1,-3.2047888E-3,1.2101749E0,-9.2642955E-2,8.789979E-1,-1.0613648E-1,6.177832E-1,7.044027E-1,-5.9996624E-2,-7.3264435E-2,4.860069E-1,1.2810568E0,2.4427694E-1,-1.0373916E-1,1.4834802E-1,4.3895385E-1,1.3627846E0,1.2432804E0,-1.888967E-3,8.0520976E-1,2.593432E-1,1.4853406E-1,7.062975E-2,-9.7661935E-2,1.4781448E-1,-1.5440439E-2,2.1872988E-1,-1.0555191E-1,1.0554456E-1,-4.7614392E-2,2.751954E-1,2.9053299E-2,3.0716106E-1,3.3091158E-1,8.061123E-2,2.9831132E-1,-0E0,-0E0,2.5476548E-1,1.7406534E-1,2.9034868E-2],"categories":[],"categories_nodes":[],"categories_segments":[],"categories_sizes":[],"default_left":[1,0,0,0,1,0,1,0,0,0,0,0,0,0,0,0,1,0,0,0,0,0,1,0,0,1,0,0,0,0,0,0,0,0,1,1,0,1,1,0,1,0,1,0,0,0,0,1,0,0,1,0,0,0,1,0,0,0,0,0,0,0,0,0,0,0,0,0,0,0,0,0,0,0,0,0,0,0,0],"id":10,"left_children":[1,3,5,7,9,-1,11,-1,13,15,17,19,-1,-1,21,23,25,-1,27,-1,29,-1,31,-1,33,35,37,-1,39,-1,41,43,-1,-1,45,47,49,51,53,-1,55,-1,57,-1,59,61,-1,63,65,67,69,-1,-1,71,73,75,-1,77,-1,-1,-1,-1,-1,-1,-1,-1,-1,-1,-1,-1,-1,-1,-1,-1,-1,-1,-1,-1,-1],"loss_changes":[1.9267429E2,1.6734937E2,2.1529099E1,2.9109222E1,9.789155E1,0E0,1.563382E1,0E0,1.2684654E1,9.285089E1,4.956543E0,1.0994904E1,0E0,0E0,1.0886864E1,1.334037E1,6.6515686E1,0E0,4.151932E0,0E0,1.0336166E1,0E0,1.1579445E1,0E0,9.0616455E0,6.3864666E1,1.5936043E1,0E0,3.7964706E0,0E0,8.712784E0,9.593521E0,0E0,0E0,8.749207E0,6.649565E1,2.9099937E1,3.1984944E0,1.0132706E1,0E0,3.934822E0,0E0,7.7303467E0,0E0,8.519379E0,9.258438E0,0E0,6.0990486E1,9.2453E0,8.012711E0,7.340255E0,0E0,0E0,9.285038E0,2.2298203E0,3.6093597E0,0E0,1.1028122E1,0E0,0E0,0E0,0E0,0E0,0E0,0E0,0E0,0E0,0E0,0E0,0E0,0E0,0E0,0E0,0E0,0E0,0E0,0E0,0E0,0E0],"parents":[2147483647,0,0,1,1,2,2,3,3,4,4,6,6,8,8,9,9,10,10,11,11,14,14,15,15,16,16,18,18,20,20,22,22,24,24,25,25,26,26,28,28,30,30,31,31,34,34,35,35,36,36,37,37,38,38,40,40,42,42,44,44,45,45,47,47,48,48,49,49,50,50,53,53,54,54,55,55,57,57],"right_children":[2,4,6,8,10,-1,12,-1,14,16,18,20,-1,-1,22,24,26,-1,28,-1,30,-1,32,-1,34,36,38,-1,40,-1,42,44,-1,-1,46,48,50,52,54,-1,56,-1,58,-1,60,62,-1,64,66,68,70,-1,-1,72,74,76,-1,78,-1,-1,-1,-1,-1,-1,-1,-1,-1,-1,-1,-1,-1,-1,-1,-1,-1,-1,-1,-1,-1],"split_conditions":[1.5797602E-1,5.049373E-1,4.399222E-1,4.7258037E-1,2.424544E-1,-9.4506435E-2,1.0735777E-1,2.3356557E-1,3.3241588E-1,3.2799628E-1,4.5322672E-1,3.6572888E-1,-7.8862436E-2,-1.02258585E-1,3.5317028E-1,2.7508864E-1,1.5306446E-1,-2.9910533E-2,3.4333515E-1,-7.4180275E-2,4.1851962E-1,-9.661586E-2,2.0832649E-1,-1.0910984E-1,2.6226896E-1,2.3013471E-1,4.037141E-1,-1.1132169E-2,4.865974E-1,-8.076099E-2,2.2028288E-1,2.5081483E-1,-1.0481834E-1,-1.015422E-1,1.4252767E-1,2.4006455E-1,5.2E1,3.0531532E-1,1.9568318E-1,-3.2047888E-3,5.2702975E-1,-9.2642955E-2,1.7993616E-1,-1.0613648E-1,2.4724257E-1,2.585421E-1,-5.9996624E-2,3.8746768E-1,2.568467E-1,2.6742315E-1,1.862768E-1,-1.0373916E-1,1.4834802E-1,4.4771084E-1,2.0962112E-1,6.171549E-1,-1.888967E-3,5.990546E-1,2.593432E-1,1.4853406E-1,7.062975E-2,-9.7661935E-2,1.4781448E-1,-1.5440439E-2,2.1872988E-1,-1.0555191E-1,1.0554456E-1,-4.7614392E-2,2.751954E-1,2.9053299E-2,3.0716106E-1,3.3091158E-1,8.061123E-2,2.9831132E-1,-0E0,-0E0,2.5476548E-1,1.7406534E-1,2.9034868E-2],"split_indices":[2326,138,3147,4868,1336,0,4953,0,4905,2965,3392,4543,0,0,3501,4768,1867,0,3230,0,4026,0,1134,0,4800,741,2395,0,1466,0,3888,3395,0,0,624,3526,5006,4846,4717,0,2827,0,3824,0,138,4819,0,3467,2503,3239,3814,0,0,2715,2015,336,0,2326,0,0,0,0,0,0,0,0,0,0,0,0,0,0,0,0,0,0,0,0,0],"split_type":[0,0,0,0,0,0,0,0,0,0,0,0,0,0,0,0,0,0,0,0,0,0,0,0,0,0,0,0,0,0,0,0,0,0,0,0,0,0,0,0,0,0,0,0,0,0,0,0,0,0,0,0,0,0,0,0,0,0,0,0,0,0,0,0,0,0,0,0,0,0,0,0,0,0,0,0,0,0,0],"sum_hessian":[1.515373E4,1.479171E4,3.6202066E2,4.0408636E2,1.4387623E4,1.33122E1,3.4870844E2,7.994129E1,3.2414508E2,1.4312034E4,7.5589E1,3.387889E2,9.919537E0,1.1212868E1,3.1293222E2,2.3660915E2,1.4075425E4,1.8007634E0,7.378823E1,6.5017257E0,3.3228717E2,9.255189E0,3.0367703E2,8.944443E0,2.276647E2,1.3782225E4,2.9320026E2,1.446155E0,7.234208E1,5.4391503E0,3.2684802E2,2.9516827E2,8.508752E0,5.6505313E0,2.2201416E2,1.3665965E4,1.1625962E2,2.109333E1,2.721069E2,1.2070221E0,7.1135056E1,3.8223135E0,3.2302573E2,6.3443937E0,2.8882388E2,2.1441576E2,7.5984073E0,1.3450761E4,2.152048E2,4.7449932E1,6.880969E1,1.9766626E1,1.3267032E0,2.5891632E2,1.3190576E1,6.991905E1,1.2160025E0,2.7736365E2,4.5662067E1,1.935078E2,9.531607E1,5.2041025E0,2.0921165E2,1.3406661E4,4.4099075E1,7.5004373E0,2.0770436E2,2.228737E0,4.5221195E1,6.498068E1,3.829012E0,6.1719604E0,2.5274437E2,1.193928E1,1.2512963E0,1.1101079E0,6.8808945E1,2.5116512E2,2.6198544E1],"tree_param":{"num_deleted":"0","num_feature":"5007","num_nodes":"79","size_leaf_vector":"1"}},{"base_weights":[2.3203231E-3,-2.2068143E-2,4.7365904E-1,-3.5144687E-2,7.3189723E-1,4.1444302E-1,1.0293384E0,-4.338509E-2,9.1609794E-1,1.0490605E0,3.2093343E-1,3.7146193E-1,9.4739884E-1,-0E0,2.1017821E-1,-5.206881E-2,8.171603E-1,-6.8326056E-2,9.936512E-1,1.1233495E0,-9.329315E-2,2.8837097E-1,2.0296508E-1,-2.638188E-1,4.0103802E-1,1.0456018E0,-0E0,-6.306421E-2,5.958255E-1,-7.420998E-2,9.05274E-1,-7.202676E-2,1.0433761E0,1.1828583E0,-0E0,4.510417E-2,5.327541E-1,1.8302827E-1,-3.6308655E-1,-8.983061E-2,4.2222667E-1,-4.7785785E-2,1.1292636E0,-7.579381E-2,3.9974812E-1,7.22846E-1,-1.05421126E-1,2.1519354E-1,-7.348487E-2,7.4254364E-1,1.5311693E0,-4.095478E-2,1.1026136E0,-5.075099E-2,1.2175317E0,1.4988273E-1,-5.8628287E-2,2.511546E-1,-0E0,1.081559E-1,2.2971328E-1,9.5027216E-2,-4.6370253E-1,2.1453005E-1,5.0916344E-1,-1.8988458E-2,1.1958878E0,-8.744604E-2,4.2478213E-1,3.6724085E-1,1.5202022E0,7.71763E-1,-1.0817929E-1,-5.645277E-2,8.065439E-1,6.516798E-2,3.306039E-1,-3.3864528E-2,1.158763E0,1.2495898E0,-4.501541E-2,2.133003E-1,-4.862157E-2,1.695669E-1,-0E0,-1.07392505E-1,3.1036196E-2,-1.0862132E-1,2.5282958E-1,5.416433E-1,-9.187451E-2,-1.8053735E-2,1.2610795E0,-1.892729E-2,1.4446214E-1,-1.14645615E-1,9.766083E-2,6.848056E-2,3.455869E-1,-0E0,3.6768782E-1,4.1946046E-2,1.8295975E-1,1.7163293E-1,-3.514223E-2,-5.7262648E-2,2.4056979E-1,2.5624803E-1,-3.9935213E-2,1.8654436E-1,-2.2590254E-2,-1.0060767E-1,5.7535708E-2,8.348603E-2,1.5939306E-1,-0E0,2.607893E-1],"categories":[],"categories_nodes":[],"categories_segments":[],"categories_sizes":[],"default_left":[1,1,0,1,0,1,0,1,0,1,1,0,1,0,0,1,0,0,0,1,0,0,0,0,0,0,0,1,1,0,0,0,0,0,0,0,0,0,0,0,0,0,0,1,1,1,0,0,0,0,1,0,0,0,1,0,0,0,0,0,0,0,1,0,1,0,0,1,0,1,0,0,0,0,1,0,0,0,0,1,0,0,0,0,0,0,0,0,0,0,0,0,0,0,0,0,0,0,0,0,0,0,0,0,0,0,0,0,0,0,0,0,0,0,0,0,0],"id":11,"left_children":[1,3,5,7,9,11,13,15,17,19,21,23,25,-1,-1,27,29,-1,31,33,-1,-1,35,37,39,41,-1,43,45,47,49,-1,51,53,55,57,59,-1,61,-1,63,-1,65,67,69,71,-1,-1,-1,73,75,-1,77,-1,79,-1,-1,-1,81,83,-1,-1,85,87,89,-1,91,93,95,97,99,101,-1,-1,103,-1,-1,-1,105,107,-1,-1,109,-1,-1,-1,-1,-1,111,113,-1,-1,115,-1,-1,-1,-1,-1,-1,-1,-1,-1,-1,-1,-1,-1,-1,-1,-1,-1,-1,-1,-1,-1,-1,-1,-1],"loss_changes":[1.739563E2,1.4095729E2,2.309224E1,1.09902115E2,3.0452866E1,1.4192848E1,1.623085E0,1.0393477E2,1.2440178E1,1.6119385E1,1.2755768E1,1.1940514E1,5.333E0,0E0,0E0,9.826071E1,1.1635117E1,0E0,8.425255E0,9.121109E0,0E0,0E0,4.649307E0,2.8312743E0,1.0878105E1,5.6851616E0,0E0,8.000717E1,3.313575E1,3.643465E0,1.0533813E1,0E0,9.047943E0,7.1367188E0,1.4225842E0,3.516965E0,6.7911215E0,0E0,2.2638073E0,0E0,9.940086E0,0E0,4.465111E0,7.708606E1,1.1380806E1,1.3206429E1,0E0,0E0,0E0,7.2949753E0,1.7282562E0,0E0,8.525391E0,0E0,6.627411E0,0E0,0E0,0E0,3.7151299E0,1.3556873E0,0E0,0E0,1.453671E0,4.948491E0,1.3097633E1,0E0,4.494259E0,7.4973495E1,1.9080162E1,9.9573555E0,6.0143147E0,1.5088554E1,0E0,0E0,5.600048E0,0E0,0E0,0E0,7.4669495E0,6.525772E0,0E0,0E0,3.4303493E0,0E0,0E0,0E0,0E0,0E0,4.353545E0,1.1459961E1,0E0,0E0,2.1368484E0,0E0,0E0,0E0,0E0,0E0,0E0,0E0,0E0,0E0,0E0,0E0,0E0,0E0,0E0,0E0,0E0,0E0,0E0,0E0,0E0,0E0,0E0,0E0,0E0],"parents":[2147483647,0,0,1,1,2,2,3,3,4,4,5,5,6,6,7,7,8,8,9,9,10,10,11,11,12,12,15,15,16,16,18,18,19,19,22,22,23,23,24,24,25,25,27,27,28,28,29,29,30,30,32,32,33,33,34,34,35,35,36,36,38,38,40,40,42,42,43,43,44,44,45,45,49,49,50,50,52,52,54,54,58,58,59,59,62,62,63,63,64,64,66,66,67,67,68,68,69,69,70,70,71,71,74,74,78,78,79,79,82,82,88,88,89,89,92,92],"right_children":[2,4,6,8,10,12,14,16,18,20,22,24,26,-1,-1,28,30,-1,32,34,-1,-1,36,38,40,42,-1,44,46,48,50,-1,52,54,56,58,60,-1,62,-1,64,-1,66,68,70,72,-1,-1,-1,74,76,-1,78,-1,80,-1,-1,-1,82,84,-1,-1,86,88,90,-1,92,94,96,98,100,102,-1,-1,104,-1,-1,-1,106,108,-1,-1,110,-1,-1,-1,-1,-1,112,114,-1,-1,116,-1,-1,-1,-1,-1,-1,-1,-1,-1,-1,-1,-1,-1,-1,-1,-1,-1,-1,-1,-1,-1,-1,-1,-1],"split_conditions":[1.2585525E-1,1.8562952E-1,5.0967765E-1,1.749669E-1,1E0,1.6848376E-1,2.2070492E1,2.0870781E-1,4.505577E-1,2.0063208E-1,5E1,3.8633895E-1,2.2922312E-1,-0E0,2.1017821E-1,1.524791E-1,2.4737592E-1,-6.8326056E-2,1E0,2.337567E-1,-9.329315E-2,2.8837097E-1,3.3791372E-1,3.454149E-1,4.4388074E-1,9.623217E-1,-0E0,1.2519117E-1,2.125309E-1,1.8258612E-1,4.6003133E-1,-7.202676E-2,1.9513331E-1,2.4399458E-1,2.6299787E-1,3.1100723E-1,6.9E1,1.8302827E-1,1.4862606E-1,-8.983061E-2,6.9E1,-4.7785785E-2,1.6072415E-1,1.9184741E-1,1.7040065E-1,1.9907695E-1,-1.05421126E-1,2.1519354E-1,-7.348487E-2,3.0137718E-1,1.8E1,-4.095478E-2,2.4488667E-1,-5.075099E-2,2.8822967E-1,1.4988273E-1,-5.8628287E-2,2.511546E-1,3.0141035E-1,4.0624243E-1,2.2971328E-1,9.5027216E-2,1.9430086E-1,5.053505E-1,2.2012545E-1,-1.8988458E-2,8.021116E-1,1.8401335E-1,6.2620586E-1,2.1731581E-1,2.3831353E-1,5.9E1,-1.0817929E-1,-5.645277E-2,2.1160392E-1,6.516798E-2,3.306039E-1,-3.3864528E-2,3.611664E-1,3.7052825E-1,-4.501541E-2,2.133003E-1,3.4029162E-1,1.695669E-1,-0E0,-1.07392505E-1,3.1036196E-2,-1.0862132E-1,3.5474768E-1,2.3581526E-1,-9.187451E-2,-1.8053735E-2,3.9523706E-1,-1.892729E-2,1.4446214E-1,-1.14645615E-1,9.766083E-2,6.848056E-2,3.455869E-1,-0E0,3.6768782E-1,4.1946046E-2,1.8295975E-1,1.7163293E-1,-3.514223E-2,-5.7262648E-2,2.4056979E-1,2.5624803E-1,-3.9935213E-2,1.8654436E-1,-2.2590254E-2,-1.0060767E-1,5.7535708E-2,8.348603E-2,1.5939306E-1,-0E0,2.607893E-1],"split_indices":[2569,4768,2569,314,649,1780,5006,136,741,3007,5006,3908,1977,0,0,1480,1819,0,4250,4178,0,0,4768,43,4525,5002,0,1889,138,2503,136,0,1871,4725,624,3526,5006,0,2837,0,5006,0,1819,4370,1617,2734,0,0,0,4902,5006,0,1889,0,3230,0,0,0,2908,4396,0,0,4627,3239,1931,0,3725,1412,2436,1401,326,5006,0,0,741,0,0,0,2656,3017,0,0,1004,0,0,0,0,0,1258,2569,0,0,632,0,0,0,0,0,0,0,0,0,0,0,0,0,0,0,0,0,0,0,0,0,0,0,0],"split_type":[0,0,0,0,0,0,0,0,0,0,0,0,0,0,0,0,0,0,0,0,0,0,0,0,0,0,0,0,0,0,0,0,0,0,0,0,0,0,0,0,0,0,0,0,0,0,0,0,0,0,0,0,0,0,0,0,0,0,0,0,0,0,0,0,0,0,0,0,0,0,0,0,0,0,0,0,0,0,0,0,0,0,0,0,0,0,0,0,0,0,0,0,0,0,0,0,0,0,0,0,0,0,0,0,0,0,0,0,0,0,0,0,0,0,0,0,0],"sum_hessian":[1.5098965E4,1.4354845E4,7.4412067E2,1.4111643E4,2.4320206E2,6.745393E2,6.958137E1,1.399175E4,1.1989267E2,1.3571529E2,1.07486755E2,6.263684E2,4.817089E1,1.3733869E0,6.820798E1,1.3853357E4,1.3839229E2,6.243635E0,1.1364903E2,1.3001431E2,5.7009797E0,9.074517E0,9.841224E1,2.643862E1,5.9992975E2,4.4344826E1,3.8260672E0,1.3623854E4,2.295041E2,1.1596125E1,1.26796165E2,3.3268714E0,1.1032216E2,1.2373643E2,6.2778893E0,6.862745E1,2.978479E1,1.1072165E0,2.5331404E1,1.3400526E1,5.8652924E2,2.0449219E0,4.2299904E1,1.3261299E4,3.6255432E2,2.0699963E2,2.2504463E1,1.5282189E0,1.0067905E1,1.0248065E2,2.431551E1,4.304355E0,1.0601781E2,2.2766082E0,1.21459816E2,1.2442452E0,5.033644E0,1.8695699E0,6.675788E1,1.8751957E1,1.1032834E1,1.6382128E0,2.3693192E1,1.7638474E2,4.101445E2,1.5208623E0,4.077904E1,1.2961637E4,2.9966263E2,3.5364313E2,8.911202E0,2.000959E2,6.9037437E0,5.1600842E0,9.7320564E1,3.0187945E0,2.1296715E1,3.8097382E0,1.0220807E2,1.1944942E2,2.010403E0,2.6823967E0,6.4075485E1,1.7487042E0,1.7003252E1,2.2455538E1,1.2376527E0,7.1439514E0,1.6924078E2,3.978698E2,1.2274675E1,1.3356245E0,3.9443417E1,1.2848979E4,1.1265778E2,1.6922369E1,2.8274026E2,3.4846423E2,5.1789093E0,1.1808434E0,7.730359E0,4.2012646E1,1.5808325E2,9.3330086E1,3.9904788E0,2.3870509E0,9.9821014E1,1.1751631E2,1.9330988E0,2.7629173E0,6.1312565E1,6.127363E0,1.6311343E2,2.706726E2,1.2719722E2,1.3230811E0,3.8120335E1],"tree_param":{"num_deleted":"0","num_feature":"5007","num_nodes":"117","size_leaf_vector":"1"}},{"base_weights":[-1.09920865E-2,-2.9038683E-2,7.2136635E-1,9.975002E-2,-1.1293624E-1,2.048931E-1,4.9062553E-1,7.3483586E-1,8.9650415E-2,5.5754596E-1,-1.2955685E-1,7.2487646E-1,3.4783062E-1,-9.008323E-2,7.995694E-1,1.1480144E0,8.387423E-2,1.329316E0,4.3268505E-1,4.408433E-1,-1.4465208E-1,-7.1248345E-2,7.841149E-1,1.4918858E-1,7.1043825E-1,-7.493616E-2,8.5717505E-1,1.2518228E0,-2.6860049E-2,5.384841E-1,7.371345E-2,2.7810386E-1,-0E0,6.819552E-1,1.231929E-1,-9.116627E-2,4.9725026E-1,3.8112524E-1,-1.6124278E-1,-4.6378594E-2,8.264249E-1,1.0962982E0,2.3356928E-2,-4.9588744E-2,7.8312474E-1,-5.1867116E-2,8.9791274E-1,-0E0,1.3220966E0,-9.664381E-2,5.816542E-1,9.957624E-1,6.86243E-2,7.838759E-1,-7.389519E-2,7.0505476E-1,-5.8069978E-2,5.429277E-1,-1.1232497E-1,1.0623479E0,3.1027776E-1,4.6456093E-1,-1.7459626E-1,8.767431E-1,-0E0,-0E0,2.4960259E-1,1.8619683E-1,-7.1836E-2,-2.7081305E-2,8.406271E-1,-1.9932536E-2,9.286039E-1,-0E0,2.7711755E-1,6.7053217E-1,-0E0,-1.7052066E-2,1.0763221E0,4.139291E-1,5.616185E-2,-4.9400542E-2,8.7202567E-1,-5.3809818E-2,8.8960886E-2,-3.8704153E-2,8.417192E-1,2.9464483E-1,-1.3445204E-1,-9.593135E-2,5.854722E-1,-1.5562876E-2,1.170898E0,2.6831207E-1,2.8706032E-1,-1.1171591E-1,5.579669E-1,1.002393E0,-1.7991705E-1,-1.2065057E-2,9.08526E-1,2.2480929E-1,-1.8369883E-1,8.9598316E-1,-1.3975377E-2,-1.9855954E-2,1.9210115E-1,-8.3037235E-2,1.4512877E-1,2.0476066E-1,-6.225996E-2,2.3264907E-1,-3.8038527E-3,9.957983E-2,-2.2879472E-2,1.0137507E-2,1.85796E-1,-6.4319335E-2,1.8478337E-1,-2.7646719E-2,1.962896E-1,2.3782812E-1,-4.2612053E-2,-1.0134756E-1,1.24352E-1,-0E0,2.4991715E-1,-1.17618755E-1,6.2202543E-2,1.3112769E-1,-0E0,-4.455976E-2,2.2297859E-1,1.0138541E-1,-3.7730526E-2,-7.6758745E-3,1.8810885E-1,-5.6212123E-2,1.5393041E-1,-5.7581696E-3,1.8963014E-1],"categories":[],"categories_nodes":[],"categories_segments":[],"categories_sizes":[],"default_left":[1,0,0,0,0,0,1,0,0,0,0,0,1,0,0,1,0,1,0,0,0,0,0,0,0,0,0,0,0,0,0,0,0,1,0,0,1,0,0,0,1,0,0,0,0,0,0,0,0,0,0,0,0,0,1,0,0,0,0,0,1,0,0,0,0,0,0,0,0,0,1,0,0,0,0,0,0,0,1,1,1,0,0,0,0,0,0,0,0,0,0,0,0,0,0,0,1,0,0,0,0,0,1,0,0,0,0,0,0,0,0,0,0,0,0,0,0,0,0,0,0,0,0,0,0,0,0,0,0,0,0,0,0,0,0,0,0,0,0,0,0],"id":12,"left_children":[1,3,5,7,9,-1,11,13,15,17,19,21,23,-1,25,27,29,31,33,35,37,-1,39,41,43,-1,45,47,-1,49,51,-1,-1,53,55,-1,57,59,61,-1,63,65,67,-1,69,-1,71,-1,73,-1,75,77,79,81,83,85,87,89,-1,91,93,95,97,99,-1,-1,-1,-1,101,-1,103,-1,105,-1,-1,107,109,-1,111,113,115,-1,117,-1,-1,-1,119,-1,121,-1,123,-1,125,127,-1,-1,129,131,133,-1,135,-1,137,139,-1,-1,-1,-1,-1,-1,-1,-1,-1,-1,-1,-1,-1,-1,-1,-1,-1,-1,-1,-1,-1,-1,-1,-1,-1,-1,-1,-1,-1,-1,-1,-1,-1,-1,-1,-1,-1],"loss_changes":[1.9888426E2,1.5917598E2,2.3803452E1,3.6521503E1,9.911672E1,0E0,5.9366035E0,7.3253555E0,3.387335E1,1.8948395E1,7.477069E1,5.3584213E0,8.754108E0,0E0,6.349922E0,5.038162E0,2.5740349E1,2.2856102E0,1.3666176E1,1.1427029E1,7.387216E1,0E0,3.7252998E0,9.4748745E0,3.6858654E0,0E0,4.3969193E0,3.389225E0,0E0,5.6109505E0,2.5190693E1,0E0,0E0,8.454994E0,9.5517645E0,0E0,1.0331993E1,1.1156326E1,6.855902E1,0E0,2.9168777E0,1.4647856E0,7.5355945E0,0E0,2.9124508E0,0E0,3.2033844E0,0E0,1.2507019E0,0E0,6.275013E0,3.4546947E0,2.342034E1,8.855785E0,1.0706364E0,3.2448368E0,6.4812217E0,9.063095E0,0E0,3.8102684E0,9.515934E0,1.6455658E1,4.985611E1,2.7304382E0,0E0,0E0,0E0,0E0,8.748094E0,0E0,2.806713E0,0E0,3.356369E0,0E0,0E0,6.567375E0,5.0282617E0,0E0,3.6695938E0,8.797401E0,2.4701138E1,0E0,5.862976E0,0E0,0E0,0E0,3.435279E0,0E0,5.760626E0,0E0,8.016296E0,0E0,2.0367298E0,8.201971E0,0E0,0E0,8.575764E0,5.7731667E0,4.7915955E1,0E0,2.7639809E0,0E0,5.775722E0,2.7095566E0,0E0,0E0,0E0,0E0,0E0,0E0,0E0,0E0,0E0,0E0,0E0,0E0,0E0,0E0,0E0,0E0,0E0,0E0,0E0,0E0,0E0,0E0,0E0,0E0,0E0,0E0,0E0,0E0,0E0,0E0,0E0,0E0,0E0,0E0,0E0,0E0,0E0],"parents":[2147483647,0,0,1,1,2,2,3,3,4,4,6,6,7,7,8,8,9,9,10,10,11,11,12,12,14,14,15,15,16,16,17,17,18,18,19,19,20,20,22,22,23,23,24,24,26,26,27,27,29,29,30,30,33,33,34,34,36,36,37,37,38,38,40,40,41,41,42,42,44,44,46,46,48,48,50,50,51,51,52,52,53,53,54,54,55,55,56,56,57,57,59,59,60,60,61,61,62,62,63,63,68,68,70,70,72,72,75,75,76,76,78,78,79,79,80,80,82,82,86,86,88,88,90,90,92,92,93,93,96,96,97,97,98,98,100,100,102,102,103,103],"right_children":[2,4,6,8,10,-1,12,14,16,18,20,22,24,-1,26,28,30,32,34,36,38,-1,40,42,44,-1,46,48,-1,50,52,-1,-1,54,56,-1,58,60,62,-1,64,66,68,-1,70,-1,72,-1,74,-1,76,78,80,82,84,86,88,90,-1,92,94,96,98,100,-1,-1,-1,-1,102,-1,104,-1,106,-1,-1,108,110,-1,112,114,116,-1,118,-1,-1,-1,120,-1,122,-1,124,-1,126,128,-1,-1,130,132,134,-1,136,-1,138,140,-1,-1,-1,-1,-1,-1,-1,-1,-1,-1,-1,-1,-1,-1,-1,-1,-1,-1,-1,-1,-1,-1,-1,-1,-1,-1,-1,-1,-1,-1,-1,-1,-1,-1,-1,-1,-1],"split_conditions":[2.104879E-1,7.7E1,1E0,3.561385E-1,6.436203E-1,2.048931E-1,9E1,3.9694604E-1,1.6081738E-1,2.5559092E-1,3.4251752E-1,3.2309774E-1,4.27E-1,-9.008323E-2,2.5995982E-1,1.2456002E-1,3.0537912E-1,1.4967254E-1,2.8193402E-1,2.4747418E-1,3.7230316E-1,-7.1248345E-2,2.963697E-1,2.8745332E-1,4.2140713E-1,-7.493616E-2,1.9488944E-1,1.07343756E-1,-2.6860049E-2,2.6878116E-1,2.1135297E-1,2.7810386E-1,-0E0,9.680042E-2,8.754784E-1,-9.116627E-2,1.5246324E-1,1.17556885E-1,3.3480906E-1,-4.6378594E-2,1.9405568E-1,2.452971E-1,3.4314623E-1,-4.9588744E-2,2.7806208E-1,-5.1867116E-2,3.5355982E-1,-0E0,3.4E1,-9.664381E-2,7.5E1,2.3419802E-1,5.04036E-1,3.9122286E-1,7.94E-1,2.6152164E-1,1.4557213E0,2.6158565E-1,-1.1232497E-1,1.1402022E-1,1.5224357E-1,6.7124885E-1,1.10485405E-1,4.181588E-1,-0E0,-0E0,2.4960259E-1,1.8619683E-1,4.4413272E-1,-2.7081305E-2,2.5534403E-1,-1.9932536E-2,2.7167627E-1,-0E0,2.7711755E-1,3.3373186E-1,2.1134037E-1,-1.7052066E-2,1.3150991E-1,2.9121158E-1,1.0999545E-1,-4.9400542E-2,4.0326768E-1,-5.3809818E-2,8.8960886E-2,-3.8704153E-2,9.310827E-1,2.9464483E-1,3.6608866E-1,-9.593135E-2,2.7610537E-1,-1.5562876E-2,6.88108E-2,3.1966943E-1,2.8706032E-1,-1.1171591E-1,9.017713E-2,1.6437216E-1,1.4716655E0,-1.2065057E-2,8.4267473E-1,2.2480929E-1,2.3958437E-1,5.0727546E-1,-1.3975377E-2,-1.9855954E-2,1.9210115E-1,-8.3037235E-2,1.4512877E-1,2.0476066E-1,-6.225996E-2,2.3264907E-1,-3.8038527E-3,9.957983E-2,-2.2879472E-2,1.0137507E-2,1.85796E-1,-6.4319335E-2,1.8478337E-1,-2.7646719E-2,1.962896E-1,2.3782812E-1,-4.2612053E-2,-1.0134756E-1,1.24352E-1,-0E0,2.4991715E-1,-1.17618755E-1,6.2202543E-2,1.3112769E-1,-0E0,-4.455976E-2,2.2297859E-1,1.0138541E-1,-3.7730526E-2,-7.6758745E-3,1.8810885E-1,-5.6212123E-2,1.5393041E-1,-5.7581696E-3,1.8963014E-1],"split_indices":[3230,5006,1169,4915,1697,0,5006,3226,1889,2569,3071,129,5002,0,2837,4458,422,3239,1697,2569,1914,0,346,1931,2000,0,2904,3226,0,848,1931,0,0,3226,5002,0,4953,1914,3392,0,3226,3805,1458,0,2395,0,662,0,5006,0,5006,1293,3147,1427,5002,2503,2805,4153,0,4668,1835,2181,1747,4897,0,0,0,0,1029,0,133,0,569,0,0,4396,1029,0,3239,20,4818,0,2751,0,0,0,459,0,1458,0,1293,0,4306,4153,0,0,3226,1087,