{"learner":{"attributes":{"best_iteration":"289","best_score":"0.30616933576593014","scikit_learn":"{\"_estimator_type\": \"classifier\"}"},"feature_names":[],"feature_types":[],"gradient_booster":{"model":{"gbtree_model_param":{"num_parallel_tree":"1","num_trees":"1160"},"iteration_indptr":[0,4,8,12,16,20,24,28,32,36,40,44,48,52,56,60,64,68,72,76,80,84,88,92,96,100,104,108,112,116,120,124,128,132,136,140,144,148,152,156,160,164,168,172,176,180,184,188,192,196,200,204,208,212,216,220,224,228,232,236,240,244,248,252,256,260,264,268,272,276,280,284,288,292,296,300,304,308,312,316,320,324,328,332,336,340,344,348,352,356,360,364,368,372,376,380,384,388,392,396,400,404,408,412,416,420,424,428,432,436,440,444,448,452,456,460,464,468,472,476,480,484,488,492,496,500,504,508,512,516,520,524,528,532,536,540,544,548,552,556,560,564,568,572,576,580,584,588,592,596,600,604,608,612,616,620,624,628,632,636,640,644,648,652,656,660,664,668,672,676,680,684,688,692,696,700,704,708,712,716,720,724,728,732,736,740,744,748,752,756,760,764,768,772,776,780,784,788,792,796,800,804,808,812,816,820,824,828,832,836,840,844,848,852,856,860,864,868,872,876,880,884,888,892,896,900,904,908,912,916,920,924,928,932,936,940,944,948,952,956,960,964,968,972,976,980,984,988,992,996,1000,1004,1008,1012,1016,1020,1024,1028,1032,1036,1040,1044,1048,1052,1056,1060,1064,1068,1072,1076,1080,1084,1088,1092,1096,1100,1104,1108,1112,1116,1120,1124,1128,1132,1136,1140,1144,1148,1152,1156,1160],"tree_info":[0,1,2,3,0,1,2,3,0,1,2,3,0,1,2,3,0,1,2,3,0,1,2,3,0,1,2,3,0,1,2,3,0,1,2,3,0,1,2,3,0,1,2,3,0,1,2,3,0,1,2,3,0,1,2,3,0,1,2,3,0,1,2,3,0,1,2,3,0,1,2,3,0,1,2,3,0,1,2,3,0,1,2,3,0,1,2,3,0,1,2,3,0,1,2,3,0,1,2,3,0,1,2,3,0,1,2,3,0,1,2,3,0,1,2,3,0,1,2,3,0,1,2,3,0,1,2,3,0,1,2,3,0,1,2,3,0,1,2,3,0,1,2,3,0,1,2,3,0,1,2,3,0,1,2,3,0,1,2,3,0,1,2,3,0,1,2,3,0,1,2,3,0,1,2,3,0,1,2,3,0,1,2,3,0,1,2,3,0,1,2,3,0,1,2,3,0,1,2,3,0,1,2,3,0,1,2,3,0,1,2,3,0,1,2,3,0,1,2,3,0,1,2,3,0,1,2,3,0,1,2,3,0,1,2,3,0,1,2,3,0,1,2,3,0,1,2,3,0,1,2,3,0,1,2,3,0,1,2,3,0,1,2,3,0,1,2,3,0,1,2,3,0,1,2,3,0,1,2,3,0,1,2,3,0,1,2,3,0,1,2,3,0,1,2,3,0,1,2,3,0,1,2,3,0,1,2,3,0,1,2,3,0,1,2,3,0,1,2,3,0,1,2,3,0,1,2,3,0,1,2,3,0,1,2,3,0,1,2,3,0,1,2,3,0,1,2,3,0,1,2,3,0,1,2,3,0,1,2,3,0,1,2,3,0,1,2,3,0,1,2,3,0,1,2,3,0,1,2,3,0,1,2,3,0,1,2,3,0,1,2,3,0,1,2,3,0,1,2,3,0,1,2,3,0,1,2,3,0,1,2,3,0,1,2,3,0,1,2,3,0,1,2,3,0,1,2,3,0,1,2,3,0,1,2,3,0,1,2,3,0,1,2,3,0,1,2,3,0,1,2,3,0,1,2,3,0,1,2,3,0,1,2,3,0,1,2,3,0,1,2,3,0,1,2,3,0,1,2,3,0,1,2,3,0,1,2,3,0,1,2,3,0,1,2,3,0,1,2,3,0,1,2,3,0,1,2,3,0,1,2,3,0,1,2,3,0,1,2,3,0,1,2,3,0,1,2,3,0,1,2,3,0,1,2,3,0,1,2,3,0,1,2,3,0,1,2,3,0,1,2,3,0,1,2,3,0,1,2,3,0,1,2,3,0,1,2,3,0,1,2,3,0,1,2,3,0,1,2,3,0,1,2,3,0,1,2,3,0,1,2,3,0,1,2,3,0,1,2,3,0,1,2,3,0,1,2,3,0,1,2,3,0,1,2,3,0,1,2,3,0,1,2,3,0,1,2,3,0,1,2,3,0,1,2,3,0,1,2,3,0,1,2,3,0,1,2,3,0,1,2,3,0,1,2,3,0,1,2,3,0,1,2,3,0,1,2,3,0,1,2,3,0,1,2,3,0,1,2,3,0,1,2,3,0,1,2,3,0,1,2,3,0,1,2,3,0,1,2,3,0,1,2,3,0,1,2,3,0,1,2,3,0,1,2,3,0,1,2,3,0,1,2,3,0,1,2,3,0,1,2,3,0,1,2,3,0,1,2,3,0,1,2,3,0,1,2,3,0,1,2,3,0,1,2,3,0,1,2,3,0,1,2,3,0,1,2,3,0,1,2,3,0,1,2,3,0,1,2,3,0,1,2,3,0,1,2,3,0,1,2,3,0,1,2,3,0,1,2,3,0,1,2,3,0,1,2,3,0,1,2,3,0,1,2,3,0,1,2,3,0,1,2,3,0,1,2,3,0,1,2,3,0,1,2,3,0,1,2,3,0,1,2,3,0,1,2,3,0,1,2,3,0,1,2,3,0,1,2,3,0,1,2,3,0,1,2,3,0,1,2,3,0,1,2,3,0,1,2,3,0,1,2,3,0,1,2,3,0,1,2,3,0,1,2,3,0,1,2,3,0,1,2,3,0,1,2,3,0,1,2,3,0,1,2,3,0,1,2,3,0,1,2,3,0,1,2,3,0,1,2,3,0,1,2,3,0,1,2,3,0,1,2,3,0,1,2,3,0,1,2,3,0,1,2,3,0,1,2,3,0,1,2,3,0,1,2,3,0,1,2,3,0,1,2,3,0,1,2,3,0,1,2,3,0,1,2,3,0,1,2,3,0,1,2,3,0,1,2,3,0,1,2,3,0,1,2,3,0,1,2,3,0,1,2,3,0,1,2,3,0,1,2,3,0,1,2,3,0,1,2,3,0,1,2,3,0,1,2,3,0,1,2,3,0,1,2,3,0,1,2,3,0,1,2,3,0,1,2,3,0,1,2,3,0,1,2,3,0,1,2,3,0,1,2,3,0,1,2,3,0,1,2,3,0,1,2,3,0,1,2,3,0,1,2,3,0,1,2,3,0,1,2,3,0,1,2,3,0,1,2,3,0,1,2,3,0,1,2,3,0,1,2,3,0,1,2,3,0,1,2,3,0,1,2,3,0,1,2,3,0,1,2,3,0,1,2,3,0,1,2,3,0,1,2,3,0,1,2,3],"trees":[{"base_weights":[1.6990532E-3,-1.9972159E-2,1.5770456E0,1.8647774E-1,-1.4035113E-1,3.955309E-1,9.819009E-1,1.1777111E0,1.7178883E-1,5.6948775E-1,-1.5989253E-1,1.4689568E0,4.6486467E-1,-4.872408E-2,1.2311199E0,8.4750545E-1,1.5738794E-1,1.3728814E0,4.4425356E-1,4.3779013E-1,-1.7789963E-1,1.6047235E0,-9.143562E-3,-7.677385E-2,6.6268563E-1,-4.872408E-2,1.2877141E0,9.424551E-1,-6.4483434E-2,1.7481378E-1,-3.8237786E-1,1.4954513E0,-3.5075985E-2,-3.5642853E-1,5.121828E-1,2.858604E-1,8.5797244E-1,5.622727E-1,-1.9299948E-1,1.6843584E0,2.6520183E-2,3.1965154E-1,4.060636E-1,1.4189079E0,3.7970856E-1,-7.894345E-2,1.0033607E0,-7.944184E-2,1.228049E-1,9.9438894E-1,1.6270535E-1,3.0892E-1,-4.3187332E-1,-0E0,1.5763292E0,-1.03425376E-1,2.4362041E-1,5.699876E-1,-3.339596E-1,3.7245473E-1,-1.0963043E-1,9.5369786E-1,-8.340187E-2,-2.7155256E-1,7.220812E-1,-1.0245209E-1,-3.2242373E-1,3.6405736E-1,6.417321E-1,-0E0,8.230791E-1,1.4907032E0,-0E0,2.694308E-1,-1.827049E-2,1.2547215E0,6.8523556E-1,1.1307139E0,-2.3024608E-1,1.1109387E0,1.5308788E-1,2.2165774E-1,-4.6555814E-1,-0E0,1.663493E0,1.787854E-1,-0E0,-1.0317735E-1,6.17436E-1,5.1781446E-2,-9.550256E-2,1.1331968E0,2.9991248E-1,1.1860319E0,2.2555675E-1,2.7096656E-1,-4.6850985E-1,8.024402E-1,-1.0707694E-1,-1.3254857E-1,-6.894561E-2,4.0799358E-1,-3.4816515E-1,2.5662908E-1,-3.5075985E-2,1.787854E-1,-2.8106812E-2,-0E0,1.0818788E0,3.0821535E-1,-0E0,-1.6177958E-2,2.6206672E-1,3.3457753E-1,1.0602708E-1,2.6334405E-1,1.6030638E-2,-9.5731124E-2,5.1781446E-2,-7.361075E-2,2.4774449E-1,2.768894E-1,2.9569272E-2,2.501525E-1,-9.896529E-2,-0E0,3.443532E-1,1.3261718E-1,-9.986339E-2,2.79268E-1,-3.5075985E-2,4.982571E-2,3.3457753E-1,2.5200436E-1,-3.5075985E-2,2.5296205E-1,-6.0181707E-2,5.1781446E-2,-1.0801891E-1,1.7853406E-1,-1.0707694E-1,-1.3211799E-1,-9.026479E-3,5.1150627E-2,3.531308E-1,1.09624965E-2,-7.8751944E-2,1.7824573E-2,3.0120358E-1],"categories":[],"categories_nodes":[],"categories_segments":[],"categories_sizes":[],"default_left":[1,0,0,0,0,0,1,0,0,0,0,0,0,0,0,0,1,1,0,0,0,0,0,0,0,0,0,0,0,0,0,0,0,0,1,1,0,0,1,0,0,0,0,1,0,0,0,0,0,0,0,0,0,0,0,0,1,0,0,0,0,0,0,0,1,0,0,0,0,0,0,1,0,0,0,0,0,0,1,0,0,0,0,0,0,0,0,0,1,0,0,1,1,1,0,0,0,0,0,0,0,1,0,0,0,0,0,0,0,0,0,0,0,0,0,0,0,0,0,0,0,0,0,0,0,0,0,0,0,0,0,0,0,0,0,0,0,0,0,0,0,0,0,0,0,0,0,0,0],"id":0,"left_children":[1,3,5,7,9,-1,11,13,15,17,19,21,23,-1,25,27,29,31,33,35,37,39,-1,-1,41,-1,43,45,47,49,51,53,-1,55,57,59,61,63,65,67,-1,-1,69,71,73,-1,75,-1,-1,77,79,-1,81,-1,83,-1,85,87,89,91,-1,93,-1,95,97,99,101,-1,103,105,107,109,-1,-1,-1,111,113,115,117,119,121,-1,123,-1,125,-1,-1,-1,127,-1,-1,129,131,133,135,-1,137,139,-1,-1,141,143,145,-1,-1,-1,-1,-1,147,-1,-1,-1,-1,-1,-1,-1,-1,-1,-1,-1,-1,-1,-1,-1,-1,-1,-1,-1,-1,-1,-1,-1,-1,-1,-1,-1,-1,-1,-1,-1,-1,-1,-1,-1,-1,-1,-1,-1,-1],"loss_changes":[5.2189844E2,3.7378336E2,4.6094055E1,7.940204E1,1.315292E2,0E0,1.9519531E1,7.035759E0,5.2206863E1,2.3707901E1,9.9379745E1,1.0152695E1,7.5394173E0,0E0,7.5054855E0,1.051503E1,5.0139725E1,7.506439E0,1.223069E1,1.6119465E1,1.00125916E2,3.0379028E0,0E0,0E0,6.5909977E0,0E0,7.230667E0,9.064941E0,2.2297392E0,5.0364716E1,1.5178595E1,4.955826E0,0E0,1.8852832E0,1.0302616E1,1.4384359E1,9.152897E0,2.4263168E1,1.02800995E2,2.672943E0,0E0,0E0,5.377242E0,7.7345276E0,6.103177E0,0E0,5.9017563E0,0E0,0E0,1.3283936E1,4.5431076E1,0E0,8.118608E0,0E0,5.3798523E0,0E0,1.0981617E0,1.0163704E1,1.2993047E0,8.701822E0,0E0,9.805275E0,0E0,8.57213E0,1.5658806E1,9.669277E1,6.8075745E1,0E0,4.0215435E0,1.5264935E0,3.4815817E0,5.0653534E0,0E0,0E0,0E0,5.043968E0,4.82267E0,1.1980812E1,1.1156721E0,1.0449337E1,3.1255852E1,0E0,7.6702423E0,0E0,2.3758469E0,0E0,0E0,0E0,9.753761E0,0E0,0E0,6.2002907E0,9.912699E0,5.931122E0,1.0461961E1,0E0,1.6509852E0,1.7726372E1,0E0,0E0,6.8341034E1,2.337771E1,6.456738E1,0E0,0E0,0E0,0E0,0E0,3.5224466E0,0E0,0E0,0E0,0E0,0E0,0E0,0E0,0E0,0E0,0E0,0E0,0E0,0E0,0E0,0E0,0E0,0E0,0E0,0E0,0E0,0E0,0E0,0E0,0E0,0E0,0E0,0E0,0E0,0E0,0E0,0E0,0E0,0E0,0E0,0E0,0E0,0E0,0E0,0E0,0E0],"parents":[2147483647,0,0,1,1,2,2,3,3,4,4,6,6,7,7,8,8,9,9,10,10,11,11,12,12,14,14,15,15,16,16,17,17,18,18,19,19,20,20,21,21,24,24,26,26,27,27,28,28,29,29,30,30,31,31,33,33,34,34,35,35,36,36,37,37,38,38,39,39,42,42,43,43,44,44,46,46,49,49,50,50,52,52,54,54,56,56,57,57,58,58,59,59,61,61,63,63,64,64,65,65,66,66,68,68,69,69,70,70,71,71,75,75,76,76,77,77,78,78,79,79,80,80,82,82,84,84,88,88,91,91,92,92,93,93,94,94,96,96,97,97,100,100,101,101,102,102,108,108],"right_children":[2,4,6,8,10,-1,12,14,16,18,20,22,24,-1,26,28,30,32,34,36,38,40,-1,-1,42,-1,44,46,48,50,52,54,-1,56,58,60,62,64,66,68,-1,-1,70,72,74,-1,76,-1,-1,78,80,-1,82,-1,84,-1,86,88,90,92,-1,94,-1,96,98,100,102,-1,104,106,108,110,-1,-1,-1,112,114,116,118,120,122,-1,124,-1,126,-1,-1,-1,128,-1,-1,130,132,134,136,-1,138,140,-1,-1,142,144,146,-1,-1,-1,-1,-1,148,-1,-1,-1,-1,-1,-1,-1,-1,-1,-1,-1,-1,-1,-1,-1,-1,-1,-1,-1,-1,-1,-1,-1,-1,-1,-1,-1,-1,-1,-1,-1,-1,-1,-1,-1,-1,-1,-1,-1,-1],"split_conditions":[2.9858175E-1,7.7E1,5.1252705E-1,3.5469168E-1,4.0047252E-1,3.955309E-1,1E2,3.4663555E-1,2.4582882E-1,1.3608707E-1,5.325956E-1,2.5992173E-1,3.6112586E-1,-4.872408E-2,3.288673E-1,7.3E1,1E0,9.553778E-2,1.5921386E-1,1.8070394E-1,2.6908886E-1,5.347334E-1,-9.143562E-3,-7.677385E-2,5.445275E-1,-4.872408E-2,5.5151534E-1,3.139334E-1,2.2060417E-1,2.00001E0,3.6061463E-1,1.9028984E-1,-3.5075985E-2,2.1935548E-1,2.2148485E-1,1.8369192E-1,2.00001E0,3.9993647E-1,1E0,7.383439E-1,2.6520183E-2,3.1965154E-1,2.0419283E-1,7.7122E-2,2.7982762E-2,-7.894345E-2,1.1634309E-2,-7.944184E-2,1.228049E-1,2.8668913E-1,2.9858175E-1,3.0892E-1,3.5012302E-1,-0E0,1.5560491E-1,-1.03425376E-1,2.5618485E-1,2.6956716E-1,2.140164E-1,3.8846302E-1,-1.0963043E-1,3.065561E-1,-8.340187E-2,4.1369906E-1,1.1685626E-1,2.00001E0,1.7640397E-1,3.6405736E-1,5.176948E-1,5.635019E-1,4.4915134E-1,1.4016144E-1,-0E0,2.694308E-1,-1.827049E-2,1.08612E0,2.7362838E-1,2.6417216E-2,2.2022559E-1,3.1514797E-1,7.288437E-1,2.2165774E-1,4.5697874E-1,-0E0,1.4521049E-1,1.787854E-1,-0E0,-1.0317735E-1,1.6865912E-1,5.1781446E-2,-9.550256E-2,2.0207411E-1,2.3166803E-1,1.6574213E-1,2.00001E0,2.7096656E-1,2.7411732E-1,2.00001E0,-1.0707694E-1,-1.3254857E-1,1E0,3.376929E-2,5.845512E-1,2.5662908E-1,-3.5075985E-2,1.787854E-1,-2.8106812E-2,-0E0,2.00001E0,3.0821535E-1,-0E0,-1.6177958E-2,2.6206672E-1,3.3457753E-1,1.0602708E-1,2.6334405E-1,1.6030638E-2,-9.5731124E-2,5.1781446E-2,-7.361075E-2,2.4774449E-1,2.768894E-1,2.9569272E-2,2.501525E-1,-9.896529E-2,-0E0,3.443532E-1,1.3261718E-1,-9.986339E-2,2.79268E-1,-3.5075985E-2,4.982571E-2,3.3457753E-1,2.5200436E-1,-3.5075985E-2,2.5296205E-1,-6.0181707E-2,5.1781446E-2,-1.0801891E-1,1.7853406E-1,-1.0707694E-1,-1.3211799E-1,-9.026479E-3,5.1150627E-2,3.531308E-1,1.09624965E-2,-7.8751944E-2,1.7824573E-2,3.0120358E-1],"split_indices":[3230,5006,374,4915,1914,0,5006,662,2569,1914,3071,5007,5008,0,1029,5006,5000,658,3226,5010,1604,3230,0,0,5002,0,5008,4781,2569,4327,1412,801,0,5012,3011,3226,5000,3226,5000,5008,0,0,5007,2075,5007,0,5012,0,0,5007,3230,0,1630,0,2787,0,136,1091,2503,4178,0,3071,0,335,4953,2326,1867,0,932,2525,5008,2904,0,0,0,364,2904,5012,1029,129,2494,0,2163,0,636,0,0,0,2376,0,0,848,136,1819,5002,0,2886,5000,0,0,1149,1258,1520,0,0,0,0,0,5000,0,0,0,0,0,0,0,0,0,0,0,0,0,0,0,0,0,0,0,0,0,0,0,0,0,0,0,0,0,0,0,0,0,0,0,0,0,0,0,0],"split_type":[0,0,0,0,0,0,0,0,0,0,0,0,0,0,0,0,0,0,0,0,0,0,0,0,0,0,0,0,0,0,0,0,0,0,0,0,0,0,0,0,0,0,0,0,0,0,0,0,0,0,0,0,0,0,0,0,0,0,0,0,0,0,0,0,0,0,0,0,0,0,0,0,0,0,0,0,0,0,0,0,0,0,0,0,0,0,0,0,0,0,0,0,0,0,0,0,0,0,0,0,0,0,0,0,0,0,0,0,0,0,0,0,0,0,0,0,0,0,0,0,0,0,0,0,0,0,0,0,0,0,0,0,0,0,0,0,0,0,0,0,0,0,0,0,0,0,0,0,0],"sum_hessian":[1.5247875E4,1.5040875E4,2.07E2,5.53725E3,9.503625E3,1.2225E2,8.475E1,7.95E1,5.45775E3,2.53125E2,9.2505E3,4.2375E1,4.2375E1,2.25E0,7.725E1,1.12125E2,5.345625E3,3.2625E1,2.205E2,2.68875E2,8.981625E3,3.9375E1,3E0,7.125E0,3.525E1,2.25E0,7.5E1,1.02375E2,9.75E0,5.18025E3,1.65375E2,3.075E1,1.875E0,1.6125E1,2.04375E2,1.995E2,6.9375E1,1.78125E2,8.8035E3,3.675E1,2.625E0,6.375E0,2.8875E1,6.45E1,1.05E1,3.75E0,9.8625E1,7.5E0,2.25E0,7.3875E1,5.106375E3,3.375E0,1.62E2,1.125E0,2.9625E1,1.3875E1,2.25E0,1.92375E2,1.2E1,1.81875E2,1.7625E1,6.525E1,4.125E0,2.775E1,1.50375E2,5.184E3,3.6195E3,3.15E1,5.25E0,1.425E1,1.4625E1,6.1875E1,2.625E0,3.75E0,6.75E0,5.2875E1,4.575E1,6.7125E1,6.75E0,4.9875E1,5.0565E3,2.625E0,1.59375E2,1.125E0,2.85E1,1.125E0,1.125E0,7.125E0,1.8525E2,1.125E0,1.0875E1,1.425E1,1.67625E2,4.8375E1,1.6875E1,2.25E0,2.55E1,1.42125E2,8.25E0,2.90625E2,4.893375E3,1.21875E2,3.497625E3,3.375E0,1.875E0,1.125E0,1.3125E1,3.375E0,1.125E1,6E1,1.875E0,1.5E0,5.1375E1,4.875E0,4.0875E1,5.625E1,1.0875E1,5.625E0,1.125E0,3.375E0,4.65E1,2.025E1,5.03625E3,1.875E0,1.575E2,1.125E0,2.7375E1,1.78875E2,6.375E0,1.2375E1,1.875E0,1.6275E2,4.875E0,4.65E1,1.875E0,6E0,1.0875E1,1.125E0,2.4375E1,1.33875E2,8.25E0,1.875E2,4.705875E3,1.10625E2,1.125E1,3.53625E2,3.144E3,4.125E0,7.125E0],"tree_param":{"num_deleted":"0","num_feature":"5013","num_nodes":"149","size_leaf_vector":"1"}},{"base_weights":[2.2870323E-3,-2.7624696E-2,1.5519575E0,2.262752E-1,-1.8693328E-1,-9.5731124E-2,1.5959082E0,-4.653365E-1,2.8527662E-1,-1.9633701E-1,1.1638209E0,-6.690845E-2,1.6411517E0,-4.7924677E-1,8.7093556E-1,3.2777065E-1,-3.50283E-1,-2.6060092E-1,-1.6747057E-2,1.4404048E0,8.29918E-2,1.6819147E0,-5.8167953E-2,7.448958E-1,-4.932453E-1,2.7096656E-1,-0E0,2.140338E-1,5.644716E-1,-4.191102E-1,4.6261227E-1,-2.70539E-1,9.038249E-1,-2.0703267E-1,2.8860354E-1,-0E0,1.5194525E0,7.448958E-1,-1.4328249E-1,-2.3078723E-2,1.720539E0,-1.6177958E-2,2.867036E-1,-5.0923914E-1,5.6096345E-1,6.1166257E-1,1.5562786E-1,9.126081E-1,2.5753197E-1,-4.369371E-1,2.7096656E-1,7.081106E-1,-8.718475E-2,-2.759293E-1,1.6345863E0,1.1494907E0,3.0034812E-2,-3.0100837E-1,6.967035E-2,1.3195153E-1,6.6063666E-1,1.5910116E0,-1.6177958E-2,-1.6177958E-2,2.867036E-1,1.18755E-1,-8.1869446E-2,1.0903808E-1,1.765995E0,-5.1783836E-1,2.2133203E-1,-3.5075985E-2,1.1090448E0,1.0579963E0,4.721196E-1,1.2265196E-1,8.943041E-1,-0E0,9.94709E-1,2.222914E-1,1.3548381E0,-4.5755202E-1,2.0433812E-1,1.1673506E0,3.337975E-3,-2.826121E-1,1.0403014E0,3.452599E-1,-0E0,-0E0,1.2531832E0,6.417321E-1,-2.8922358E-1,-6.209757E-1,-2.3902723E-1,7.276813E-1,9.140882E-3,4.9459454E-2,6.1207926E-1,5.074824E-1,1.1367866E0,1.667414E0,-1.6177958E-2,7.6023585E-1,-4.6778698E-2,1.794138E0,-2.1319812E-2,-1.0637355E-1,5.5905756E-2,2.867036E-1,-0E0,-5.904311E-2,2.2084327E-1,1.0239714E-1,-9.8921075E-2,3.345178E-1,2.1501657E-2,1.1983692E-1,2.6588035E-1,1.5229183E-1,-4.3324262E-2,-1.6819876E-2,2.1038258E-1,-3.415731E-2,6.069081E-2,2.9931906E-1,-0E0,-9.5104754E-2,1.83069E-1,2.535797E-1,-0E0,-5.7446547E-2,2.8753904E-1,-0E0,2.5961074E-1,2.7648637E-1,-9.143562E-3,-1.6177958E-2,2.2180896E-1,-1.0160667E-1,5.1781446E-2,-1.2962745E-1,-0E0,5.746582E-2,-5.5482E-2,-8.340187E-2,1.8923418E-1,-6.639411E-3,1.7209728E-1,1.8385885E-2,-1.20380126E-1,-9.325719E-2,1.375107E-1,-9.265798E-2,1.1765825E-1,-4.872408E-2,2.403787E-1,-1.6177958E-2,3.4983373E-1,-0E0,2.7096656E-1,-3.5075985E-2,3.6245605E-1],"categories":[],"categories_nodes":[],"categories_segments":[],"categories_sizes":[],"default_left":[1,0,0,0,1,0,0,1,0,1,0,0,1,0,0,1,1,1,0,0,0,0,0,0,1,0,0,0,1,1,0,1,0,0,0,0,1,0,0,0,0,0,0,1,0,0,1,0,1,1,0,0,0,1,1,0,0,0,0,0,0,1,0,0,0,0,0,0,1,1,0,0,0,0,1,0,0,0,0,0,0,1,0,1,0,1,0,0,0,0,0,0,1,0,0,0,1,1,0,0,0,0,0,0,0,0,0,0,0,0,0,0,0,0,0,0,0,0,0,0,0,0,0,0,0,0,0,0,0,0,0,0,0,0,0,0,0,0,0,0,0,0,0,0,0,0,0,0,0,0,0,0,0,0,0,0,0,0,0,0,0,0,0],"id":1,"left_children":[1,3,5,7,9,-1,11,13,15,17,19,-1,21,23,25,27,29,31,33,35,37,39,-1,41,43,-1,-1,45,47,49,51,53,55,57,59,-1,61,63,65,-1,67,-1,-1,69,71,73,75,77,79,81,-1,83,-1,85,87,89,91,93,95,97,99,101,-1,-1,-1,-1,-1,103,105,107,-1,-1,109,111,113,115,117,119,121,123,125,127,-1,129,-1,131,133,-1,-1,-1,135,137,139,141,143,145,147,149,151,153,155,157,-1,159,-1,161,-1,-1,-1,-1,-1,-1,-1,-1,-1,-1,-1,-1,-1,-1,-1,-1,-1,-1,-1,-1,-1,-1,-1,-1,-1,-1,-1,-1,-1,-1,-1,-1,-1,-1,-1,-1,-1,-1,-1,-1,-1,-1,-1,-1,-1,-1,-1,-1,-1,-1,-1,-1,-1,-1,-1,-1,-1],"loss_changes":[7.08809E2,6.0566876E2,2.7128174E1,2.3541318E2,1.1618973E2,0E0,2.6147766E1,8.2725525E0,1.4368744E2,1.0525864E2,1.7518677E1,0E0,2.328125E1,7.6465683E0,1.769958E0,1.3355353E2,1.8643894E1,7.743753E1,1.4015251E2,6.404335E0,2.644013E0,2.037201E1,0E0,3.7929037E0,7.5850525E0,0E0,0E0,7.761487E1,1.7158405E2,9.219837E0,5.9268804E0,6.757959E1,1.1081665E1,3.8908993E1,5.319175E1,0E0,6.749428E0,3.7929037E0,1.8806603E0,0E0,1.7925476E1,0E0,0E0,5.8646393E0,3.3255157E0,2.5257217E1,7.076477E1,5.6372864E1,3.1819168E1,8.916031E0,0E0,5.5666924E0,0E0,5.802707E1,2.3342857E0,5.462433E0,3.0313954E0,2.1290741E1,1.4330201E1,2.5290386E1,1.8214722E1,7.2504883E0,0E0,0E0,0E0,0E0,0E0,2.3823557E0,1.5187073E1,5.175766E0,0E0,0E0,1.1529241E0,7.1185303E0,1.2834999E1,6.456784E1,1.4013458E1,1.0614468E1,4.3625916E1,2.6780628E1,4.609707E0,7.2754326E0,0E0,1.0562811E0,0E0,5.1853027E1,9.193176E0,0E0,0E0,0E0,7.840145E0,2.8310993E0,1.2674336E0,2.5195312E0,1.893145E1,8.238733E0,1.3161126E1,1.5064625E1,7.997364E0,1.6560497E1,6.7424164E0,7.804222E0,0E0,2.745043E0,0E0,1.0676147E1,0E0,0E0,0E0,0E0,0E0,0E0,0E0,0E0,0E0,0E0,0E0,0E0,0E0,0E0,0E0,0E0,0E0,0E0,0E0,0E0,0E0,0E0,0E0,0E0,0E0,0E0,0E0,0E0,0E0,0E0,0E0,0E0,0E0,0E0,0E0,0E0,0E0,0E0,0E0,0E0,0E0,0E0,0E0,0E0,0E0,0E0,0E0,0E0,0E0,0E0,0E0,0E0,0E0,0E0,0E0,0E0,0E0],"parents":[2147483647,0,0,1,1,2,2,3,3,4,4,6,6,7,7,8,8,9,9,10,10,12,12,13,13,14,14,15,15,16,16,17,17,18,18,19,19,20,20,21,21,23,23,24,24,27,27,28,28,29,29,30,30,31,31,32,32,33,33,34,34,36,36,37,37,38,38,40,40,43,43,44,44,45,45,46,46,47,47,48,48,49,49,51,51,53,53,54,54,55,55,56,56,57,57,58,58,59,59,60,60,61,61,67,67,68,68,69,69,72,72,73,73,74,74,75,75,76,76,77,77,78,78,79,79,80,80,81,81,83,83,85,85,86,86,90,90,91,91,92,92,93,93,94,94,95,95,96,96,97,97,98,98,99,99,100,100,101,101,103,103,105,105],"right_children":[2,4,6,8,10,-1,12,14,16,18,20,-1,22,24,26,28,30,32,34,36,38,40,-1,42,44,-1,-1,46,48,50,52,54,56,58,60,-1,62,64,66,-1,68,-1,-1,70,72,74,76,78,80,82,-1,84,-1,86,88,90,92,94,96,98,100,102,-1,-1,-1,-1,-1,104,106,108,-1,-1,110,112,114,116,118,120,122,124,126,128,-1,130,-1,132,134,-1,-1,-1,136,138,140,142,144,146,148,150,152,154,156,158,-1,160,-1,162,-1,-1,-1,-1,-1,-1,-1,-1,-1,-1,-1,-1,-1,-1,-1,-1,-1,-1,-1,-1,-1,-1,-1,-1,-1,-1,-1,-1,-1,-1,-1,-1,-1,-1,-1,-1,-1,-1,-1,-1,-1,-1,-1,-1,-1,-1,-1,-1,-1,-1,-1,-1,-1,-1,-1,-1,-1],"split_conditions":[1.1497743E-1,3.78671E-1,3.1109035E-1,2.00001E0,1.490855E-1,-9.5731124E-2,2.9151976E-1,2.8063583E-1,2.1935548E-1,1E0,7.056033E-1,-6.690845E-2,1.3683394E-1,2.162891E-1,3.9332408E-1,1E0,2.2356285E-1,2.43672E-1,2.00001E0,2.6429972E-1,3.7787784E-2,1.7889784E-1,-5.8167953E-2,2.702512E-1,2.99E-1,2.7096656E-1,-0E0,2.4171616E-3,3.28E-1,3.5887083E-1,4.1483384E-1,2.2732234E-1,5.582121E-1,1.9741772E-1,1.353698E-1,-0E0,3.0178553E-1,2.00001E0,1.6562173E-1,-2.3078723E-2,2.4930908E-1,-1.6177958E-2,2.867036E-1,2.684401E-1,2.5022826E-1,4.1981923E-4,2.1434338E-1,4.7237584E-1,2.7572864E-1,1.8607143E-1,2.7096656E-1,1.8312767E-2,-8.718475E-2,2.180613E-1,2.3558876E-1,3.334603E-1,1.0735586E-2,3.5327676E-1,6.6643226E-1,2.2468132E-1,1.9128953E-1,2.2851034E-1,-1.6177958E-2,-1.6177958E-2,2.867036E-1,1.18755E-1,-8.1869446E-2,1.5082998E-2,2.9672068E-1,2.2570235E-1,2.2133203E-1,-3.5075985E-2,4.6745852E-1,4.9390402E-1,2.6472488E-1,5.4493076E-1,4.0370348E-1,5.590513E-3,3.159758E-1,2.9640085E-1,8.5718706E-2,1.9325234E-1,2.0433812E-1,3.5213116E-1,3.337975E-3,2.7978867E-1,9.354865E-2,3.452599E-1,-0E0,-0E0,1.2765883E-1,4.676942E-1,2.878378E-1,3.36448E-2,-2.023E-1,3.0646893E-1,2.812849E-1,2.3322244E-1,3.464792E-1,2.00001E0,3.340988E-1,4.6371526E-1,-1.6177958E-2,4.5669433E-2,-4.6778698E-2,3.8873717E-1,-2.1319812E-2,-1.0637355E-1,5.5905756E-2,2.867036E-1,-0E0,-5.904311E-2,2.2084327E-1,1.0239714E-1,-9.8921075E-2,3.345178E-1,2.1501657E-2,1.1983692E-1,2.6588035E-1,1.5229183E-1,-4.3324262E-2,-1.6819876E-2,2.1038258E-1,-3.415731E-2,6.069081E-2,2.9931906E-1,-0E0,-9.5104754E-2,1.83069E-1,2.535797E-1,-0E0,-5.7446547E-2,2.8753904E-1,-0E0,2.5961074E-1,2.7648637E-1,-9.143562E-3,-1.6177958E-2,2.2180896E-1,-1.0160667E-1,5.1781446E-2,-1.2962745E-1,-0E0,5.746582E-2,-5.5482E-2,-8.340187E-2,1.8923418E-1,-6.639411E-3,1.7209728E-1,1.8385885E-2,-1.20380126E-1,-9.325719E-2,1.375107E-1,-9.265798E-2,1.1765825E-1,-4.872408E-2,2.403787E-1,-1.6177958E-2,3.4983373E-1,-0E0,2.7096656E-1,-3.5075985E-2,3.6245605E-1],"split_indices":[1642,5008,2734,2569,3843,0,4717,389,5012,5000,5008,0,2556,2000,389,5000,4255,4933,5002,4458,5009,2965,0,4238,5001,0,0,5009,5002,1149,4255,989,5008,5007,5010,0,2482,5000,1780,0,2569,0,0,2467,1634,5011,3888,1867,4708,1620,0,5009,0,202,1914,1780,5012,3814,4708,5007,5010,3007,0,0,0,0,0,5012,4370,1819,0,0,5002,1029,2482,3843,3888,5012,1697,1520,5009,332,0,1203,0,4512,5007,0,0,0,5011,3105,2549,5012,5004,1520,1520,4370,2556,2965,534,3049,0,5009,0,1520,0,0,0,0,0,0,0,0,0,0,0,0,0,0,0,0,0,0,0,0,0,0,0,0,0,0,0,0,0,0,0,0,0,0,0,0,0,0,0,0,0,0,0,0,0,0,0,0,0,0,0,0,0,0,0,0,0],"split_type":[0,0,0,0,0,0,0,0,0,0,0,0,0,0,0,0,0,0,0,0,0,0,0,0,0,0,0,0,0,0,0,0,0,0,0,0,0,0,0,0,0,0,0,0,0,0,0,0,0,0,0,0,0,0,0,0,0,0,0,0,0,0,0,0,0,0,0,0,0,0,0,0,0,0,0,0,0,0,0,0,0,0,0,0,0,0,0,0,0,0,0,0,0,0,0,0,0,0,0,0,0,0,0,0,0,0,0,0,0,0,0,0,0,0,0,0,0,0,0,0,0,0,0,0,0,0,0,0,0,0,0,0,0,0,0,0,0,0,0,0,0,0,0,0,0,0,0,0,0,0,0,0,0,0,0,0,0,0,0,0,0,0,0],"sum_hessian":[1.5262875E4,1.497375E4,2.89125E2,5.770875E3,9.202875E3,5.625E0,2.835E2,4.5225E2,5.318625E3,9.14025E3,6.2625E1,6E0,2.775E2,4.485E2,3.75E0,4.98675E3,3.31875E2,6.727875E3,2.412375E3,4.9125E1,1.35E1,2.7225E2,5.25E0,4.125E0,4.44375E2,2.25E0,1.5E0,3.37125E3,1.6155E3,3.07125E2,2.475E1,6.672E3,5.5875E1,1.488E3,9.24375E2,2.25E0,4.6875E1,4.125E0,9.375E0,5.25E0,2.67E2,1.5E0,2.625E0,4.3875E2,5.625E0,4.29375E2,2.941875E3,7.5525E2,8.6025E2,3.04875E2,2.25E0,2.025E1,4.5E0,6.654E3,1.8E1,4.275E1,1.3125E1,1.113E3,3.75E2,6.525E2,2.71875E2,4.5375E1,1.5E0,1.5E0,2.625E0,1.5E0,7.875E0,7.875E0,2.59125E2,4.3725E2,1.5E0,1.875E0,3.75E0,1.00125E2,3.2925E2,2.81775E3,1.24125E2,6.2625E1,6.92625E2,8.3475E2,2.55E1,3.015E2,3.375E0,1.125E1,9E0,6.621375E3,3.2625E1,1.6875E1,1.125E0,3.375E0,3.9375E1,5.25E0,7.875E0,1.7775E2,9.3525E2,3E1,3.45E2,5.5875E2,9.375E1,2.0775E2,6.4125E1,4.3875E1,1.5E0,3.375E0,4.5E0,2.5575E2,3.375E0,4.30875E2,6.375E0,2.625E0,1.125E0,2.625E0,9.75E1,3.1725E2,1.2E1,2.625E1,2.7915E3,7.575E1,4.8375E1,1.3875E1,4.875E1,3.4125E1,6.585E2,1.41E2,6.9375E2,2.2875E1,2.625E0,2.985E2,3E0,1.0125E1,1.125E0,6.6045E3,1.6875E1,6.375E0,2.625E1,3.6375E1,3E0,1.5E0,3.75E0,6.75E0,1.125E0,1.69125E2,8.625E0,6.1875E1,8.73375E2,4.125E0,2.5875E1,3.28125E2,1.6875E1,5.26125E2,3.2625E1,5.25E0,8.85E1,1.5E1,1.9275E2,2.25E0,6.1875E1,1.5E0,4.2375E1,1.125E0,2.25E0,1.875E0,2.53875E2],"tree_param":{"num_deleted":"0","num_feature":"5013","num_nodes":"163","size_leaf_vector":"1"}},{"base_weights":[-3.0049086E-3,1.1469609E0,-2.442828E-2,1.0419911E0,3.7737373E-1,1.0494152E0,-4.6601634E-2,-9.5731124E-2,1.081963E0,5.7330054E-1,1.5507131E0,-8.367501E-2,2.1601133E-1,-9.5731124E-2,1.1238496E0,6.977223E-1,-4.222902E-1,3.9389646E-1,1.2670906E0,-9.076312E-2,1.4445814E0,2.8508863E-1,-5.4577947E-1,-9.04348E-2,1.1618091E0,5.5755794E-1,1.471492E0,5.1781446E-2,-1.062603E-1,-5.904311E-2,1.3253866E0,-1.0140344E-1,5.386074E-1,3.7842175E-1,7.4934214E-2,2.2335036E-1,9.633838E-1,2.4104415E-1,-5.9090847E-1,1.2050006E0,-2.0626608E-1,6.5054774E-2,7.0333487E-1,-0E0,1.5967765E0,-3.5075985E-2,1.369226E0,-1.0745457E-1,9.242888E-1,1.0728304E-1,7.9466903E-1,-6.0181707E-2,1.1820778E0,7.795277E-1,1.5032999E-1,-7.677385E-2,1.0446714E0,1.787854E-1,-6.1087954E-1,-8.340187E-2,1.2401824E0,-9.325719E-2,5.1781446E-2,2.7096656E-1,-3.3526257E-2,-6.690845E-2,7.877056E-1,1.779242E0,-0E0,1.4218354E0,-0E0,-9.072494E-2,-4.132435E-1,1.667531E0,8.231381E-2,-4.8914325E-1,2.861747E-1,2.8621626E-1,1.1786072E0,2.990193E-1,-0E0,9.026518E-1,-0E0,1.5967765E0,1.28835E-1,1.0975811E0,-0E0,1.787854E-1,-1.2623218E-1,-7.894345E-2,2.546667E-1,2.2133203E-1,-3.0559162E-2,5.7325732E-2,2.1232724E-1,3.779865E-1,-0E0,-1.6177958E-2,2.9209515E-1,1.0675403E-1,-1.9811502E-2,-8.529151E-2,1.5993525E-1,-1.6177958E-2,3.525222E-1,-4.0770635E-2,1.4799824E-1,-1.1955189E-1,5.1781446E-2,1.490118E-1,-0E0,1.05851665E-1,-8.828422E-2,-5.904311E-2,2.4930397E-1,1.9093381E-1,-9.04348E-2,2.2133203E-1,-1.880382E-2,-0E0,3.4753132E-1,2.1889333E-1,1.9573133E-2,-0E0,2.3185697E-1,-4.6778698E-2,1.228049E-1],"categories":[],"categories_nodes":[],"categories_segments":[],"categories_sizes":[],"default_left":[0,1,0,0,0,0,1,0,0,0,0,1,1,0,0,0,0,0,0,1,0,1,0,0,1,0,0,0,0,0,0,1,0,0,0,0,0,0,0,0,0,0,0,0,1,0,1,1,0,0,0,0,0,0,0,0,0,0,0,0,0,0,0,0,0,0,1,1,0,0,0,0,1,0,0,1,0,0,0,0,0,1,0,0,0,0,0,0,0,0,0,0,0,0,0,0,0,0,0,0,0,0,0,0,0,0,0,0,0,0,0,0,0,0,0,0,0,0,0,0,0,0,0,0,0,0,0],"id":2,"left_children":[1,3,5,7,-1,9,11,-1,13,15,17,19,21,-1,23,25,27,-1,29,31,33,35,37,-1,39,41,43,-1,-1,-1,45,47,49,-1,51,53,55,-1,57,59,61,63,65,-1,67,-1,69,71,73,75,77,-1,79,81,83,-1,85,-1,87,-1,89,-1,-1,-1,91,-1,93,95,-1,97,-1,99,101,103,105,107,109,111,113,-1,-1,115,117,119,121,123,125,-1,-1,-1,-1,-1,-1,-1,-1,-1,-1,-1,-1,-1,-1,-1,-1,-1,-1,-1,-1,-1,-1,-1,-1,-1,-1,-1,-1,-1,-1,-1,-1,-1,-1,-1,-1,-1,-1,-1,-1],"loss_changes":[3.7544766E2,1.829483E1,3.563219E2,1.5698242E1,0E0,7.0058105E1,1.4298663E2,0E0,1.6503357E1,1.9790894E1,1.3530823E1,1.384632E2,9.538385E1,0E0,1.4882385E1,1.3140877E1,1.5499587E0,0E0,9.213196E0,8.553195E1,3.441294E1,6.8663025E1,1.1661919E1,0E0,1.4540558E1,7.9799843E0,4.9445534E0,0E0,0E0,0E0,6.8424377E0,7.7634735E1,2.261087E1,0E0,7.330998E0,6.124299E1,1.5817116E1,0E0,4.368515E0,1.3684296E1,1.0544517E0,4.8619184E0,8.519093E0,0E0,4.704357E0,0E0,7.2036743E0,6.3706528E1,4.427217E1,8.5023155E0,2.432418E1,0E0,1.3189416E0,1.6887405E1,4.052296E1,0E0,6.668503E0,0E0,4.486744E0,0E0,1.2859985E1,0E0,0E0,0E0,2.9545078E0,0E0,1.0473534E1,2.8656845E0,0E0,6.009903E0,0E0,6.1539803E1,1.0220085E1,7.851715E0,7.167742E0,1.7931271E0,7.959759E0,1.0471479E1,8.3684845E0,0E0,0E0,1.1325943E1,2.590724E0,5.622303E0,3.885048E1,8.675842E0,1.2886597E0,0E0,0E0,0E0,0E0,0E0,0E0,0E0,0E0,0E0,0E0,0E0,0E0,0E0,0E0,0E0,0E0,0E0,0E0,0E0,0E0,0E0,0E0,0E0,0E0,0E0,0E0,0E0,0E0,0E0,0E0,0E0,0E0,0E0,0E0,0E0,0E0,0E0,0E0,0E0,0E0],"parents":[2147483647,0,0,1,1,2,2,3,3,5,5,6,6,8,8,9,9,10,10,11,11,12,12,14,14,15,15,16,16,18,18,19,19,20,20,21,21,22,22,24,24,25,25,26,26,30,30,31,31,32,32,34,34,35,35,36,36,38,38,39,39,40,40,41,41,42,42,44,44,46,46,47,47,48,48,49,49,50,50,52,52,53,53,54,54,56,56,58,58,60,60,64,64,66,66,67,67,69,69,71,71,72,72,73,73,74,74,75,75,76,76,77,77,78,78,81,81,82,82,83,83,84,84,85,85,86,86],"right_children":[2,4,6,8,-1,10,12,-1,14,16,18,20,22,-1,24,26,28,-1,30,32,34,36,38,-1,40,42,44,-1,-1,-1,46,48,50,-1,52,54,56,-1,58,60,62,64,66,-1,68,-1,70,72,74,76,78,-1,80,82,84,-1,86,-1,88,-1,90,-1,-1,-1,92,-1,94,96,-1,98,-1,100,102,104,106,108,110,112,114,-1,-1,116,118,120,122,124,126,-1,-1,-1,-1,-1,-1,-1,-1,-1,-1,-1,-1,-1,-1,-1,-1,-1,-1,-1,-1,-1,-1,-1,-1,-1,-1,-1,-1,-1,-1,-1,-1,-1,-1,-1,-1,-1,-1,-1,-1],"split_conditions":[6.423079E-1,1.8221061E-1,3.0118826E-1,3.5190108E-1,3.7737373E-1,4.7095722E-1,5.82E-1,-9.5731124E-2,4.5687416E-1,4.120902E-1,3.8770425E-1,3.2768792E-1,1.1796178E-1,-9.5731124E-2,2.5542414E-1,1.3157287E-1,4.3777436E-1,3.9389646E-1,2.4411786E-1,2.3502217E-1,6.9E1,1.6116866E-1,1.3816208E-1,-9.04348E-2,2.4409148E-1,2.0841403E-1,4.4116372E-1,5.1781446E-2,-1.062603E-1,-5.904311E-2,3.873177E-1,2.7108043E-1,1.1582308E-1,3.7842175E-1,1.818591E-2,3.3134243E-1,3.3212814E-1,2.4104415E-1,3.9828107E-1,3.548476E-1,9.908251E-2,3.884029E-1,2.852649E-1,-0E0,1.3364227E-1,-3.5075985E-2,1.3252842E-1,8.853673E-2,5.2E1,3.219902E-1,3.6112586E-1,-6.0181707E-2,4.20814E-1,9.472314E-2,3.0275336E-1,-7.677385E-2,4.4924685E-1,1.787854E-1,3.681917E-1,-8.340187E-2,3.4516385E-1,-9.325719E-2,5.1781446E-2,2.7096656E-1,2.2980352E-1,-6.690845E-2,5.88E-1,2.903768E-1,-0E0,4.8639375E-1,-0E0,5.489974E-1,2.6441056E-1,1.1159222E0,1.2274659E-1,4.3859223E-1,3.154027E-1,4.519444E-1,2.9872426E-1,2.990193E-1,-0E0,1.5566023E-1,1.4233148E-1,2.742651E-1,3.980417E-1,3.955405E-1,2.514933E-1,1.787854E-1,-1.2623218E-1,-7.894345E-2,2.546667E-1,2.2133203E-1,-3.0559162E-2,5.7325732E-2,2.1232724E-1,3.779865E-1,-0E0,-1.6177958E-2,2.9209515E-1,1.0675403E-1,-1.9811502E-2,-8.529151E-2,1.5993525E-1,-1.6177958E-2,3.525222E-1,-4.0770635E-2,1.4799824E-1,-1.1955189E-1,5.1781446E-2,1.490118E-1,-0E0,1.05851665E-1,-8.828422E-2,-5.904311E-2,2.4930397E-1,1.9093381E-1,-9.04348E-2,2.2133203E-1,-1.880382E-2,-0E0,3.4753132E-1,2.1889333E-1,1.9573133E-2,-0E0,2.3185697E-1,-4.6778698E-2,1.228049E-1],"split_indices":[2326,3824,138,1258,0,5008,5002,0,3620,5010,3226,31,1604,0,4311,5009,1068,0,4404,1091,5006,1867,4953,0,685,5008,1136,0,0,0,1425,741,5011,0,5012,2734,1258,0,542,4246,5011,3085,4668,0,2503,0,2556,1747,5006,3226,5008,0,5008,5009,2907,0,5010,0,2415,0,1105,0,0,0,4794,0,5002,661,0,423,0,4781,4777,1584,5011,236,3532,1091,4153,0,0,3769,1867,1051,843,5001,1867,0,0,0,0,0,0,0,0,0,0,0,0,0,0,0,0,0,0,0,0,0,0,0,0,0,0,0,0,0,0,0,0,0,0,0,0,0,0,0,0],"split_type":[0,0,0,0,0,0,0,0,0,0,0,0,0,0,0,0,0,0,0,0,0,0,0,0,0,0,0,0,0,0,0,0,0,0,0,0,0,0,0,0,0,0,0,0,0,0,0,0,0,0,0,0,0,0,0,0,0,0,0,0,0,0,0,0,0,0,0,0,0,0,0,0,0,0,0,0,0,0,0,0,0,0,0,0,0,0,0,0,0,0,0,0,0,0,0,0,0,0,0,0,0,0,0,0,0,0,0,0,0,0,0,0,0,0,0,0,0,0,0,0,0,0,0,0,0,0,0],"sum_hessian":[1.5277125E4,2.7825E2,1.4998875E4,2.45625E2,3.2625E1,3.0225E2,1.4696625E4,5.625E0,2.4E2,1.56375E2,1.45875E2,1.2881625E4,1.815E3,5.625E0,2.34375E2,1.39875E2,1.65E1,5.6625E1,8.925E1,1.2823125E4,5.85E1,1.665375E3,1.49625E2,4.875E0,2.295E2,1.2E2,1.9875E1,1.125E0,1.5375E1,2.625E0,8.6625E1,1.2611625E4,2.115E2,4.35E1,1.5E1,1.528125E3,1.3725E2,3E0,1.46625E2,2.23125E2,6.375E0,2.8875E1,9.1125E1,1.125E0,1.875E1,1.875E0,8.475E1,1.2538875E4,7.275E1,8.025E1,1.3125E2,1.0875E1,4.125E0,1.755E2,1.352625E3,7.125E0,1.30125E2,1.125E0,1.455E2,4.125E0,2.19E2,5.25E0,1.125E0,2.25E0,2.6625E1,6E0,8.5125E1,1.65E1,2.25E0,8.2125E1,2.625E0,1.1891625E4,6.4725E2,3.7875E1,3.4875E1,1.725E1,6.3E1,5.775E1,7.35E1,3E0,1.125E0,1.515E2,2.4E1,1.875E1,1.333875E3,1.23375E2,6.75E0,1.125E0,1.44375E2,3.75E0,2.1525E2,1.5E0,2.5125E1,3.15E1,5.3625E1,1.5375E1,1.125E0,1.5E0,8.0625E1,1.54875E2,1.173675E4,6.4125E2,6E0,1.5E0,3.6375E1,2.3625E1,1.125E1,1.6125E1,1.125E0,2.325E1,3.975E1,4.425E1,1.35E1,2.625E0,7.0875E1,1.46625E2,4.875E0,1.5E0,2.25E1,1.125E0,1.7625E1,4.0125E1,1.29375E3,6.375E0,1.17E2,4.5E0,2.25E0],"tree_param":{"num_deleted":"0","num_feature":"5013","num_nodes":"127","size_leaf_vector":"1"}},{"base_weights":[-3.7837615E-3,1.8507999E-1,-1.73671E-1,1.5105465E-1,9.6094704E-1,-1.8318444E-1,1.2858704E0,1.3051358E-1,1.1495702E0,8.2474524E-1,1.4288017E0,-2.0088708E-1,4.8711422E-1,-0E0,1.4211702E0,9.9912725E-2,7.2034234E-1,-0E0,1.2122856E0,4.9417382E-1,1.0929136E0,-0E0,1.4650974E0,-8.749737E-2,-2.7648753E-1,3.735042E-1,1.1108226E0,1.787854E-1,-3.9683674E-2,-0E0,1.5198631E0,8.28746E-2,1.2074156E0,3.6069044E-1,6.6935426E-1,2.2133203E-1,-9.325719E-2,1.2504979E0,-5.904311E-2,3.2383648E-1,4.0372875E-1,-4.6778698E-2,1.1486151E0,-0E0,1.5026727E0,-1.0268838E-1,8.352581E-1,-2.9155245E-1,3.9385948E-1,3.3888182E-1,3.230366E-1,-6.711871E-2,1.3077761E0,-0E0,1.6155827E0,6.805074E-2,1.2851195E0,1.2829227E0,-7.894345E-2,6.1253476E-1,1.4059702E0,1.2881858E0,-9.143562E-3,1.2595229E-1,5.739064E-1,1.193548E0,-6.711871E-2,-0E0,3.083193E-1,-1.1759408E-1,8.461175E-1,-5.904311E-2,9.1923195E-1,-2.96155E-1,2.9859748E-1,1.0659251E0,1.02778226E-1,4.970345E-1,1.0489916E-2,-1.6177958E-2,1.4235803E0,-0E0,1.6800535E0,5.538171E-2,1.0025071E0,1.3647034E0,-6.711871E-2,-6.711871E-2,1.3478551E0,6.505524E-1,-7.39065E-2,-1.6177958E-2,1.5618095E0,1.3176975E0,-3.5075985E-2,8.7093556E-1,1.7680634E-2,6.6416013E-1,-8.340187E-2,1.2407616E0,-6.711871E-2,-1.247167E-1,1.5388027E0,-8.340187E-2,9.931204E-1,-4.872408E-2,9.990595E-1,1.3588446E0,-3.007191E-1,1.267176E0,-0E0,2.970171E-1,-0E0,5.0829865E-2,7.722541E-1,-3.3764148E-1,3.683776E-1,-0E0,1.5197582E0,3.444865E-1,-0E0,9.765253E-3,3.2957196E-1,3.568041E-1,1.556047E-1,1.6308232E-1,3.1548342E-1,7.962074E-2,2.9408965E-1,-7.677385E-2,1.3607965E-1,-0E0,3.3899742E-1,-3.5075985E-2,2.696228E-1,-0E0,2.7096656E-1,-6.679192E-2,4.490294E-2,-5.904311E-2,1.4575273E-1,2.580869E-1,-6.711871E-2,1.1877668E-2,-3.64813E-2,3.3391833E-1,-0E0,-3.5075985E-2,2.1396415E-1,-1.6177958E-2,2.1137951E-1,3.1339E-1,-0E0,-6.820044E-2,-2.9431874E-2,-3.5075985E-2,2.840343E-1,2.970171E-1,-2.698034E-2,3.0892E-1,-1.4882833E-2,-4.89058E-3,1.735638E-1,-8.33443E-2,4.872408E-2,3.0892E-1,3.563219E-2,-0E0,3.164682E-1],"categories":[],"categories_nodes":[],"categories_segments":[],"categories_sizes":[],"default_left":[0,1,1,1,0,1,0,1,0,1,0,0,1,0,0,1,0,0,1,0,0,0,0,1,1,0,0,0,0,0,0,1,1,0,1,0,0,1,0,0,0,0,1,0,0,1,0,1,1,0,0,0,0,0,0,1,1,0,0,1,0,1,0,0,1,1,0,0,0,1,0,0,0,0,0,0,0,0,1,0,0,0,1,1,0,1,0,0,0,0,0,0,0,0,0,0,0,0,0,1,0,1,1,0,0,0,0,0,0,0,0,0,0,0,0,0,0,0,0,0,0,0,0,0,0,0,0,0,0,0,0,0,0,0,0,0,0,0,0,0,0,0,0,0,0,0,0,0,0,0,0,0,0,0,0,0,0,0,0,0,0,0,0,0,0,0,0,0,0],"id":3,"left_children":[1,3,5,7,9,11,13,15,17,19,21,23,25,27,29,31,33,35,37,39,41,-1,43,45,47,49,51,-1,-1,-1,53,55,57,-1,59,-1,-1,61,-1,-1,63,-1,65,-1,67,69,71,73,75,-1,77,-1,79,-1,81,83,85,87,-1,89,91,93,-1,95,97,99,-1,-1,-1,101,103,-1,105,107,-1,109,111,113,115,-1,117,-1,119,121,123,125,-1,-1,127,129,-1,-1,131,133,-1,135,137,139,-1,141,-1,143,145,-1,147,-1,149,151,153,155,-1,-1,157,159,161,163,165,-1,167,-1,-1,-1,-1,-1,-1,-1,-1,-1,-1,-1,-1,-1,-1,-1,-1,-1,-1,-1,-1,-1,-1,-1,-1,-1,-1,-1,-1,-1,-1,-1,-1,-1,-1,-1,-1,-1,-1,-1,-1,-1,-1,-1,-1,-1,-1,-1,-1,-1,-1],"loss_changes":[4.8893076E2,1.8944008E2,1.10602066E2,1.4063266E2,1.6812927E1,9.441937E1,8.24054E0,1.215506E2,1.0587784E1,1.937024E1,4.5254364E0,6.629007E1,1.3023811E1,1.438502E0,6.4799576E0,1.2043101E2,1.57478485E1,3.6271126E0,8.557251E0,8.998892E0,1.0402847E1,0E0,4.7025757E0,4.306287E1,4.6997223E1,9.683882E0,9.583843E0,0E0,0E0,0E0,7.092514E0,1.11915665E2,1.2688995E1,0E0,1.1272339E1,0E0,0E0,7.3785095E0,0E0,0E0,4.1677666E0,0E0,9.185638E0,0E0,4.889282E0,4.2766914E1,5.3537903E0,3.661383E1,1.8788074E1,0E0,8.771673E0,0E0,5.5366974E0,0E0,5.525284E0,7.330879E1,1.0949585E1,1.08376465E1,0E0,1.1478371E1,6.2743225E0,6.511566E0,0E0,2.547637E0,5.772526E0,9.69986E0,0E0,0E0,0E0,3.450215E1,9.319664E0,0E0,5.104E0,3.3626923E1,0E0,7.3215256E0,1.0982282E1,1.2422964E1,7.8937125E0,0E0,4.6414375E0,0E0,2.4048767E0,6.312541E1,1.177021E1,6.0026703E0,0E0,0E0,8.650543E0,9.261017E0,0E0,0E0,5.4207497E0,6.7345276E0,0E0,1.769958E0,2.6471205E0,3.9761276E0,0E0,1.0254272E1,0E0,3.2035954E1,2.0882206E0,0E0,4.642296E0,0E0,3.6525688E0,4.5897427E0,2.7611877E1,6.8049545E0,0E0,0E0,1.2877849E1,9.231756E0,5.6649895E0,1.6083581E0,5.657425E0,0E0,1.9298477E0,0E0,0E0,0E0,0E0,0E0,0E0,0E0,0E0,0E0,0E0,0E0,0E0,0E0,0E0,0E0,0E0,0E0,0E0,0E0,0E0,0E0,0E0,0E0,0E0,0E0,0E0,0E0,0E0,0E0,0E0,0E0,0E0,0E0,0E0,0E0,0E0,0E0,0E0,0E0,0E0,0E0,0E0,0E0,0E0,0E0,0E0,0E0,0E0,0E0,0E0],"parents":[2147483647,0,0,1,1,2,2,3,3,4,4,5,5,6,6,7,7,8,8,9,9,10,10,11,11,12,12,13,13,14,14,15,15,16,16,17,17,18,18,19,19,20,20,22,22,23,23,24,24,25,25,26,26,30,30,31,31,32,32,34,34,37,37,40,40,42,42,44,44,45,45,46,46,47,47,48,48,50,50,52,52,54,54,55,55,56,56,57,57,59,59,60,60,61,61,63,63,64,64,65,65,69,69,70,70,72,72,73,73,75,75,76,76,77,77,78,78,80,80,82,82,83,83,84,84,85,85,88,88,89,89,92,92,93,93,95,95,96,96,97,97,99,99,101,101,102,102,104,104,106,106,107,107,108,108,109,109,112,112,113,113,114,114,115,115,116,116,118,118],"right_children":[2,4,6,8,10,12,14,16,18,20,22,24,26,28,30,32,34,36,38,40,42,-1,44,46,48,50,52,-1,-1,-1,54,56,58,-1,60,-1,-1,62,-1,-1,64,-1,66,-1,68,70,72,74,76,-1,78,-1,80,-1,82,84,86,88,-1,90,92,94,-1,96,98,100,-1,-1,-1,102,104,-1,106,108,-1,110,112,114,116,-1,118,-1,120,122,124,126,-1,-1,128,130,-1,-1,132,134,-1,136,138,140,-1,142,-1,144,146,-1,148,-1,150,152,154,156,-1,-1,158,160,162,164,166,-1,168,-1,-1,-1,-1,-1,-1,-1,-1,-1,-1,-1,-1,-1,-1,-1,-1,-1,-1,-1,-1,-1,-1,-1,-1,-1,-1,-1,-1,-1,-1,-1,-1,-1,-1,-1,-1,-1,-1,-1,-1,-1,-1,-1,-1,-1,-1,-1,-1,-1,-1],"split_conditions":[1.12815514E-1,2.3581526E-1,1.9656134E-1,2.2526872E-1,5.094373E-1,1.5894073E-1,2.509391E-1,1.8398339E-1,3.765806E-1,6.9E1,7.206872E-1,1.521533E-1,1.7654867E-1,2.750658E-1,9.511923E-4,1.2643865E-1,1.5485419E0,4.318232E-1,3.2291052E-1,3.234819E-1,4.92377E-1,-0E0,7.6176196E-1,1.6926412E-1,1.7288843E-1,3.0655754E-1,7.7809505E-2,1.787854E-1,-3.9683674E-2,-0E0,4.9474543E-1,2.516761E-1,1.6623561E-1,3.6069044E-1,1.7620526E-1,2.2133203E-1,-9.325719E-2,2.707588E-1,-5.904311E-2,3.2383648E-1,1.5924878E-2,-4.6778698E-2,2.4889642E-1,-0E0,9.687921E-2,2.3790452E-1,2.2933264E-1,2.6920837E-1,1.6346987E-1,3.3888182E-1,1.5931822E-1,-6.711871E-2,4.8702246E-1,-0E0,2.1571176E-1,2.8927138E-1,2.8562924E-1,4.6156675E-1,-7.894345E-2,2.9879308E-1,2.9134548E-1,2.9070616E-1,-9.143562E-3,1.8993221E-2,2.8788212E-1,2.8443477E-1,-6.711871E-2,-0E0,3.083193E-1,2.8278133E-1,4.1392803E-1,-5.904311E-2,5.8004504E-1,8.8140464E-1,2.9859748E-1,9.583504E-1,4.7692835E-1,2.5131598E-1,8.3E1,-1.6177958E-2,3.6481485E-1,-0E0,2.1088901E-1,3.456284E-1,3.0616457E-3,2.3051687E-1,-6.711871E-2,-6.711871E-2,3.0489516E-1,3.0801588E-1,-7.39065E-2,-1.6177958E-2,4.1877642E-1,3.5883835E-1,-3.5075985E-2,2.4171616E-3,3.261116E-1,4.6111748E-1,-8.340187E-2,2.4358876E-1,-6.711871E-2,3.6E1,4.0098223E-1,-8.340187E-2,7.466278E-1,-4.872408E-2,4.1965634E-1,2E2,7.243084E-2,2.3357287E-1,-0E0,2.970171E-1,2.1399654E-1,3.5263675E-1,6.5408206E-1,8.041716E-1,2.2569315E-1,-0E0,4.2412597E-1,3.444865E-1,-0E0,9.765253E-3,3.2957196E-1,3.568041E-1,1.556047E-1,1.6308232E-1,3.1548342E-1,7.962074E-2,2.9408965E-1,-7.677385E-2,1.3607965E-1,-0E0,3.3899742E-1,-3.5075985E-2,2.696228E-1,-0E0,2.7096656E-1,-6.679192E-2,4.490294E-2,-5.904311E-2,1.4575273E-1,2.580869E-1,-6.711871E-2,1.1877668E-2,-3.64813E-2,3.3391833E-1,-0E0,-3.5075985E-2,2.1396415E-1,-1.6177958E-2,2.1137951E-1,3.1339E-1,-0E0,-6.820044E-2,-2.9431874E-2,-3.5075985E-2,2.840343E-1,2.970171E-1,-2.698034E-2,3.0892E-1,-1.4882833E-2,-4.89058E-3,1.735638E-1,-8.33443E-2,4.872408E-2,3.0892E-1,3.563219E-2,-0E0,3.164682E-1],"split_indices":[5010,2569,257,1757,2569,422,4794,1862,2522,5006,1465,5010,1780,4502,5009,257,518,1430,189,1780,4902,0,1862,1862,830,4780,5009,0,0,0,2902,4768,4396,0,2503,0,0,848,0,0,5010,0,1819,0,3501,4768,1586,1412,468,0,5010,0,4939,0,3501,1480,3942,2899,0,2815,958,326,0,5009,2395,1931,0,0,0,1757,3007,0,374,1262,0,5010,1480,422,5006,0,958,0,4939,2235,5010,649,0,0,2503,1871,0,0,3236,2320,0,5009,2569,1862,0,3007,0,5006,1697,0,866,0,649,5006,5009,3130,0,0,2569,793,5004,5010,1747,0,1859,0,0,0,0,0,0,0,0,0,0,0,0,0,0,0,0,0,0,0,0,0,0,0,0,0,0,0,0,0,0,0,0,0,0,0,0,0,0,0,0,0,0,0,0,0,0,0,0,0,0],"split_type":[0,0,0,0,0,0,0,0,0,0,0,0,0,0,0,0,0,0,0,0,0,0,0,0,0,0,0,0,0,0,0,0,0,0,0,0,0,0,0,0,0,0,0,0,0,0,0,0,0,0,0,0,0,0,0,0,0,0,0,0,0,0,0,0,0,0,0,0,0,0,0,0,0,0,0,0,0,0,0,0,0,0,0,0,0,0,0,0,0,0,0,0,0,0,0,0,0,0,0,0,0,0,0,0,0,0,0,0,0,0,0,0,0,0,0,0,0,0,0,0,0,0,0,0,0,0,0,0,0,0,0,0,0,0,0,0,0,0,0,0,0,0,0,0,0,0,0,0,0,0,0,0,0,0,0,0,0,0,0,0,0,0,0,0,0,0,0,0,0],"sum_hessian":[1.523775E4,7.2135E3,8.02425E3,6.912E3,3.015E2,7.97325E3,5.1E1,6.774E3,1.38E2,2.35875E2,6.5625E1,7.769625E3,2.03625E2,5.25E0,4.575E1,6.44175E3,3.3225E2,6.75E0,1.3125E2,1.07625E2,1.2825E2,1.125E0,6.45E1,3.112875E3,4.65675E3,1.74E2,2.9625E1,1.125E0,4.125E0,3E0,4.275E1,6.345375E3,9.6375E1,1.35E1,3.1875E2,1.5E0,5.25E0,1.28625E2,2.625E0,6.75E0,1.00875E2,4.5E0,1.2375E2,1.125E0,6.3375E1,3.06375E3,4.9125E1,4.555875E3,1.00875E2,5.25E0,1.6875E2,3E0,2.6625E1,2.25E0,4.05E1,6.26925E3,7.6125E1,9.2625E1,3.75E0,2.9775E2,2.1E1,1.25625E2,3E0,4.05E1,6.0375E1,1.2075E2,3E0,1.125E0,6.225E1,3.017625E3,4.6125E1,2.625E0,4.65E1,4.545E3,1.0875E1,2.925E1,7.1625E1,1.065E2,6.225E1,1.5E0,2.5125E1,1.125E0,3.9375E1,6.18675E3,8.25E1,7.3125E1,3E0,3E0,8.9625E1,2.87625E2,1.0125E1,1.5E0,1.95E1,1.2375E2,1.875E0,3.75E0,3.675E1,5.625E1,4.125E0,1.1775E2,3E0,3.005625E3,1.2E1,4.125E0,4.2E1,2.25E0,4.425E1,1.1625E1,4.533375E3,2.5125E1,4.125E0,4.875E0,6.675E1,4.2E1,6.45E1,3.0375E1,3.1875E1,1.125E0,2.4E1,3.825E1,1.125E0,6.162375E3,2.4375E1,1.6875E1,6.5625E1,2.2125E1,5.1E1,1.125E1,7.8375E1,7.125E0,2.805E2,1.125E0,1.8375E1,1.875E0,1.21875E2,1.5E0,2.25E0,1.2E1,2.475E1,2.625E0,5.3625E1,1.1475E2,3E0,7.13625E2,2.292E3,1.0875E1,1.125E0,1.875E0,4.0125E1,1.5E0,4.275E1,1.05E1,1.125E0,3.5865E3,9.46875E2,1.875E0,2.325E1,4.875E0,6.1875E1,3.375E0,3.8625E1,6E0,5.85E1,2.8125E1,2.25E0,3.375E0,2.85E1,1.125E0,2.2875E1],"tree_param":{"num_deleted":"0","num_feature":"5013","num_nodes":"169","size_leaf_vector":"1"}},{"base_weights":[1.586635E-3,-1.8644916E-2,1.049405E0,5.4332156E-2,-2.1395598E-1,2.9223788E-1,6.5810645E-1,-1.2648182E-1,7.0969306E-2,1.2150923E0,-2.52699E-1,5.6641966E-1,2.9784223E-1,1.0517962E-1,-2.0736246E-1,-7.665532E-2,1.3109927E0,3.6768252E-1,-2.993068E-1,6.1311144E-1,-9.298282E-2,-1.2853156E-1,1.19732484E-1,4.9364462E-1,-2.3682366E-1,1.9671081E-1,-9.335031E-2,-4.572904E-3,1.3597769E0,4.4469246E-1,-2.5862285E-1,3.515764E-1,-3.474968E-1,1.3691621E0,5.399709E-1,1.3525666E-1,-4.3327963E-1,2.9708734E-1,2.4083707E-1,-2.5474122E-1,7.2851133E-1,-3.0140087E-2,1.3978841E0,3.3646187E-1,4.0000266E-1,2.4545422E-1,-4.7449347E-1,4.5958525E-1,-3.0581528E-1,3.8815543E-1,-3.557917E-1,3.08197E-1,-0E0,2.7863875E-1,4.615704E-1,7.861494E-1,1.22772224E-1,-4.6940136E-1,2.8616282E-1,2.7837956E-1,5.77824E-2,1.024493E0,-2.6615483E-1,9.8513746E-1,-6.84961E-2,-2.9497007E-2,1.4372394E0,1.2207395E0,3.4071124E-1,-1.1521744E-1,1.5278434E-2,3.1280681E-1,3.92174E-1,-4.3821132E-1,2.681712E-1,6.6160125E-1,-3.674462E-1,5.8992226E-2,5.888909E-1,-1.1918455E-1,1.8711881E-1,1.5145992E-1,2.2092348E-2,-1.00479044E-1,1.8237832E-1,2.6554355E-1,-2.3636736E-2,2.811113E-1,-0E0,-5.5423256E-2,2.1292269E-1,-1.2077702E-2,2.572515E-1,2.9402867E-1,-1.1365644E-2,-5.0151892E-2,3.1161112E-1,9.826475E-2,-9.1262115E-3,-3.738536E-2,1.6302033E-1,3.136548E-1,6.728115E-2,2.4303363E-1,-1.16776586E-1,6.3647054E-2,3.1861016E-1,5.5674773E-2,-7.717653E-2,1.1709219E-1,-5.1288463E-2,-6.640627E-2,1.2694244E-1],"categories":[],"categories_nodes":[],"categories_segments":[],"categories_sizes":[],"default_left":[1,1,0,0,0,0,1,0,1,0,0,1,0,0,0,0,0,0,0,0,0,0,1,0,1,0,0,0,0,0,0,1,0,1,0,0,1,0,0,0,0,0,0,0,0,0,0,0,1,0,0,0,0,0,0,0,0,1,0,0,0,0,1,0,0,0,1,0,0,0,0,0,0,0,0,0,0,0,0,0,0,0,0,0,0,0,0,0,0,0,0,0,0,0,0,0,0,0,0,0,0,0,0,0,0,0,0,0,0,0,0,0,0],"id":4,"left_children":[1,3,5,7,9,-1,11,-1,13,15,17,19,-1,21,23,25,27,29,31,33,-1,-1,35,37,39,-1,-1,-1,41,43,45,47,49,51,53,55,57,-1,59,61,63,-1,65,-1,67,-1,69,71,73,-1,75,-1,-1,-1,77,79,81,83,-1,-1,85,87,89,91,-1,-1,93,95,97,-1,99,-1,101,103,-1,105,107,109,111,-1,-1,-1,-1,-1,-1,-1,-1,-1,-1,-1,-1,-1,-1,-1,-1,-1,-1,-1,-1,-1,-1,-1,-1,-1,-1,-1,-1,-1,-1,-1,-1,-1,-1],"loss_changes":[3.2380518E2,2.1314404E2,4.4405853E1,1.23815956E2,2.2456743E2,0E0,9.337189E0,0E0,1.0105353E2,1.4325851E1,1.1454559E2,6.847584E0,0E0,1.02563156E2,2.3793106E1,2.750978E0,7.6556854E0,1.350983E1,1.15681274E2,5.358185E0,0E0,0E0,7.9463455E1,9.863029E0,1.896421E1,0E0,0E0,0E0,6.7409363E0,1.1601795E1,9.020871E0,1.8166828E1,6.41517E1,2.2332401E0,6.3165245E0,7.257362E1,1.6465935E1,0E0,6.68489E0,1.5479622E1,6.0723553E0,0E0,6.9843445E0,0E0,1.0156715E1,0E0,1.7893372E0,1.4359146E1,7.1107693E0,0E0,4.0438416E1,0E0,0E0,0E0,5.251463E0,3.535962E1,6.845871E1,1.1166733E1,0E0,0E0,8.602571E0,3.2353115E0,1.5323662E1,6.274542E0,0E0,0E0,5.830139E0,8.727617E0,1.3479315E1,0E0,1.1713108E0,0E0,1.1764114E1,7.761295E0,0E0,1.0347408E1,4.043637E1,5.2166705E0,3.9161968E0,0E0,0E0,0E0,0E0,0E0,0E0,0E0,0E0,0E0,0E0,0E0,0E0,0E0,0E0,0E0,0E0,0E0,0E0,0E0,0E0,0E0,0E0,0E0,0E0,0E0,0E0,0E0,0E0,0E0,0E0,0E0,0E0,0E0,0E0],"parents":[2147483647,0,0,1,1,2,2,3,3,4,4,6,6,8,8,9,9,10,10,11,11,13,13,14,14,15,15,16,16,17,17,18,18,19,19,22,22,23,23,24,24,28,28,29,29,30,30,31,31,32,32,33,33,34,34,35,35,36,36,38,38,39,39,40,40,42,42,44,44,46,46,47,47,48,48,50,50,54,54,55,55,56,56,57,57,60,60,61,61,62,62,63,63,66,66,67,67,68,68,70,70,72,72,73,73,75,75,76,76,77,77,78,78],"right_children":[2,4,6,8,10,-1,12,-1,14,16,18,20,-1,22,24,26,28,30,32,34,-1,-1,36,38,40,-1,-1,-1,42,44,46,48,50,52,54,56,58,-1,60,62,64,-1,66,-1,68,-1,70,72,74,-1,76,-1,-1,-1,78,80,82,84,-1,-1,86,88,90,92,-1,-1,94,96,98,-1,100,-1,102,104,-1,106,108,110,112,-1,-1,-1,-1,-1,-1,-1,-1,-1,-1,-1,-1,-1,-1,-1,-1,-1,-1,-1,-1,-1,-1,-1,-1,-1,-1,-1,-1,-1,-1,-1,-1,-1,-1],"split_conditions":[2.4169852E-1,9.5470536E-1,4.944354E-1,2.00001E0,2.8962946E-1,2.9223788E-1,2.875408E-1,-1.2648182E-1,7.9990685E-2,3.9122286E-1,5.325956E-1,1.4022826E-1,2.9784223E-1,2.00001E0,1.8221243E-1,1.1872642E0,2.502501E-1,8.011506E-1,3.393603E-1,2.516981E-1,-9.298282E-2,-1.2853156E-1,1.3095365E-1,2.3653328E-1,2.1108896E-1,1.9671081E-1,-9.335031E-2,-4.572904E-3,5.072013E-1,6.2952954E-1,4.4929528E-1,1.06740035E-1,8.2573223E-1,1.4028756E-1,1.6514745E0,3.299926E-1,2.7737775E-1,2.9708734E-1,8.846716E-3,3.3261958E-1,1.3641654E-1,-3.0140087E-2,2.640469E-1,3.3646187E-1,3.539988E-1,2.4545422E-1,5.6049302E-2,3.4369406E-1,3.0932453E-1,3.8815543E-1,6.047054E-1,3.08197E-1,-0E0,2.7863875E-1,4.054997E-1,6.7124885E-1,2.9305035E-1,1.4388233E-1,2.8616282E-1,2.7837956E-1,2.1730246E-1,4.9502128E-1,2.2715022E-1,1.4493925E-2,-6.84961E-2,-2.9497007E-2,2.4685638E-1,2.7246013E-1,7.5767696E-2,-1.1521744E-1,2.982558E-1,3.1280681E-1,4.2227277E-1,2.9586965E-1,2.681712E-1,6.4095676E-1,6.436203E-1,1.7613769E-2,5.7280636E-1,-1.1918455E-1,1.8711881E-1,1.5145992E-1,2.2092348E-2,-1.00479044E-1,1.8237832E-1,2.6554355E-1,-2.3636736E-2,2.811113E-1,-0E0,-5.5423256E-2,2.1292269E-1,-1.2077702E-2,2.572515E-1,2.9402867E-1,-1.1365644E-2,-5.0151892E-2,3.1161112E-1,9.826475E-2,-9.1262115E-3,-3.738536E-2,1.6302033E-1,3.136548E-1,6.728115E-2,2.4303363E-1,-1.16776586E-1,6.3647054E-2,3.1861016E-1,5.5674773E-2,-7.717653E-2,1.1709219E-1,-5.1288463E-2,-6.640627E-2,1.2694244E-1],"split_indices":[3230,5000,374,2326,1697,0,422,0,1780,1427,3071,326,0,1149,3147,282,4298,5008,1604,1604,0,0,3526,1871,2908,0,0,0,4356,4489,480,3226,436,2026,436,3392,4849,0,5009,1701,5009,0,728,0,1586,0,5009,2656,1195,0,1909,0,0,0,5008,2181,1914,3814,0,0,3565,5008,2877,5009,0,0,932,5008,5009,0,1780,0,2411,1835,0,5008,1697,5009,1604,0,0,0,0,0,0,0,0,0,0,0,0,0,0,0,0,0,0,0,0,0,0,0,0,0,0,0,0,0,0,0,0,0,0],"split_type":[0,0,0,0,0,0,0,0,0,0,0,0,0,0,0,0,0,0,0,0,0,0,0,0,0,0,0,0,0,0,0,0,0,0,0,0,0,0,0,0,0,0,0,0,0,0,0,0,0,0,0,0,0,0,0,0,0,0,0,0,0,0,0,0,0,0,0,0,0,0,0,0,0,0,0,0,0,0,0,0,0,0,0,0,0,0,0,0,0,0,0,0,0,0,0,0,0,0,0,0,0,0,0,0,0,0,0,0,0,0,0,0,0],"sum_hessian":[1.523274E4,1.4943838E4,2.8890164E2,1.0876061E4,4.0677773E3,1.39118E2,1.4978365E2,2.5566245E2,1.0620398E4,1.0643649E2,3.9613408E3,1.3649532E2,1.3288322E1,9.460853E3,1.1595464E3,6.755081E0,9.968141E1,2.7533093E2,3.68601E3,1.315392E2,4.956122E0,1.7911784E2,9.281734E3,4.532788E1,1.1142185E3,1.0521485E0,5.7029324E0,2.9163342E0,9.6765076E1,2.4649712E2,2.8833803E1,2.5269186E2,3.433318E3,9.883939E0,1.2165526E2,9.030104E3,2.516307E2,8.084983E0,3.7242897E1,1.095096E3,1.912245E1,1.8045723E0,9.49605E1,7.3594675E0,2.3913765E2,2.8953505E0,2.5938454E1,2.1825014E2,3.4441723E1,1.1655437E1,3.4216626E3,8.648418E0,1.2355206E0,8.699024E0,1.1295624E2,1.6814807E2,8.861955E3,2.4762076E2,4.0099564E0,4.0712514E0,3.3171646E1,8.67865E0,1.0864174E3,1.6089632E1,3.0328171E0,1.796071E0,9.316443E1,1.4561085E1,2.2457657E2,2.2841013E1,3.0974405E0,1.1261681E1,2.0698845E2,3.2657555E1,1.784167E0,3.7649662E1,3.384013E3,2.8888018E1,8.4068214E1,1.5726726E1,1.5242134E2,1.668387E2,8.695117E3,2.4271907E2,4.901682E0,4.2612615E0,2.8910385E1,6.0376053E0,2.6410446E0,1.0785227E3,7.8946815E0,3.0526927E0,1.303694E1,9.171553E1,1.4489005E0,2.271284E0,1.2289801E1,1.6306493E2,6.151164E1,1.9069047E0,1.1905359E0,8.134674E0,1.9885378E2,1.9087746E0,3.0748781E1,2.8610489E1,9.039174E0,9.247923E1,3.2915337E3,1.1679628E1,1.720839E1,2.9802136E0,8.1088005E1],"tree_param":{"num_deleted":"0","num_feature":"5013","num_nodes":"113","size_leaf_vector":"1"}},{"base_weights":[-1.5324675E-3,1.9438574E-1,-1.7289454E-1,1.6374972E-1,1.2184533E0,-1.9315109E-1,1.1677592E0,-4.5463917E-1,2.0877606E-1,1.2646348E0,-5.9123017E-2,-2.136981E-1,4.5841905E-1,-9.0108894E-2,1.2364202E0,1.339316E-1,-4.8324072E-1,1.14339605E-1,4.0315875E-1,-7.572689E-2,1.3001724E0,-3.903738E-1,-1.5691164E-1,3.5675845E-1,1.1477338E0,-0E0,1.2875043E0,-6.317092E-2,3.7670285E-1,3.280855E-1,-5.041235E-1,1.6545675E0,1.0431645E-1,6.426458E-1,1.3269642E-1,1.338954E0,2.0836996E-1,2.8738502E-1,-3.9600188E-1,-2.1414274E-1,1.7206615E-2,2.4622211E-1,8.301872E-1,1.3501757E0,-6.782004E-2,1.6722827E-1,-7.662531E-2,-4.2541508E-2,1.3202416E0,5.793934E-1,-5.1305737E-2,1.0729942E0,-8.565671E-3,2.4718635E-1,-5.1285994E-1,3.4337398E-1,-0E0,8.8106535E-2,1.0027683E0,-2.544324E-1,6.882778E-1,-5.335633E-1,1.7778988E-1,-4.4272777E-2,1.3588179E0,7.8851265E-1,-7.430915E-2,-4.054182E-1,5.794705E-1,-2.2322465E-1,9.4461125E-1,-1.4641678E-1,2.609433E-1,3.0834255E-1,2.0508637E-1,-8.736907E-2,1.0354366E0,-3.400683E-2,1.4987799E0,-4.136931E-2,1.3537816E0,-1.18711395E-2,7.43911E-1,-0E0,2.8004304E-1,-5.21444E-1,1.6982546E-1,1.357942E0,7.716314E-2,1.0627412E0,-6.574222E-2,-4.122383E-1,8.6570436E-1,-3.2441977E-2,7.5222033E-1,-5.760514E-1,-0E0,1.3065729E-1,7.142019E-1,-0E0,1.3825531E0,2.1653216E-1,-0E0,6.056903E-1,-4.137223E-1,2.973503E-1,-0E0,-2.3138279E-1,1.0493001E0,-7.474374E-2,1.1235027E0,-5.7551974E-1,-9.185922E-2,1.2456429E0,2.105605E-1,9.346639E-2,6.197575E-1,1.1918925E0,-2.3132091E-2,1.6691597E0,-3.2768972E-2,1.3871576E0,-0E0,-0E0,1.9535659E-1,1.7553423E-1,-1.0597514E-1,-3.1114543E-2,2.9334828E-1,1.0252646E-1,9.089433E-3,-3.586027E-2,2.2108471E-1,2.1931997E-1,-9.8096535E-2,-0E0,2.4707346E-1,-7.4053966E-2,5.0754428E-2,-8.213535E-3,1.5831485E-1,-1.2180374E-1,4.82807E-2,-4.320808E-2,1.5602049E-1,1.9817932E-2,1.8729423E-1,-1.004399E-1,1.6827644E-1,2.8181306E-1,-0E0,2.1063495E-1,-0E0,-8.3533294E-2,3.10447E-1,-8.837794E-2,7.4653804E-2,-4.7359966E-2,3.1206116E-1,2.318251E-1,4.592728E-2,-0E0,2.5322336E-1,-1.2322271E-1,2.0734715E-1,7.035553E-2,-2.9336244E-2,2.5834012E-1,-0E0,7.0612274E-2,-3.7060261E-3,4.9770954E-3,2.455318E-1,-6.34604E-2,1.4727154E-1,-3.1114025E-2,2.6159862E-1,-1.1952707E-2,3.6474535E-1,-1.5465356E-2,2.8282425E-1],"categories":[],"categories_nodes":[],"categories_segments":[],"categories_sizes":[],"default_left":[0,1,1,0,1,1,0,0,1,0,0,0,1,0,0,0,0,0,1,0,1,0,1,0,1,0,0,0,1,0,0,1,1,0,0,0,0,0,1,1,0,0,0,0,0,0,0,0,0,0,0,0,0,0,1,0,0,0,1,0,0,1,1,0,0,0,0,0,0,1,0,0,0,0,0,0,0,0,1,0,1,0,0,0,0,0,0,0,0,0,0,0,0,0,0,1,0,1,0,0,1,0,0,0,1,0,0,1,1,0,0,1,0,1,0,1,0,0,0,0,0,0,0,0,0,0,0,0,0,0,0,0,0,0,0,0,0,0,0,0,0,0,0,0,0,0,0,0,0,0,0,0,0,0,0,0,0,0,0,0,0,0,0,0,0,0,0,0,0,0,0,0,0,0,0,0,0,0,0,0,0],"id":5,"left_children":[1,3,5,7,9,11,13,15,17,19,-1,21,23,-1,25,27,29,31,33,-1,35,37,39,41,43,45,47,-1,49,51,53,55,57,59,61,63,65,-1,67,69,71,73,75,77,-1,-1,-1,-1,79,81,-1,83,-1,-1,85,-1,-1,87,89,91,93,95,97,-1,99,101,-1,103,105,107,109,111,113,-1,115,-1,117,-1,119,-1,121,-1,123,-1,-1,125,-1,127,129,131,-1,133,135,137,139,141,143,145,147,-1,149,-1,-1,151,153,-1,155,157,159,-1,161,163,165,167,169,171,173,175,-1,177,-1,179,-1,-1,-1,-1,-1,-1,-1,-1,-1,-1,-1,-1,-1,-1,-1,-1,-1,-1,-1,-1,-1,-1,-1,-1,-1,-1,-1,-1,-1,-1,-1,-1,-1,-1,-1,-1,-1,-1,-1,-1,-1,-1,-1,-1,-1,-1,-1,-1,-1,-1,-1,-1,-1,-1,-1,-1,-1,-1,-1],"loss_changes":[5.116738E2,2.2177274E2,2.2013205E2,1.9205867E2,1.5361755E1,1.0710599E2,1.4300812E1,8.191963E0,1.1769977E2,1.2686523E1,0E0,7.745593E1,1.563546E1,0E0,6.759674E0,2.3595576E0,7.7998962E0,6.537323E1,1.3542905E2,0E0,6.892517E0,1.8772919E1,5.879782E1,1.0211323E1,1.0108826E1,2.0814443E0,6.5227966E0,0E0,2.2424896E0,3.7846878E0,6.322151E0,2.419815E0,6.1790657E1,4.5997986E1,2.9461155E1,6.94989E0,3.180807E0,0E0,1.7234924E1,4.6126404E1,5.803153E1,7.7521505E0,1.0827803E1,7.3460426E0,0E0,0E0,0E0,0E0,6.699524E0,1.8975449E0,0E0,1.1920605E0,0E0,0E0,5.018364E0,0E0,0E0,5.7575863E1,6.795761E0,9.200277E0,4.9465485E1,1.8424892E0,2.27079E1,0E0,7.1108093E0,1.126368E0,0E0,1.560141E1,9.056242E0,4.508232E1,8.798698E0,1.9714985E1,2.7706158E1,0E0,7.310535E0,0E0,7.1269684E0,0E0,8.52877E0,0E0,5.5466156E0,0E0,2.3066897E0,0E0,0E0,5.035721E0,0E0,7.050926E0,5.75075E1,4.7315216E0,0E0,5.3607445E0,2.9274855E0,8.430203E0,3.1075317E1,1.9503517E0,1.1275864E0,2.0835598E1,1.1832085E1,0E0,7.1967163E0,0E0,0E0,4.6485505E0,1.3679779E1,0E0,1.8922048E0,4.147914E1,1.1809006E0,0E0,5.2214584E0,6.215296E0,1.8617035E1,1.2990532E0,1.851438E1,9.606789E0,4.2483015E0,5.8786697E0,0E0,7.7760468E0,0E0,5.340683E0,0E0,0E0,0E0,0E0,0E0,0E0,0E0,0E0,0E0,0E0,0E0,0E0,0E0,0E0,0E0,0E0,0E0,0E0,0E0,0E0,0E0,0E0,0E0,0E0,0E0,0E0,0E0,0E0,0E0,0E0,0E0,0E0,0E0,0E0,0E0,0E0,0E0,0E0,0E0,0E0,0E0,0E0,0E0,0E0,0E0,0E0,0E0,0E0,0E0,0E0,0E0,0E0,0E0,0E0,0E0,0E0,0E0,0E0,0E0],"parents":[2147483647,0,0,1,1,2,2,3,3,4,4,5,5,6,6,7,7,8,8,9,9,11,11,12,12,14,14,15,15,16,16,17,17,18,18,20,20,21,21,22,22,23,23,24,24,25,25,26,26,28,28,29,29,30,30,31,31,32,32,33,33,34,34,35,35,36,36,38,38,39,39,40,40,41,41,42,42,43,43,48,48,49,49,51,51,54,54,57,57,58,58,59,59,60,60,61,61,62,62,64,64,65,65,67,67,68,68,69,69,70,70,71,71,72,72,74,74,76,76,78,78,80,80,82,82,85,85,87,87,88,88,89,89,91,91,92,92,93,93,94,94,95,95,96,96,97,97,98,98,100,100,103,103,104,104,106,106,107,107,108,108,110,110,111,111,112,112,113,113,114,114,115,115,116,116,117,117,119,119,121,121],"right_children":[2,4,6,8,10,12,14,16,18,20,-1,22,24,-1,26,28,30,32,34,-1,36,38,40,42,44,46,48,-1,50,52,54,56,58,60,62,64,66,-1,68,70,72,74,76,78,-1,-1,-1,-1,80,82,-1,84,-1,-1,86,-1,-1,88,90,92,94,96,98,-1,100,102,-1,104,106,108,110,112,114,-1,116,-1,118,-1,120,-1,122,-1,124,-1,-1,126,-1,128,130,132,-1,134,136,138,140,142,144,146,148,-1,150,-1,-1,152,154,-1,156,158,160,-1,162,164,166,168,170,172,174,176,-1,178,-1,180,-1,-1,-1,-1,-1,-1,-1,-1,-1,-1,-1,-1,-1,-1,-1,-1,-1,-1,-1,-1,-1,-1,-1,-1,-1,-1,-1,-1,-1,-1,-1,-1,-1,-1,-1,-1,-1,-1,-1,-1,-1,-1,-1,-1,-1,-1,-1,-1,-1,-1,-1,-1,-1,-1,-1,-1,-1,-1,-1],"split_conditions":[4.1411406E-1,1.110417E-1,1.3193001E-1,2.00001E0,1.3683394E-1,1.2580289E-1,3.1247514E-1,4.3446782E-1,1E0,3.8873717E-1,-5.9123017E-2,3.2167275E-2,1.4198953E-1,-9.0108894E-2,2.314099E-1,7.0028424E-2,2.0932594E-1,1.466023E0,5.49E-1,-7.572689E-2,1.2026929E-1,3.9059836E-1,1E0,4.331334E-2,2.9793608E-1,2.4417451E-1,3.835359E-1,-6.317092E-2,5.49E-1,1.6376929E-1,1.6374354E0,1.8417425E-1,3.7469193E-1,2.85461E-1,5.097137E-1,5.3371775E-1,6.5436915E-2,2.8738502E-1,2.0678051E-1,1.513453E-1,2.00001E0,3.5239685E-1,3.477519E-1,2.1541183E-1,-6.782004E-2,1.6722827E-1,-7.662531E-2,-4.2541508E-2,4.1960836E-3,3.44851E-1,-5.1305737E-2,1.362701E-1,-8.565671E-3,2.4718635E-1,3.2507956E-1,3.4337398E-1,-0E0,5.0287426E-1,2.8548115E-1,3.1986547E-1,4.7237584E-1,2.5543264E-1,1.2612177E-1,-4.4272777E-2,1.7810725E-1,2.832404E-1,-7.430915E-2,4.2716542E-1,2.7412713E-1,6.1088395E-1,4.4690218E-2,3.6879927E-1,6.629868E-1,3.0834255E-1,3.8416782E-1,-8.736907E-2,2.180789E-1,-3.400683E-2,2.10239E-1,-4.136931E-2,2.9672068E-1,-1.18711395E-2,2.8306305E-1,-0E0,2.8004304E-1,4.8744658E-1,1.6982546E-1,3.5331598E-1,2.266841E-3,1.6597377E0,-6.574222E-2,2.6033425E-1,1.644418E-1,2.1790563E-1,2.873077E-1,1.5903193E-1,1.5382741E-1,1.4574437E-1,3.4369406E-1,-0E0,2.0710725E-1,2.1653216E-1,-0E0,1.227478E-2,3.276139E-1,2.973503E-1,3.4952488E-2,2.1160997E-1,5E1,-7.474374E-2,3.5969043E-1,2.0996766E-1,-2.58E-2,1.8835837E-1,6.778403E-2,2.0095104E-1,3.9686906E-1,6.9E1,-2.3132091E-2,1.9790019E-1,-3.2768972E-2,1.9623005E-1,-0E0,-0E0,1.9535659E-1,1.7553423E-1,-1.0597514E-1,-3.1114543E-2,2.9334828E-1,1.0252646E-1,9.089433E-3,-3.586027E-2,2.2108471E-1,2.1931997E-1,-9.8096535E-2,-0E0,2.4707346E-1,-7.4053966E-2,5.0754428E-2,-8.213535E-3,1.5831485E-1,-1.2180374E-1,4.82807E-2,-4.320808E-2,1.5602049E-1,1.9817932E-2,1.8729423E-1,-1.004399E-1,1.6827644E-1,2.8181306E-1,-0E0,2.1063495E-1,-0E0,-8.3533294E-2,3.10447E-1,-8.837794E-2,7.4653804E-2,-4.7359966E-2,3.1206116E-1,2.318251E-1,4.592728E-2,-0E0,2.5322336E-1,-1.2322271E-1,2.0734715E-1,7.035553E-2,-2.9336244E-2,2.5834012E-1,-0E0,7.0612274E-2,-3.7060261E-3,4.9770954E-3,2.455318E-1,-6.34604E-2,1.4727154E-1,-3.1114025E-2,2.6159862E-1,-1.1952707E-2,3.6474535E-1,-1.5465356E-2,2.8282425E-1],"split_indices":[5008,1642,1642,2569,2556,3239,3435,1747,5000,1520,0,5011,2015,0,2965,5008,1586,898,5002,0,4443,1332,5000,5011,26,190,2583,0,5002,5009,336,332,3888,1520,3230,425,5009,0,3888,3843,5002,2787,1671,3226,0,0,0,0,5009,4525,0,2569,0,0,468,0,0,3456,2503,5008,1867,1604,1604,0,2965,5007,0,2945,3888,4933,5011,3814,1332,0,3239,0,5007,0,173,0,4370,0,4153,0,0,1204,0,4472,5008,4777,0,589,1520,1867,2965,2015,3230,4902,2656,0,4902,0,0,5011,987,0,5007,600,5006,0,2455,862,5004,4668,5009,1835,26,5006,0,428,0,3130,0,0,0,0,0,0,0,0,0,0,0,0,0,0,0,0,0,0,0,0,0,0,0,0,0,0,0,0,0,0,0,0,0,0,0,0,0,0,0,0,0,0,0,0,0,0,0,0,0,0,0,0,0,0,0,0,0,0,0],"split_type":[0,0,0,0,0,0,0,0,0,0,0,0,0,0,0,0,0,0,0,0,0,0,0,0,0,0,0,0,0,0,0,0,0,0,0,0,0,0,0,0,0,0,0,0,0,0,0,0,0,0,0,0,0,0,0,0,0,0,0,0,0,0,0,0,0,0,0,0,0,0,0,0,0,0,0,0,0,0,0,0,0,0,0,0,0,0,0,0,0,0,0,0,0,0,0,0,0,0,0,0,0,0,0,0,0,0,0,0,0,0,0,0,0,0,0,0,0,0,0,0,0,0,0,0,0,0,0,0,0,0,0,0,0,0,0,0,0,0,0,0,0,0,0,0,0,0,0,0,0,0,0,0,0,0,0,0,0,0,0,0,0,0,0,0,0,0,0,0,0,0,0,0,0,0,0,0,0,0,0,0,0],"sum_hessian":[1.5240294E4,7.108347E3,8.131947E3,6.903176E3,2.051713E2,8.011905E3,1.2004224E2,4.669747E2,6.436201E3,1.997102E2,5.461081E0,7.768522E3,2.4338257E2,4.2847176E0,1.1575752E2,2.019945E1,4.4677524E2,4.335126E3,2.1010757E3,3.6339066E0,1.9607631E2,1.8853362E3,5.883186E3,2.1376135E2,2.9621225E1,4.960727E0,1.1079679E2,5.8171215E0,1.4382327E1,1.0032903E1,4.3674234E2,2.700833E1,4.308117E3,1.1123695E3,9.88706E2,1.8850713E2,7.5691733E0,4.9782696E0,1.8803579E3,4.431369E3,1.451817E3,1.7529596E2,3.846539E1,2.6606426E1,3.0147994E0,1.7612574E0,3.19947E0,1.7638888E0,1.09032906E2,1.1931544E1,2.4507825E0,3.8069348E0,6.225968E0,1.3845724E0,4.3535776E2,2.5872602E1,1.1357259E0,4.233174E3,7.4943794E1,5.2851307E1,1.0595183E3,6.1182255E1,9.2752374E2,1.7792869E0,1.8672784E2,4.4290442E0,3.1401293E0,1.8634957E3,1.686215E1,4.397989E3,3.337994E1,8.667088E2,5.851083E2,4.2597957E0,1.7103616E2,4.719581E0,3.3745808E1,1.8587468E0,2.4747679E1,1.7536173E0,1.0727929E2,1.454015E0,1.047753E1,1.1490431E0,2.6578918E0,4.3352142E2,1.8363452E0,3.5038998E1,4.198135E3,7.240583E1,2.5379593E0,4.723323E1,5.618079E0,8.5285324E1,9.742329E2,5.7978333E1,3.2039237E0,8.545657E2,7.295808E1,2.6514957E0,1.8407635E2,3.0990713E0,1.329973E0,1.4090229E1,1.8494055E3,6.2771444E0,1.0585006E1,4.3709966E3,2.6992485E1,3.3672233E0,3.0012714E1,9.554E1,7.7116876E2,2.7147142E1,5.579611E2,1.3679611E2,3.4240047E1,3.0338074E1,3.4077332E0,2.2905262E1,1.8424169E0,1.05040115E2,2.239169E0,2.17155E0,8.30598E0,1.7207747E0,4.3180066E2,1.8177133E0,3.3221283E1,2.827345E2,3.9154001E3,1.7020963E0,7.0703735E1,1.5093347E0,4.5723896E1,1.1698397E0,4.44824E0,4.0404884E1,4.4880436E1,4.503355E1,9.291994E2,5.683142E1,1.1469086E0,1.9877447E0,1.2161791E0,8.238421E2,3.072357E1,6.153609E0,6.680447E1,1.8082248E2,3.2538643E0,8.550342E0,5.5398874E0,1.8464836E3,2.921825E0,4.7716846E0,5.813321E0,4.3586787E3,1.2317735E1,2.2732704E1,4.2597804E0,3.2188265E0,2.6793888E1,9.39742E1,1.5657988E0,8.285774E1,6.8831104E2,2.5992788E1,1.1543555E0,3.4610638E2,2.1185475E2,1.3012984E2,6.666274E0,2.9040174E0,3.133603E1,1.8190051E0,2.8519068E1,1.4551464E0,2.1450115E1,1.3190671E0,1.0372105E2],"tree_param":{"num_deleted":"0","num_feature":"5013","num_nodes":"181","size_leaf_vector":"1"}},{"base_weights":[4.0449476E-4,8.7778085E-1,-1.856582E-2,-2.3669006E-1,9.343352E-1,7.748922E-1,-3.98869E-2,1.1812913E-1,-4.602713E-1,-9.510496E-2,9.650205E-1,4.0125445E-1,1.1090848E0,-4.601205E-2,1.3775698E0,2.5919823E-2,-1.20335214E-1,9.931768E-1,-9.940259E-2,6.345198E-1,-1.0060116E-2,8.981391E-1,2.9711944E-1,-7.502742E-2,1.8328573E-1,-0E0,1.4178752E0,-9.157982E-2,1.0224676E0,1.6087064E-1,8.179444E-1,-3.7029967E-1,2.875776E-1,-7.7107675E-2,9.402608E-1,-8.383889E-2,4.98391E-1,2.40133E-1,-4.9360332E-1,-0E0,1.457054E0,1.050636E0,-9.791754E-2,3.8251266E-1,-1.0401153E-1,-7.573052E-2,8.7760496E-1,2.1794775E-1,-4.8908925E-1,-4.3380406E-2,4.8370272E-1,-8.049292E-2,9.836525E-1,9.075627E-1,-8.9104906E-2,6.1055183E-1,-2.5448892E-1,2.8825098E-1,-3.0808064E-1,2.1415909E-1,-5.3096324E-1,1.4977267E0,-0E0,-7.79835E-2,1.0731473E0,6.659466E-1,-5.7222214E-2,5.939117E-1,1.3564715E0,-1.162606E-1,2.3412185E-2,4.1443404E-2,8.08734E-1,-5.1145565E-2,1.0122217E0,-1.0268092E-1,1.0896456E0,-9.891946E-2,4.4041058E-1,7.031005E-1,-1.4979972E-1,-3.6272296E-1,1.6747777E-1,3.3435255E-1,-2.6355645E-1,-3.8669577E-1,2.04699E-1,2.0592742E-1,-5.693576E-1,-0E0,3.0762053E-1,-8.538664E-2,2.1905987E-1,-5.2478045E-2,2.1598096E-1,2.4777846E-1,-1.04853526E-1,5.924292E-3,1.6200133E-1,-0E0,3.010562E-1,9.9750966E-2,-2.0415379E-2,2.3696096E-1,-0E0,2.0914352E-1,-1.4876013E-2,2.378655E-1,-2.9798908E-2,-2.0519407E-2,2.5979134E-1,4.1015003E-2,2.1295483E-1,-7.943983E-2,1.472889E-1,1.6970703E-1,-5.887958E-2,1.5939227E-1,-9.631317E-2,-9.034967E-2,7.394057E-2,2.9459566E-1,-6.9251046E-2,2.742562E-1,-8.856551E-2,2.1269129E-1,-1.2034483E-1],"categories":[],"categories_nodes":[],"categories_segments":[],"categories_sizes":[],"default_left":[0,0,0,0,0,0,1,0,0,0,1,0,1,1,0,0,0,0,0,0,1,0,0,1,1,0,0,0,1,0,0,0,0,0,0,0,1,1,0,0,1,0,0,0,0,0,0,0,0,0,0,0,0,0,1,0,1,1,1,0,0,0,0,0,0,0,0,1,0,0,0,0,0,0,1,0,1,1,1,0,0,0,0,0,0,0,0,0,0,0,0,0,0,0,0,0,0,0,0,0,0,0,0,0,0,0,0,0,0,0,0,0,0,0,0,0,0,0,0,0,0,0,0,0,0,0,0],"id":6,"left_children":[1,3,5,7,9,11,13,-1,15,-1,17,19,21,23,25,-1,-1,27,-1,29,31,33,-1,35,37,-1,39,-1,41,43,45,47,49,-1,51,53,55,57,59,-1,61,63,-1,65,-1,-1,67,-1,69,-1,71,-1,73,75,77,79,81,83,85,-1,87,89,-1,-1,91,93,95,97,99,-1,-1,101,103,-1,105,-1,107,109,111,113,115,117,-1,119,121,123,-1,-1,125,-1,-1,-1,-1,-1,-1,-1,-1,-1,-1,-1,-1,-1,-1,-1,-1,-1,-1,-1,-1,-1,-1,-1,-1,-1,-1,-1,-1,-1,-1,-1,-1,-1,-1,-1,-1,-1,-1],"loss_changes":[2.5329277E2,2.0988281E1,2.5066185E2,2.8232079E0,1.3915344E1,4.6932373E1,1.2449753E2,0E0,1.51842E0,0E0,1.3052856E1,1.8270914E1,1.35295105E1,9.574835E1,4.579735E0,0E0,0E0,1.3290649E1,0E0,9.482113E0,7.200114E0,7.8105316E0,0E0,6.429203E1,6.1977695E1,0E0,4.4413834E0,0E0,1.3115143E1,5.278275E0,6.610283E0,5.1731143E0,3.7490468E0,0E0,8.2033615E0,6.511826E1,1.6598057E1,3.9358917E1,7.054796E0,0E0,4.62941E0,1.0062775E1,0E0,3.9834342E0,0E0,0E0,9.053398E0,0E0,2.0898914E0,0E0,3.0992904E0,0E0,5.2160797E0,1.7750938E1,6.486416E1,1.2361305E1,2.6039968E0,3.5014565E1,1.2112205E1,0E0,7.1885643E0,4.600769E0,0E0,0E0,1.017868E1,7.752283E0,5.810033E0,5.747587E0,6.827839E0,0E0,0E0,1.2010404E0,4.443262E0,0E0,5.3643265E0,0E0,8.235596E0,6.231806E1,3.2125893E1,5.9632645E0,2.1939204E0,3.0891109E0,0E0,3.5250107E1,1.4311796E1,1.0682264E1,0E0,0E0,6.236969E0,0E0,0E0,0E0,0E0,0E0,0E0,0E0,0E0,0E0,0E0,0E0,0E0,0E0,0E0,0E0,0E0,0E0,0E0,0E0,0E0,0E0,0E0,0E0,0E0,0E0,0E0,0E0,0E0,0E0,0E0,0E0,0E0,0E0,0E0,0E0,0E0,0E0,0E0],"parents":[2147483647,0,0,1,1,2,2,3,3,4,4,5,5,6,6,8,8,10,10,11,11,12,12,13,13,14,14,17,17,19,19,20,20,21,21,23,23,24,24,26,26,28,28,29,29,30,30,31,31,32,32,34,34,35,35,36,36,37,37,38,38,40,40,41,41,43,43,46,46,48,48,50,50,52,52,53,53,54,54,55,55,56,56,57,57,58,58,60,60,61,61,64,64,65,65,66,66,67,67,68,68,71,71,72,72,74,74,76,76,77,77,78,78,79,79,80,80,81,81,83,83,84,84,85,85,88,88],"right_children":[2,4,6,8,10,12,14,-1,16,-1,18,20,22,24,26,-1,-1,28,-1,30,32,34,-1,36,38,-1,40,-1,42,44,46,48,50,-1,52,54,56,58,60,-1,62,64,-1,66,-1,-1,68,-1,70,-1,72,-1,74,76,78,80,82,84,86,-1,88,90,-1,-1,92,94,96,98,100,-1,-1,102,104,-1,106,-1,108,110,112,114,116,118,-1,120,122,124,-1,-1,126,-1,-1,-1,-1,-1,-1,-1,-1,-1,-1,-1,-1,-1,-1,-1,-1,-1,-1,-1,-1,-1,-1,-1,-1,-1,-1,-1,-1,-1,-1,-1,-1,-1,-1,-1,-1,-1,-1],"split_conditions":[6.423079E-1,1.6243438E-1,5.163476E-1,1.02089085E-1,3.5190108E-1,4.5540494E-1,2.9956442E-1,1.1812913E-1,2.4171616E-3,-9.510496E-2,1.594513E-1,1.9570322E-1,5.4230787E-2,6.76E-1,4.573862E-1,2.5919823E-2,-1.20335214E-1,4.5687416E-1,-9.940259E-2,2.1581998E-1,6.17E-1,2.7939668E-1,2.9711944E-1,2.5736526E-1,1.1796178E-1,-0E0,3.926525E-1,-9.157982E-2,1.6092744E-1,6.1771613E-2,1.7145108E-1,1.730282E-1,1.5272284E-2,-7.7107675E-2,4.755927E-1,4.363957E-1,1.7216407E-1,1.4654839E-1,3.9828107E-1,-0E0,4.171283E-1,3.4516385E-1,-9.791754E-2,2.3031385E-1,-1.0401153E-1,-7.573052E-2,3.0683825E-2,2.1794775E-1,2.00001E0,-4.3380406E-2,2.0574518E-1,-8.049292E-2,7.6983225E-1,3.9835867E-1,3.8457546E-2,5.483916E-1,3.4365207E-1,1.3903183E-1,2.2412951E-1,2.1415909E-1,5.5213875E-1,7.1237403E-1,-0E0,-7.79835E-2,3.0069846E-1,3.920301E-1,4.394386E-1,5.88E-1,2.607713E-1,-1.162606E-1,2.3412185E-2,2.1301242E-2,3.5339698E-1,-5.1145565E-2,3.0019447E-1,-1.0268092E-1,8.40546E-2,5.200482E-1,1.129288E-1,3.153809E-1,6.670487E-1,4.060779E-1,1.6747777E-1,6.726823E-1,4.503569E-1,6.0445786E-1,2.04699E-1,2.0592742E-1,3.5435542E-1,-0E0,3.0762053E-1,-8.538664E-2,2.1905987E-1,-5.2478045E-2,2.1598096E-1,2.4777846E-1,-1.04853526E-1,5.924292E-3,1.6200133E-1,-0E0,3.010562E-1,9.9750966E-2,-2.0415379E-2,2.3696096E-1,-0E0,2.0914352E-1,-1.4876013E-2,2.378655E-1,-2.9798908E-2,-2.0519407E-2,2.5979134E-1,4.1015003E-2,2.1295483E-1,-7.943983E-2,1.472889E-1,1.6970703E-1,-5.887958E-2,1.5939227E-1,-9.631317E-2,-9.034967E-2,7.394057E-2,2.9459566E-1,-6.9251046E-2,2.742562E-1,-8.856551E-2,2.1269129E-1,-1.2034483E-1],"split_indices":[2326,2612,138,2612,1258,5008,1336,0,5009,0,4153,5010,3226,5002,1977,0,0,3620,0,5008,5002,729,0,1091,1604,0,2837,0,2800,5010,2904,10,5012,0,3508,3236,1780,374,542,0,1617,1105,0,138,0,0,5012,0,5000,0,138,0,1127,906,2471,5008,4939,3071,1780,0,630,2031,0,0,1849,5004,5002,5002,4153,0,0,5012,5008,0,1961,0,2503,4725,198,2612,3346,724,0,1697,1059,523,0,0,210,0,0,0,0,0,0,0,0,0,0,0,0,0,0,0,0,0,0,0,0,0,0,0,0,0,0,0,0,0,0,0,0,0,0,0,0,0,0],"split_type":[0,0,0,0,0,0,0,0,0,0,0,0,0,0,0,0,0,0,0,0,0,0,0,0,0,0,0,0,0,0,0,0,0,0,0,0,0,0,0,0,0,0,0,0,0,0,0,0,0,0,0,0,0,0,0,0,0,0,0,0,0,0,0,0,0,0,0,0,0,0,0,0,0,0,0,0,0,0,0,0,0,0,0,0,0,0,0,0,0,0,0,0,0,0,0,0,0,0,0,0,0,0,0,0,0,0,0,0,0,0,0,0,0,0,0,0,0,0,0,0,0,0,0,0,0,0,0],"sum_hessian":[1.5173795E4,3.2164752E2,1.4852147E4,1.4745407E1,3.0690213E2,3.8720013E2,1.4464947E4,2.1785002E0,1.2566907E1,5.8137994E0,3.0108832E2,1.844686E2,2.0273154E2,1.4403735E4,6.121243E1,1.2854879E0,1.128142E1,2.9610614E2,4.982175E0,1.1886272E2,6.560588E1,1.3234392E2,7.038763E1,1.2789346E4,1.6143896E3,1.1778111E0,6.003462E1,5.159613E0,2.9094653E2,3.4698513E1,8.41642E1,3.0912134E1,3.469375E1,3.4528725E0,1.2889104E2,1.2597616E4,1.9172897E2,1.4907281E3,1.2366149E2,1.1169823E0,5.8917637E1,2.8630713E2,4.63941E0,2.7259592E1,7.438922E0,3.2123432E0,8.095186E1,1.515723E0,2.9396412E1,8.496497E0,2.6197252E1,3.3106987E0,1.25580345E2,6.530885E1,1.2532308E4,1.6791716E2,2.381181E1,1.3720498E3,1.18678314E2,2.0682929E0,1.215932E2,5.7800785E1,1.1168504E0,3.716563E0,2.8259058E2,1.759968E1,9.659913E0,5.2572807E1,2.8379053E1,2.6736917E1,2.6594932E0,1.2409946E1,1.3787307E1,2.0846875E0,1.2349565E2,6.7997413E0,5.8509113E1,1.2306169E4,2.2613805E2,1.5071413E2,1.7203032E1,2.26394E1,1.1724106E0,1.2678307E3,1.04219185E2,1.12960884E2,5.717428E0,2.1140714E0,1.19479126E2,1.0733345E0,5.672745E1,3.4394414E0,2.7915112E2,4.8509564E0,1.2748723E1,1.8842261E0,7.775687E0,1.5778764E1,3.679404E1,2.4048443E0,2.5974209E1,4.1003094E0,8.309637E0,9.348928E0,4.438378E0,1.2057098E2,2.9246817E0,5.4797123E1,3.7119882E0,1.22748955E4,3.1273882E1,1.6564828E2,6.048976E1,3.5456333E0,1.4716849E2,1.1624857E0,1.6040546E1,1.2070613E0,2.1432339E1,5.3306396E1,1.2145243E3,3.930903E0,1.00288284E2,2.7048645E0,1.1025602E2,1.5380373E0,1.1794109E2],"tree_param":{"num_deleted":"0","num_feature":"5013","num_nodes":"127","size_leaf_vector":"1"}},{"base_weights":[-1.6640587E-3,1.568892E-1,-1.5339462E-1,1.1681342E-1,6.1029273E-1,-1.6317804E-1,3.494155E-1,1.0152074E-1,1.0230006E0,-2.8799152E-1,6.469589E-1,-1.71383E-1,1.0900514E0,8.6381175E-2,1.0043048E0,-2.1819687E-2,1.1030407E0,1.3909203E-1,-7.990926E-2,6.119816E-1,1.4156591E0,-6.584061E-2,-2.4202004E-1,-1.24837225E-2,1.1793509E0,5.97308E-2,5.652861E-1,-6.65379E-2,1.0479032E0,1.1665907E0,-7.718328E-2,5.4117066E-1,1.0600497E0,-4.635615E-3,1.5323893E0,-7.9821795E-2,7.713333E-1,-2.5650936E-1,3.6917412E-1,-0E0,1.2508495E0,3.9521195E-2,7.8747183E-1,7.0013195E-1,3.069714E-1,1.1003362E0,-3.1363826E-2,-5.8768135E-2,1.2118297E0,4.813347E-1,1.0960277E0,-1.8337706E-2,1.0964788E0,3.2033697E-1,-0E0,-9.150679E-2,7.706635E-1,-6.7476496E-2,8.682809E-1,2.0365237E-1,-2.7450782E-1,2.9192182E-1,2.7504024E-1,-0E0,1.2885473E0,1.7553717E-2,6.048856E-1,-9.370373E-2,8.3257407E-1,-8.786911E-2,7.469683E-1,-1.11114934E-1,3.794028E-1,1.1374688E0,-5.057558E-2,-2.9974906E-2,1.2438848E0,-1.07956104E-1,5.014896E-1,1.2264926E0,-3.254638E-2,2.2328222E-1,-0E0,-9.7660236E-2,1.3280303E0,-4.9900897E-2,8.5105443E-1,5.2834016E-1,1.2399344E0,1.0486191E-1,1.2345232E0,-2.7854368E-1,2.928197E-1,-7.2003506E-2,4.099976E-1,6.128427E-1,1.4148585E0,-1.0503818E-3,1.1958664E-1,-1.2176236E-1,1.4930312E-1,1.762317E-1,-4.2227577E-2,-4.44855E-2,1.5607743E-1,-5.057391E-3,9.2719324E-2,2.3383562E-1,-3.5881985E-2,-2.9719248E-2,2.5536707E-1,5.352032E-2,1.21821515E-1,2.6002476E-1,-2.1553975E-2,-2.041719E-2,3.279658E-1,-0E0,2.914861E-1,1.9379199E-1,-0E0,1.6043173E-1,1.0091874E-2,-4.544701E-3,2.7280354E-1,3.4335825E-1,6.6445596E-3,-0E0,2.7966958E-1,-5.6605805E-2,2.3609713E-1,1.2627944E-1,-5.4516513E-3,1.7497791E-1,-0E0,2.9496527E-1,-0E0],"categories":[],"categories_nodes":[],"categories_segments":[],"categories_sizes":[],"default_left":[0,1,1,1,0,1,0,1,0,0,1,0,0,1,0,0,1,0,0,0,0,1,1,0,0,1,0,0,1,0,0,1,0,0,1,1,0,0,0,0,0,1,0,0,0,1,0,0,0,0,1,0,1,0,0,1,0,0,0,1,1,0,0,0,0,1,0,0,1,0,0,0,0,1,0,0,0,0,0,1,0,0,0,1,0,0,1,0,0,0,0,1,0,0,1,0,1,0,0,0,0,0,0,0,0,0,0,0,0,0,0,0,0,0,0,0,0,0,0,0,0,0,0,0,0,0,0,0,0,0,0,0,0,0,0,0,0],"id":7,"left_children":[1,3,5,7,9,11,-1,13,15,17,19,21,23,25,27,-1,29,-1,-1,31,33,35,37,-1,39,41,43,-1,45,47,-1,49,51,-1,53,55,57,59,61,-1,63,65,67,69,71,73,-1,-1,75,77,79,-1,81,-1,-1,83,85,-1,87,89,91,-1,93,-1,95,97,99,-1,101,-1,103,-1,105,107,-1,-1,109,-1,111,113,-1,-1,-1,115,117,-1,119,121,123,125,127,129,-1,-1,131,133,135,-1,-1,-1,-1,-1,-1,-1,-1,-1,-1,-1,-1,-1,-1,-1,-1,-1,-1,-1,-1,-1,-1,-1,-1,-1,-1,-1,-1,-1,-1,-1,-1,-1,-1,-1,-1,-1,-1,-1,-1],"loss_changes":[3.665497E2,1.3469073E2,1.4360721E2,9.387089E1,2.024855E1,7.899579E1,0E0,9.107118E1,1.1098221E1,2.4056375E0,1.3508835E1,5.7139618E1,6.0990143E0,8.3995804E1,7.1766586E0,0E0,1.0884369E1,0E0,0E0,1.6066406E1,5.29644E0,3.564407E1,4.0754425E1,0E0,4.6042633E0,9.160224E1,1.1157547E1,0E0,7.6524124E0,7.6893616E0,0E0,1.4488007E1,3.993126E0,0E0,2.0129204E0,2.9703487E1,5.937525E0,3.737802E1,9.19238E0,0E0,2.081604E0,7.5338066E1,1.0024139E1,1.2456657E1,7.575286E0,6.0794296E0,0E0,0E0,5.3629456E0,9.117027E0,8.432842E0,0E0,1.5535736E0,0E0,0E0,2.5256926E1,3.9086132E0,0E0,4.112156E0,1.5921518E1,2.9604584E1,0E0,8.543997E0,0E0,1.6003647E0,7.835513E1,3.9345764E1,0E0,8.934479E0,0E0,7.6022186E0,0E0,4.2525177E0,5.166641E0,0E0,0E0,5.5408325E0,0E0,1.0041756E1,5.168724E0,0E0,0E0,0E0,2.1783215E1,1.904892E0,0E0,4.5135994E0,2.7105432E0,4.3989277E0,1.6345478E1,3.834713E0,2.7705292E1,0E0,0E0,8.501139E0,1.8013399E0,1.935936E0,0E0,0E0,0E0,0E0,0E0,0E0,0E0,0E0,0E0,0E0,0E0,0E0,0E0,0E0,0E0,0E0,0E0,0E0,0E0,0E0,0E0,0E0,0E0,0E0,0E0,0E0,0E0,0E0,0E0,0E0,0E0,0E0,0E0,0E0,0E0,0E0,0E0,0E0,0E0,0E0],"parents":[2147483647,0,0,1,1,2,2,3,3,4,4,5,5,7,7,8,8,9,9,10,10,11,11,12,12,13,13,14,14,16,16,19,19,20,20,21,21,22,22,24,24,25,25,26,26,28,28,29,29,31,31,32,32,34,34,35,35,36,36,37,37,38,38,40,40,41,41,42,42,43,43,44,44,45,45,48,48,49,49,50,50,52,52,55,55,56,56,58,58,59,59,60,60,62,62,64,64,65,65,66,66,68,68,70,70,72,72,73,73,76,76,78,78,79,79,83,83,84,84,86,86,87,87,88,88,89,89,90,90,91,91,94,94,95,95,96,96],"right_children":[2,4,6,8,10,12,-1,14,16,18,20,22,24,26,28,-1,30,-1,-1,32,34,36,38,-1,40,42,44,-1,46,48,-1,50,52,-1,54,56,58,60,62,-1,64,66,68,70,72,74,-1,-1,76,78,80,-1,82,-1,-1,84,86,-1,88,90,92,-1,94,-1,96,98,100,-1,102,-1,104,-1,106,108,-1,-1,110,-1,112,114,-1,-1,-1,116,118,-1,120,122,124,126,128,130,-1,-1,132,134,136,-1,-1,-1,-1,-1,-1,-1,-1,-1,-1,-1,-1,-1,-1,-1,-1,-1,-1,-1,-1,-1,-1,-1,-1,-1,-1,-1,-1,-1,-1,-1,-1,-1,-1,-1,-1,-1,-1,-1,-1],"split_conditions":[1.14533E-1,1.2644824E-1,5.7155436E-1,2.3456873E-1,3.9295983E-1,2.2528473E-1,3.494155E-1,2.6689506E-1,5.590513E-3,1.7192574E-1,1.9186291E-1,1.521533E-1,3.310678E-1,1.832877E-1,3.6468425E-1,-2.1819687E-2,2.8307924E-1,1.3909203E-1,-7.990926E-2,5.094373E-1,3.7721792E-1,2.4264714E-1,1.6737781E-1,-1.24837225E-2,4.9474543E-1,1.7790367E-1,6.801512E-2,-6.65379E-2,2.6621878E-1,3.6678398E-1,-7.718328E-2,1.3086025E-1,7.6176196E-1,-4.635615E-3,1.798615E-1,1.7835137E-1,4.1392803E-1,5.681278E-1,2.2785026E-1,-0E0,3.306374E-1,1.2561923E-1,5.6839377E-1,5.30232E-1,4.4710362E-1,2.5006932E-1,-3.1363826E-2,-5.8768135E-2,3.2814446E-1,5.2648807E-1,5.26E-1,-1.8337706E-2,1E0,3.2033697E-1,-0E0,3.2320538E-1,3.7019798E-1,-6.7476496E-2,3.532383E-1,2.0545323E-1,2.2841671E-1,2.9192182E-1,2.3668322E-1,-0E0,9.132097E-3,2.2934704E-1,6.6728467E-1,-9.370373E-2,2.0316999E-1,-8.786911E-2,2.838856E-1,-1.11114934E-1,1.2040981E-2,3.5804376E-1,-5.057558E-2,-2.9974906E-2,3.856818E-1,-1.07956104E-1,6.9E1,2.2654785E-1,-3.254638E-2,2.2328222E-1,-0E0,3.4173566E-1,4.760834E-1,-4.9900897E-2,7.14E-1,3.0875772E-1,1.42931165E-2,5.2512777E-1,4.438854E-1,3.0787328E-1,2.928197E-1,-7.2003506E-2,2.5249022E-1,2.9551582E-3,2.1681651E-1,-1.0503818E-3,1.1958664E-1,-1.2176236E-1,1.4930312E-1,1.762317E-1,-4.2227577E-2,-4.44855E-2,1.5607743E-1,-5.057391E-3,9.2719324E-2,2.3383562E-1,-3.5881985E-2,-2.9719248E-2,2.5536707E-1,5.352032E-2,1.21821515E-1,2.6002476E-1,-2.1553975E-2,-2.041719E-2,3.279658E-1,-0E0,2.914861E-1,1.9379199E-1,-0E0,1.6043173E-1,1.0091874E-2,-4.544701E-3,2.7280354E-1,3.4335825E-1,6.6445596E-3,-0E0,2.7966958E-1,-5.6605805E-2,2.3609713E-1,1.2627944E-1,-5.4516513E-3,1.7497791E-1,-0E0,2.9496527E-1,-0E0],"split_indices":[5010,2569,4918,4768,3908,257,0,1757,5012,1465,3226,5010,3839,1862,2520,0,3942,0,0,2569,4794,4768,830,0,2902,136,5010,0,848,2549,0,1780,1862,0,326,1862,3007,3526,4768,0,468,1480,1604,1931,1458,1458,0,0,4978,2902,5002,0,5002,0,0,1757,119,0,4768,1780,796,0,632,0,5012,4370,2578,0,741,0,1889,0,5012,2433,0,0,2990,0,5006,2908,0,0,0,389,5002,0,5002,4768,5012,31,1478,2117,0,0,468,5012,4794,0,0,0,0,0,0,0,0,0,0,0,0,0,0,0,0,0,0,0,0,0,0,0,0,0,0,0,0,0,0,0,0,0,0,0,0,0,0,0,0],"split_type":[0,0,0,0,0,0,0,0,0,0,0,0,0,0,0,0,0,0,0,0,0,0,0,0,0,0,0,0,0,0,0,0,0,0,0,0,0,0,0,0,0,0,0,0,0,0,0,0,0,0,0,0,0,0,0,0,0,0,0,0,0,0,0,0,0,0,0,0,0,0,0,0,0,0,0,0,0,0,0,0,0,0,0,0,0,0,0,0,0,0,0,0,0,0,0,0,0,0,0,0,0,0,0,0,0,0,0,0,0,0,0,0,0,0,0,0,0,0,0,0,0,0,0,0,0,0,0,0,0,0,0,0,0,0,0,0,0],"sum_hessian":[1.5235701E4,7.447623E3,7.7880786E3,6.845023E3,6.0259985E2,7.7490415E3,3.903689E1,6.7328306E3,1.1219263E2,2.2610477E1,5.799894E2,7.699692E3,4.934988E1,6.6231865E3,1.09644165E2,6.7026615E0,1.0548997E2,1.2944291E0,2.1316048E1,5.5656805E2,2.342135E1,3.092229E3,4.607463E3,2.8803437E0,4.6469536E1,6.27619E3,3.4699634E2,2.7582371E0,1.0688593E2,1.0180779E2,3.682179E0,4.8309448E2,7.347354E1,1.2431288E0,2.2178223E1,3.0428254E3,4.94036E1,4.502366E3,1.0509659E2,2.2677948E0,4.420174E1,6.108195E3,1.6799501E2,2.2533609E2,1.2166025E2,1.031353E2,3.7506275E0,2.425228E0,9.938256E1,4.3819708E2,4.48974E1,1.5228851E0,7.195066E1,2.1047258E1,1.1309648E0,3.002959E3,3.986656E1,3.1842556E0,4.6219345E1,1.675378E2,4.3348286E3,7.122202E0,9.797439E1,1.3207239E0,4.2881016E1,5.8816157E3,2.2657921E2,5.029803E0,1.6296521E2,8.037589E0,2.1729851E2,8.291578E0,1.1336867E2,1.0105642E2,2.0788858E0,1.6433558E0,9.7739204E1,7.4484186E0,4.3074866E2,4.129774E1,3.5996602E0,7.063496E1,1.3157046E0,2.9910056E3,1.1953325E1,2.0776417E0,3.7788918E1,2.5892065E1,2.032728E1,1.5408417E2,1.3453634E1,4.3256494E3,9.179067E0,1.5946259E1,8.202813E1,8.218132E0,3.4662884E1,5.658272E3,2.2334364E2,2.2900751E1,2.0367845E2,1.565547E2,6.4105034E0,6.3167977E0,2.109817E2,1.7855272E1,9.55134E1,9.935411E1,1.7023057E0,1.6319699E0,9.610724E1,1.3870139E2,2.9204727E2,3.9747086E1,1.550655E0,2.984312E3,6.693495E0,1.2078812E0,1.0745444E1,3.3856567E1,3.932351E0,1.5145939E1,1.0746126E1,1.2443398E0,1.908294E1,5.6167912E0,1.4846738E2,1.1057835E0,1.2347851E1,4.313329E3,1.2320164E1,5.560153E1,2.6426603E1,6.1567025E0,2.0614293E0,3.275555E1,1.9073366E0],"tree_param":{"num_deleted":"0","num_feature":"5013","num_nodes":"137","size_leaf_vector":"1"}},{"base_weights":[1.8275296E-3,-1.7715089E-2,8.0924785E-1,1.4204806E-1,-1.1815383E-1,4.596218E-1,1.1184078E0,8.1759596E-1,1.2011621E-1,1.2511452E0,-1.2493383E-1,8.9663357E-1,4.785789E-3,1.1412556E0,-5.5927992E-2,9.4883966E-1,-0E0,8.739967E-1,1.0840203E-1,-2.4090657E-2,1.327233E0,4.073913E-1,-1.4148019E-1,-6.969788E-2,9.5434415E-1,3.3123317E-1,-4.990677E-2,-3.0565882E-2,1.1588094E0,1.0689113E0,2.705196E-1,1.714735E-1,-1.4997396E-2,-8.331338E-2,9.451886E-1,1.1290528E0,1.0140463E-1,1.434835E0,-0E0,4.7283846E-1,-1.2016522E-1,-1.5148914E-1,7.347915E-1,-4.510449E-2,9.949422E-1,1.063902E0,-1.5409201E-1,-1.2737845E-2,1.1732931E0,1.1083013E0,-6.895737E-2,1.0790348E0,-4.0457353E-2,1.0014896E0,-6.2227067E-2,-2.1661792E-2,1.2102969E0,1.2114298E0,9.489091E-2,-0E0,1.4766166E0,-7.377332E-2,5.223626E-1,4.5604503E-1,-1.6183588E-1,-0E0,9.3694454E-1,-2.887992E-2,1.0296439E0,-0E0,2.5760028E-1,2.508689E-1,-2.2768891E-1,1.1838022E0,-0E0,1.141767E0,-5.3356368E-2,-2.7161062E-2,3.1826794E-1,2.0976858E-1,-2.2775634E-1,-4.7951814E-2,1.0477811E0,-2.2528952E-3,1.2850976E0,-4.0989455E-2,1.3399972E0,2.8713605E-1,9.044259E-2,-0E0,1.5338234E0,-1.11854635E-1,5.61001E-1,5.705077E-1,-5.379351E-2,-1.2198303E-1,-1.4845861E-1,2.9504094E-1,-1.8908986E-1,-4.299385E-2,1.0615538E0,-2.5709564E-2,1.0616535E0,-2.840793E-1,2.1843457E-1,-0E0,1.1924613E0,2.3522933E-1,-5.2236583E-2,1.6817766E-1,-7.874297E-2,-2.8479466E-2,2.1723731E-1,-0E0,2.71247E-1,-3.8233787E-2,2.9670924E-1,2.0499347E-2,-6.699508E-2,3.1900078E-1,-0E0,1.1855848E-1,-1.0419964E-1,1.2721646E-1,-1.06001E-1,-1.5518427E-2,-4.897205E-2,1.6604929E-1,-7.276729E-2,-8.5854344E-2,5.238945E-2,1.1098726E-1,2.7856344E-1,-1.1772788E-2,2.1837404E-1,1.7507984E-1,-6.609653E-2,2.3993683E-1,-0E0],"categories":[],"categories_nodes":[],"categories_segments":[],"categories_sizes":[],"default_left":[1,0,1,0,0,1,0,1,0,0,0,0,0,0,0,0,0,0,0,0,1,1,1,0,0,0,0,0,0,1,0,0,0,0,1,0,0,0,0,0,0,0,0,0,0,0,0,0,1,1,0,0,0,0,0,0,0,0,0,0,0,0,0,1,0,0,0,0,0,0,0,0,1,0,0,1,0,0,0,0,0,0,0,0,0,0,0,0,1,0,1,0,1,0,0,0,1,0,0,0,0,0,0,0,0,0,1,0,0,0,0,0,0,0,0,0,0,0,0,0,0,0,0,0,0,0,0,0,0,0,0,0,0,0,0,0,0,0,0],"id":8,"left_children":[1,3,5,7,9,11,13,15,17,19,21,23,25,27,-1,29,31,33,35,-1,37,39,41,-1,43,-1,45,-1,47,49,51,-1,-1,-1,53,55,57,59,-1,61,-1,63,65,-1,67,69,71,-1,73,75,-1,77,79,81,-1,-1,83,85,87,-1,89,-1,91,93,95,97,99,-1,101,-1,-1,-1,103,105,-1,107,-1,-1,-1,-1,109,-1,111,-1,113,-1,115,-1,117,-1,119,-1,121,123,-1,-1,125,-1,127,129,131,-1,133,135,-1,-1,137,-1,-1,-1,-1,-1,-1,-1,-1,-1,-1,-1,-1,-1,-1,-1,-1,-1,-1,-1,-1,-1,-1,-1,-1,-1,-1,-1,-1,-1,-1,-1,-1],"loss_changes":[2.3990933E2,2.375177E2,3.7279068E1,8.377816E1,8.353325E1,3.3162277E1,6.9097137E0,1.950048E1,4.7992516E1,5.703949E0,7.950171E1,6.8462296E0,9.069422E0,5.169113E0,0E0,1.128775E1,1.3124881E0,8.293724E0,3.783529E1,0E0,5.2067184E0,1.792561E1,7.654326E1,0E0,4.726906E0,0E0,8.851017E0,0E0,4.242813E0,8.035431E0,7.135724E0,0E0,0E0,0E0,6.3721695E0,4.6308517E0,3.7994648E1,2.0995789E0,0E0,1.0881165E1,0E0,5.434662E1,1.4527702E1,0E0,4.017235E0,1.350697E0,7.1718655E0,0E0,2.3596191E0,6.7107544E0,0E0,6.0930977E0,3.0085022E0,5.229912E0,0E0,0E0,4.2490234E0,6.6869316E0,3.076672E1,0E0,2.0610275E0,0E0,1.0288498E1,1.2281618E1,5.0486847E1,6.277478E0,1.0278252E1,0E0,3.792183E0,0E0,0E0,0E0,4.925767E0,1.8739624E0,0E0,6.9141235E0,0E0,0E0,0E0,0E0,2.6195612E0,0E0,4.3004837E0,0E0,4.121258E0,0E0,7.5540085E0,0E0,2.7342564E1,0E0,2.138031E0,0E0,8.295731E0,9.305092E0,0E0,0E0,5.6361816E1,0E0,3.2364874E0,1.1755427E0,9.604118E0,0E0,3.5417557E0,3.5133438E0,0E0,0E0,1.4122925E0,0E0,0E0,0E0,0E0,0E0,0E0,0E0,0E0,0E0,0E0,0E0,0E0,0E0,0E0,0E0,0E0,0E0,0E0,0E0,0E0,0E0,0E0,0E0,0E0,0E0,0E0,0E0,0E0,0E0,0E0,0E0,0E0],"parents":[2147483647,0,0,1,1,2,2,3,3,4,4,5,5,6,6,7,7,8,8,9,9,10,10,11,11,12,12,13,13,15,15,16,16,17,17,18,18,20,20,21,21,22,22,24,24,26,26,28,28,29,29,30,30,34,34,35,35,36,36,37,37,39,39,41,41,42,42,44,44,45,45,46,46,48,48,49,49,51,51,52,52,53,53,56,56,57,57,58,58,60,60,62,62,63,63,64,64,65,65,66,66,68,68,72,72,73,73,75,75,80,80,82,82,84,84,86,86,88,88,90,90,92,92,93,93,96,96,98,98,99,99,100,100,102,102,103,103,106,106],"right_children":[2,4,6,8,10,12,14,16,18,20,22,24,26,28,-1,30,32,34,36,-1,38,40,42,-1,44,-1,46,-1,48,50,52,-1,-1,-1,54,56,58,60,-1,62,-1,64,66,-1,68,70,72,-1,74,76,-1,78,80,82,-1,-1,84,86,88,-1,90,-1,92,94,96,98,100,-1,102,-1,-1,-1,104,106,-1,108,-1,-1,-1,-1,110,-1,112,-1,114,-1,116,-1,118,-1,120,-1,122,124,-1,-1,126,-1,128,130,132,-1,134,136,-1,-1,138,-1,-1,-1,-1,-1,-1,-1,-1,-1,-1,-1,-1,-1,-1,-1,-1,-1,-1,-1,-1,-1,-1,-1,-1,-1,-1,-1,-1,-1,-1,-1,-1],"split_conditions":[2.1000183E-1,7.7E1,3.51E-1,5.1024234E-1,9.1434225E-2,9E1,9.2970693E-1,1.1946833E-1,3.5469168E-1,8.611309E-2,4.0047252E-1,3.2309774E-1,3.7936345E-1,4.5857257E-1,-5.5927992E-2,2.931581E-1,2.2963786E-2,3.967596E-1,4.0598768E-1,-2.4090657E-2,-2.58E-2,1.6335815E-1,4.5163907E-2,-6.969788E-2,6.3394535E-1,3.3123317E-1,3.4566694E-1,-3.0565882E-2,4.9959815E-1,2.1071078E-1,6.1566585E-1,1.714735E-1,-1.4997396E-2,-8.331338E-2,1.8575522E-1,4.1881543E-1,3.8429615E-1,7.572003E-2,-0E0,1.6258469E-1,-1.2016522E-1,2.4500647E-1,2.00001E0,-4.510449E-2,3.735198E-1,1.9799866E-2,4.4413272E-1,-1.2737845E-2,2.260419E-1,1.6533549E-1,-6.895737E-2,1.1791136E-1,4.3895966E-1,3.0269796E-1,-6.2227067E-2,-2.1661792E-2,2.6203004E-1,3.9740017E-1,9.030677E-2,-0E0,9.9066816E-2,-7.377332E-2,3.439065E-1,1.0892038E-1,2.00001E0,3.032702E-1,1.216564E-1,-2.887992E-2,1.2120895E0,-0E0,2.5760028E-1,2.508689E-1,3.0041778E-1,3.0776826E-1,-0E0,2.1219818E-1,-5.3356368E-2,-2.7161062E-2,3.1826794E-1,2.0976858E-1,1.8873829E-1,-4.7951814E-2,4.595421E-1,-2.2528952E-3,4.839067E-1,-4.0989455E-2,3.7760347E-1,2.8713605E-1,1E0,-0E0,3.308356E-2,-1.11854635E-1,2.62265E-1,6.2372364E-2,-5.379351E-2,-1.2198303E-1,9.5470536E-1,2.9504094E-1,2.3701322E-1,1.2720391E-1,3.978665E-2,-2.5709564E-2,4.1082048E-1,5.635019E-1,2.1843457E-1,-0E0,1.6044019E-1,2.3522933E-1,-5.2236583E-2,1.6817766E-1,-7.874297E-2,-2.8479466E-2,2.1723731E-1,-0E0,2.71247E-1,-3.8233787E-2,2.9670924E-1,2.0499347E-2,-6.699508E-2,3.1900078E-1,-0E0,1.1855848E-1,-1.0419964E-1,1.2721646E-1,-1.06001E-1,-1.5518427E-2,-4.897205E-2,1.6604929E-1,-7.276729E-2,-8.5854344E-2,5.238945E-2,1.1098726E-1,2.7856344E-1,-1.1772788E-2,2.1837404E-1,1.7507984E-1,-6.609653E-2,2.3993683E-1,-0E0],"split_indices":[3230,5006,5002,3147,3814,5006,5008,4443,4915,4153,1914,129,3905,198,0,5007,5011,326,2495,0,5004,1780,862,0,1180,0,1458,0,3945,3226,4204,0,0,0,1780,1087,1671,4794,0,3226,0,1604,5002,0,1087,5012,1029,0,1931,2631,0,1780,1097,4781,0,0,2631,3283,2503,0,4778,0,4153,3226,2326,1759,1780,0,391,0,0,0,4768,1889,0,3501,0,0,0,0,4451,0,1018,0,973,0,1338,0,5000,0,129,0,938,5012,0,0,5000,0,1465,5007,5011,0,424,2525,0,0,2904,0,0,0,0,0,0,0,0,0,0,0,0,0,0,0,0,0,0,0,0,0,0,0,0,0,0,0,0,0,0,0,0],"split_type":[0,0,0,0,0,0,0,0,0,0,0,0,0,0,0,0,0,0,0,0,0,0,0,0,0,0,0,0,0,0,0,0,0,0,0,0,0,0,0,0,0,0,0,0,0,0,0,0,0,0,0,0,0,0,0,0,0,0,0,0,0,0,0,0,0,0,0,0,0,0,0,0,0,0,0,0,0,0,0,0,0,0,0,0,0,0,0,0,0,0,0,0,0,0,0,0,0,0,0,0,0,0,0,0,0,0,0,0,0,0,0,0,0,0,0,0,0,0,0,0,0,0,0,0,0,0,0,0,0,0,0,0,0,0,0,0,0,0,0],"sum_hessian":[1.5161129E4,1.4802255E4,3.5887375E2,5.7104077E3,9.091848E3,1.702183E2,1.8865544E2,1.7783981E2,5.532568E3,4.3777138E1,9.04807E3,8.56429E1,8.457541E1,1.8629594E2,2.3594894E0,1.535889E2,2.4250914E1,8.3045784E1,5.449522E3,1.7052476E0,4.207189E1,2.709096E2,8.777161E3,3.0467749E0,8.259612E1,2.7828014E0,8.17926E1,1.8046625E0,1.8449129E2,1.2921536E2,2.4373543E1,1.1556424E0,2.3095272E1,3.6089962E0,7.943679E1,3.5795868E1,5.413726E3,3.8462475E1,3.6094143E0,2.5540459E2,1.5505024E1,8.679356E3,9.780407E1,1.9892278E0,8.0606895E1,5.95049E0,7.584212E1,1.4613901E0,1.8302989E2,1.263868E2,2.8285558E0,7.2143946E0,1.715915E1,7.675859E1,2.6782036E0,1.5575112E0,3.4238358E1,3.0343157E1,5.3833833E3,1.2079949E0,3.7254482E1,1.3086177E1,2.423184E2,1.4365276E2,8.535704E3,2.1275284E1,7.6528786E1,1.6230856E0,7.898381E1,1.2192171E0,4.731273E0,2.8396215E0,7.3002495E1,1.8147046E2,1.5594436E0,1.2405646E2,2.3303466E0,1.750297E0,5.464098E0,1.5542257E0,1.5604923E1,2.037976E0,7.472061E1,1.3478858E0,3.289047E1,1.9576769E0,2.838548E1,1.6696682E1,5.3666865E3,1.883992E0,3.5370487E1,7.396712E0,2.3492169E2,1.2515178E2,1.8500969E1,2.450367E2,8.290667E3,2.1125846E0,1.9162699E1,7.904248E0,6.8624535E1,1.3800528E0,7.760375E1,7.09618E1,2.0406928E0,1.3145168E0,1.8015594E2,1.2174611E2,2.3103497E0,1.1695523E0,1.4435371E1,1.6121128E0,7.31085E1,1.1652255E0,3.1725245E1,1.9173431E0,2.6468138E1,5.22107E3,1.4561679E2,3.3515644E1,1.8548464E0,2.2917E2,5.751692E0,1.1901535E2,6.1364293E0,4.783664E3,3.5070037E3,1.8520637E0,1.7310637E1,4.6247234E0,3.2795246E0,2.8612244E1,4.001229E1,1.2946165E0,7.6309135E1,1.7229998E0,6.92388E1,1.7896896E2,1.1869713E0],"tree_param":{"num_deleted":"0","num_feature":"5013","num_nodes":"139","size_leaf_vector":"1"}},{"base_weights":[3.6364351E-3,-9.599568E-2,2.4890952E-1,-1.511389E-1,4.2688805E-1,1.5710431E-1,4.2252573E-1,-1.7483434E-1,5.5228585E-1,2.8958002E-1,6.221255E-1,1.3942178E-1,1.0886053E0,6.3685566E-1,2.214816E-1,-2.5110805E-1,-1.4139588E-2,2.6881233E-1,7.560912E-1,2.3878542E-1,8.9700997E-1,4.631041E-1,9.8088497E-1,1.1525591E-1,8.042552E-1,-3.8647212E-2,1.1506485E0,-1.4702919E-1,7.099171E-1,-1.838174E-1,2.936975E-1,-2.5709122E-1,1.1315203E0,-2.7215965E-2,1.0852566E0,1.114657E-1,6.201548E-1,-1.0116813E-1,8.159395E-1,2.1523029E-1,2.9284447E-1,-7.034081E-2,1.0049448E0,3.8584873E-1,2.2184432E-1,-5.9462965E-2,1.0588546E0,6.685509E-2,3.9947063E-1,-1.02582656E-1,8.785087E-1,1.2127453E0,-3.0892992E-2,4.3290973E-1,-2.9039097E-1,-9.1928296E-2,7.594748E-1,-2.6043314E-1,1.2567922E0,-1.67785E-1,3.4199387E-1,-2.6495996E-1,6.925069E-1,3.3721024E-1,3.2488003E-1,-3.6301114E-2,2.8952333E-1,1.174691E0,-3.231093E-2,3.216766E-2,2.6369882E-1,-2.5133235E-2,7.153904E-1,-1.5308249E-1,8.642088E-1,-1.8924488E-1,2.6420322E-1,1.2131426E0,-0E0,4.2914778E-1,-1.12132564E-1,-6.497449E-2,1.1248627E0,3.695551E-1,2.7359106E-2,7.568295E-1,2.3521875E-1,-9.913909E-2,9.578316E-1,2.533333E-1,-1.51561E-2,-0E0,2.7689055E-1,1.836577E-1,-3.4261698E-1,1.233023E-1,-2.3831435E-1,-3.0699167E-1,7.9666317E-1,2.7462205E-1,-3.0702716E-1,-0E0,3.0656216E-1,-3.077534E-1,3.1321424E-1,4.216388E-1,-3.784924E-2,-2.6975107E-1,1.2068431E0,-6.891953E-2,7.770573E-1,-1.2568282E-2,7.6458657E-1,-5.7495743E-1,-1.8769883E-2,2.4447851E-1,-0E0,2.5701448E-1,-1.2193092E-2,-4.1725423E-2,7.997087E-1,1.4530173E-1,-1.002134E-1,-8.523561E-2,9.0548265E-1,2.0389214E-1,-2.5849587E-1,2.3647514E-1,1.2513703E0,-0E0,1.2802947E0,-9.2852734E-2,4.6577764E-1,-8.0184445E-2,1.1749537E0,7.2806E-1,2.59989E-1,1.5169008E-2,1.1042825E0,8.0688435E-1,-5.1764823E-2,2.0398922E-1,2.731951E-1,1.0013235E0,-9.385054E-3,-9.303129E-2,1.8222305E-1,-4.1106722E-1,1.1822905E-1,-3.4169504E-1,1.928745E-1,1.4284341E-1,-4.3346414E-1,-1.1957739E-1,8.330942E-1,4.683741E-1,-3.6355838E-1,-5.101285E-1,2.2095215E-2,-9.9789E-2,4.6535155E-1,2.174701E-1,-9.322639E-2,-5.464367E-2,2.7796027E-1,-1.4061937E-2,2.7118585E-1,-6.7524575E-2,1.7446016E-1,2.5986835E-1,-0E0,-1.19148865E-1,5.278896E-2,-1.6166592E-2,3.8239237E-2,-1.1443336E-2,2.6456472E-1,-3.7620224E-2,1.782443E-1,-2.0882616E-2,1.9118746E-1,2.0091514E-1,-6.6560335E-2,9.5656715E-2,2.317448E-2,-0E0,2.7522358E-1,2.7015826E-1,-0E0,9.8245986E-2,-9.866797E-2,-6.0958136E-2,2.4338178E-1,-7.692458E-2,1.6181682E-1,3.4668878E-2,1.2443999E-1,1.2422405E-3,2.6385093E-1,-2.2400571E-2,2.4789147E-1,1.6943602E-1,-7.0668675E-2,2.2752634E-1,3.280488E-2,-3.4543082E-2,2.071754E-1,6.0776558E-2,-9.656224E-2,-1.01553105E-1,-0E0,2.617312E-2,-1.0453323E-1,-7.220934E-2,7.81837E-2,6.399475E-3,1.7636675E-1,-7.073117E-2,3.1525442E-1,-9.7787775E-2,-5.5766426E-4,1.4573516E-1,-1.1715299E-1,-5.4744133E-3,1.5120502E-1,-4.160383E-2,1.08445086E-1,2.4554375E-1,8.667671E-2,-5.899501E-2,5.2620675E-2],"categories":[],"categories_nodes":[],"categories_segments":[],"categories_sizes":[],"default_left":[0,0,1,1,1,1,1,0,0,1,1,1,0,0,0,1,1,0,0,1,0,0,0,1,0,0,1,0,0,1,0,1,0,1,1,1,0,0,0,0,0,0,0,1,0,0,0,0,0,0,0,1,0,0,0,0,0,0,0,1,1,1,0,0,0,0,0,1,0,0,0,0,0,0,0,0,1,0,0,0,0,0,0,0,1,1,1,0,1,0,0,0,0,0,1,0,1,0,0,0,0,0,0,0,0,0,0,1,0,0,0,0,0,0,1,0,0,0,1,0,0,0,0,0,0,0,0,0,0,0,1,0,1,0,0,0,0,1,0,1,0,0,0,0,0,0,0,0,0,0,0,0,0,0,0,0,0,0,1,0,0,0,1,0,0,0,0,0,0,0,0,0,0,0,0,0,0,0,0,0,0,0,0,0,0,0,0,0,0,0,0,0,0,0,0,0,0,0,0,0,0,0,0,0,0,0,0,0,0,0,0,0,0,0,0,0,0,0,0,0,0,0,0,0,0,0,0,0,0,0,0],"id":9,"left_children":[1,3,5,7,9,11,13,15,17,19,21,23,25,27,29,31,33,35,37,39,41,43,45,47,49,-1,51,53,55,57,59,61,63,65,67,69,71,-1,73,75,-1,-1,77,79,-1,-1,81,83,85,-1,87,89,-1,91,93,95,97,99,101,103,105,107,109,111,-1,113,-1,115,-1,117,-1,-1,119,121,123,125,127,129,-1,131,-1,-1,133,135,137,139,141,-1,143,-1,-1,145,-1,-1,147,-1,149,151,153,-1,155,-1,-1,157,-1,159,161,163,165,-1,167,-1,169,171,173,-1,-1,-1,175,-1,177,-1,-1,-1,179,-1,181,183,185,-1,187,-1,189,-1,191,193,195,197,199,201,-1,203,-1,205,-1,-1,-1,207,-1,209,-1,-1,211,213,215,217,219,221,223,225,227,-1,229,-1,-1,-1,-1,-1,-1,-1,-1,-1,-1,-1,-1,-1,-1,-1,-1,-1,-1,-1,-1,-1,-1,-1,-1,-1,-1,-1,-1,-1,-1,-1,-1,-1,-1,-1,-1,-1,-1,-1,-1,-1,-1,-1,-1,-1,-1,-1,-1,-1,-1,-1,-1,-1,-1,-1,-1,-1,-1,-1,-1,-1,-1,-1,-1,-1,-1,-1,-1],"loss_changes":[3.697834E2,3.098927E2,6.916809E1,1.6191336E2,2.6619553E1,4.6066895E1,6.422739E1,1.1517157E2,1.7304527E1,1.7612106E1,2.2549393E1,4.435887E1,5.0734177E0,4.2215057E1,2.2983147E1,5.2180664E1,4.2745533E1,6.7944984E0,1.418351E1,1.4612757E1,6.8066635E0,1.3203297E1,1.3440834E1,3.6942265E1,1.0029186E1,0E0,5.081955E0,5.046156E0,2.7098389E1,1.2184454E1,1.4994762E1,4.720349E1,8.660355E0,3.903165E1,4.832737E0,7.9534125E0,3.3700743E0,0E0,8.818565E0,1.0995918E1,0E0,0E0,8.206799E0,1.0820763E1,0E0,0E0,1.1837601E1,2.7432764E1,2.2119415E1,0E0,1.0729469E1,4.4530487E0,0E0,5.7070007E0,2.8576756E0,3.7127857E0,2.547696E1,7.793468E0,1.5066051E0,1.4119562E1,1.8597801E1,4.380591E1,4.997719E0,2.5872874E0,0E0,2.7660706E1,0E0,1.1106987E0,0E0,6.105146E0,0E0,0E0,3.4117393E0,2.3710685E0,9.475609E0,4.323271E0,1.211787E1,3.8622742E0,0E0,8.399223E0,0E0,0E0,9.700836E0,9.51593E0,2.6063507E1,6.7456055E0,8.12678E0,0E0,4.6951065E0,0E0,0E0,3.0482984E0,0E0,0E0,3.1281972E0,0E0,3.726479E0,2.5844126E0,2.0970398E1,0E0,4.786873E0,0E0,0E0,4.2794447E0,0E0,1.1748894E1,5.6414022E0,3.5388275E1,4.927059E0,0E0,5.7293854E0,0E0,2.5228934E0,1.962925E0,3.7581425E1,0E0,0E0,0E0,4.2053056E0,0E0,3.7698936E0,0E0,0E0,0E0,9.050964E0,0E0,4.81891E0,1.3509424E1,1.7847424E0,0E0,4.08683E0,0E0,6.0828667E0,0E0,7.925522E0,5.9180374E0,5.744482E0,2.2663496E1,4.670595E0,6.017807E0,0E0,8.711273E0,0E0,4.284607E0,0E0,0E0,0E0,2.644053E0,0E0,2.051234E0,0E0,0E0,1.3418231E0,2.8480968E0,2.2119537E1,7.312071E0,4.257718E0,3.5824318E0,1.3801922E0,2.3842554E0,9.666237E0,0E0,7.216757E0,0E0,0E0,0E0,0E0,0E0,0E0,0E0,0E0,0E0,0E0,0E0,0E0,0E0,0E0,0E0,0E0,0E0,0E0,0E0,0E0,0E0,0E0,0E0,0E0,0E0,0E0,0E0,0E0,0E0,0E0,0E0,0E0,0E0,0E0,0E0,0E0,0E0,0E0,0E0,0E0,0E0,0E0,0E0,0E0,0E0,0E0,0E0,0E0,0E0,0E0,0E0,0E0,0E0,0E0,0E0,0E0,0E0,0E0,0E0,0E0,0E0,0E0,0E0,0E0,0E0,0E0,0E0,0E0],"parents":[2147483647,0,0,1,1,2,2,3,3,4,4,5,5,6,6,7,7,8,8,9,9,10,10,11,11,12,12,13,13,14,14,15,15,16,16,17,17,18,18,19,19,20,20,21,21,22,22,23,23,24,24,26,26,27,27,28,28,29,29,30,30,31,31,32,32,33,33,34,34,35,35,36,36,38,38,39,39,42,42,43,43,46,46,47,47,48,48,50,50,51,51,53,53,54,54,55,55,56,56,57,57,58,58,59,59,60,60,61,61,62,62,63,63,65,65,67,67,69,69,72,72,73,73,74,74,75,75,76,76,77,77,79,79,82,82,83,83,84,84,85,85,86,86,88,88,91,91,94,94,96,96,97,97,98,98,100,100,103,103,105,105,106,106,107,107,108,108,110,110,112,112,113,113,114,114,118,118,120,120,124,124,126,126,127,127,128,128,130,130,132,132,134,134,135,135,136,136,137,137,138,138,139,139,141,141,143,143,147,147,149,149,152,152,153,153,154,154,155,155,156,156,157,157,158,158,159,159,160,160,162,162],"right_children":[2,4,6,8,10,12,14,16,18,20,22,24,26,28,30,32,34,36,38,40,42,44,46,48,50,-1,52,54,56,58,60,62,64,66,68,70,72,-1,74,76,-1,-1,78,80,-1,-1,82,84,86,-1,88,90,-1,92,94,96,98,100,102,104,106,108,110,112,-1,114,-1,116,-1,118,-1,-1,120,122,124,126,128,130,-1,132,-1,-1,134,136,138,140,142,-1,144,-1,-1,146,-1,-1,148,-1,150,152,154,-1,156,-1,-1,158,-1,160,162,164,166,-1,168,-1,170,172,174,-1,-1,-1,176,-1,178,-1,-1,-1,180,-1,182,184,186,-1,188,-1,190,-1,192,194,196,198,200,202,-1,204,-1,206,-1,-1,-1,208,-1,210,-1,-1,212,214,216,218,220,222,224,226,228,-1,230,-1,-1,-1,-1,-1,-1,-1,-1,-1,-1,-1,-1,-1,-1,-1,-1,-1,-1,-1,-1,-1,-1,-1,-1,-1,-1,-1,-1,-1,-1,-1,-1,-1,-1,-1,-1,-1,-1,-1,-1,-1,-1,-1,-1,-1,-1,-1,-1,-1,-1,-1,-1,-1,-1,-1,-1,-1,-1,-1,-1,-1,-1,-1,-1,-1,-1,-1,-1],"split_conditions":[2.3332438E-1,5.338843E-1,1E0,1.1439059E-1,2.1613617E-1,1.4787741E-1,1.39E-1,1.511772E-1,2.4108808E-2,1.5688325E-1,1E0,3.2009378E-1,3.6680743E-1,5.2695626E-1,2.900345E-1,1.5231802E-1,1.4787741E-1,3.5937834E-1,3.5578316E-1,5.079212E-1,8.193877E-1,7.885046E-1,3.6669025E-1,7.787437E-2,8.2626605E-1,-3.8647212E-2,2.2349781E-1,5.2403487E-2,4.3214595E-1,1.7597914E-1,3.1335267E-1,1.315635E-1,5.624119E-2,1.8165824E-1,1.9365051E-1,2.1158141E-1,3.4063724E-1,-1.0116813E-1,3.506178E-1,2.00001E0,2.9284447E-1,-7.034081E-2,7.474252E-2,5.6409675E-1,2.2184432E-1,-5.9462965E-2,4.7356582E-1,4.9944175E-3,4.088862E-2,-1.02582656E-1,5.344153E-1,3.240368E-1,-3.0892992E-2,2.8687567E-2,2.2902788E-1,1.2502338E-2,2.3771143E-1,3.505539E-1,2.6638275E-1,2.6660645E-1,-1.531E-1,1.6420165E-1,1.6181913E-1,5.157689E-2,3.2488003E-1,5.153108E-1,2.8952333E-1,1E0,-3.231093E-2,1.5317688E0,2.6369882E-1,-2.5133235E-2,6.520535E-1,2.2557911E-1,4.0406317E-1,3.7671614E-1,1.7554253E-1,3.1397504E-1,-0E0,7.369282E-1,-1.12132564E-1,-6.497449E-2,1.8134223E-1,2.302753E-3,1.8852165E-1,2.4190572E-1,1.8434241E-1,-9.913909E-2,2.8548115E-1,2.533333E-1,-1.51561E-2,2.2893824E-1,2.7689055E-1,1.836577E-1,1.6854349E-1,1.233023E-1,3.008291E-1,2.0615809E-1,5.1956433E-1,2.7462205E-1,2.1095219E-1,-0E0,3.0656216E-1,5.027719E-2,3.1321424E-1,3.9325857E-1,2.939114E-1,1.8047181E-1,5.7831144E-1,-6.891953E-2,2.3183258E-1,-1.2568282E-2,9.572491E-2,1.0714457E-1,1E0,2.4447851E-1,-0E0,2.5701448E-1,2.1736164E-1,-4.1725423E-2,4.7473252E-1,1.4530173E-1,-1.002134E-1,-8.523561E-2,3.413184E-1,2.0389214E-1,5.4768074E-1,5.4127155E-3,2.5195175E-1,-0E0,3.0374828E-1,-9.2852734E-2,4.10651E-1,-8.0184445E-2,4.7148627E-1,7.181938E-1,6.058728E-2,1E0,2.508368E-1,2.0735162E-1,-5.1764823E-2,4.6946996E-1,2.731951E-1,1.6597377E0,-9.385054E-3,-9.303129E-2,1.8222305E-1,3.9291957E-1,1.1822905E-1,9.162755E-2,1.928745E-1,1.4284341E-1,3.6078563E-1,1.860271E-1,6.217506E-1,9.3450435E-2,2.3399176E-1,4.261214E-1,1.2979025E-1,5.964156E-1,4.3394372E-1,2.174701E-1,4.32E-1,-5.464367E-2,2.7796027E-1,-1.4061937E-2,2.7118585E-1,-6.7524575E-2,1.7446016E-1,2.5986835E-1,-0E0,-1.19148865E-1,5.278896E-2,-1.6166592E-2,3.8239237E-2,-1.1443336E-2,2.6456472E-1,-3.7620224E-2,1.782443E-1,-2.0882616E-2,1.9118746E-1,2.0091514E-1,-6.6560335E-2,9.5656715E-2,2.317448E-2,-0E0,2.7522358E-1,2.7015826E-1,-0E0,9.8245986E-2,-9.866797E-2,-6.0958136E-2,2.4338178E-1,-7.692458E-2,1.6181682E-1,3.4668878E-2,1.2443999E-1,1.2422405E-3,2.6385093E-1,-2.2400571E-2,2.4789147E-1,1.6943602E-1,-7.0668675E-2,2.2752634E-1,3.280488E-2,-3.4543082E-2,2.071754E-1,6.0776558E-2,-9.656224E-2,-1.01553105E-1,-0E0,2.617312E-2,-1.0453323E-1,-7.220934E-2,7.81837E-2,6.399475E-3,1.7636675E-1,-7.073117E-2,3.1525442E-1,-9.7787775E-2,-5.5766426E-4,1.4573516E-1,-1.1715299E-1,-5.4744133E-3,1.5120502E-1,-4.160383E-2,1.08445086E-1,2.4554375E-1,8.667671E-2,-5.899501E-2,5.2620675E-2],"split_indices":[5007,5010,5000,3239,1747,3843,5002,5010,5010,174,5000,3888,1704,1867,1520,4911,3843,3239,1671,3204,325,1747,518,1780,4306,0,2471,5010,1697,4022,1867,3340,5011,4512,3007,326,4346,0,1520,2594,0,0,5007,2482,0,0,3071,5009,5009,0,3769,845,0,5011,3942,5009,1520,1524,1910,3179,5004,1130,1087,5009,0,2982,0,5002,0,4579,0,0,2569,1087,173,3661,4902,173,0,4994,0,0,3814,5010,864,4616,2886,0,2503,0,0,1867,0,0,1520,0,4451,4162,518,0,1867,0,0,5009,0,518,3130,1437,4164,0,4458,0,5007,5009,5000,0,0,0,4153,0,1935,0,0,0,2569,0,4660,5009,4489,0,4162,0,1029,0,4982,1265,5010,1064,897,3178,0,3340,0,4777,0,0,0,3804,0,5011,0,0,64,5010,2965,5011,1520,1534,3147,5007,3844,0,5003,0,0,0,0,0,0,0,0,0,0,0,0,0,0,0,0,0,0,0,0,0,0,0,0,0,0,0,0,0,0,0,0,0,0,0,0,0,0,0,0,0,0,0,0,0,0,0,0,0,0,0,0,0,0,0,0,0,0,0,0,0,0,0,0,0,0,0,0],"split_type":[0,0,0,0,0,0,0,0,0,0,0,0,0,0,0,0,0,0,0,0,0,0,0,0,0,0,0,0,0,0,0,0,0,0,0,0,0,0,0,0,0,0,0,0,0,0,0,0,0,0,0,0,0,0,0,0,0,0,0,0,0,0,0,0,0,0,0,0,0,0,0,0,0,0,0,0,0,0,0,0,0,0,0,0,0,0,0,0,0,0,0,0,0,0,0,0,0,0,0,0,0,0,0,0,0,0,0,0,0,0,0,0,0,0,0,0,0,0,0,0,0,0,0,0,0,0,0,0,0,0,0,0,0,0,0,0,0,0,0,0,0,0,0,0,0,0,0,0,0,0,0,0,0,0,0,0,0,0,0,0,0,0,0,0,0,0,0,0,0,0,0,0,0,0,0,0,0,0,0,0,0,0,0,0,0,0,0,0,0,0,0,0,0,0,0,0,0,0,0,0,0,0,0,0,0,0,0,0,0,0,0,0,0,0,0,0,0,0,0,0,0,0,0,0,0,0,0,0,0,0,0],"sum_hessian":[1.5125903E4,1.0754265E4,4.3716387E3,9.730064E3,1.0242001E3,2.8632898E3,1.508349E3,9.414466E3,3.1559866E2,6.0449646E2,4.1970367E2,2.8113438E3,5.1945984E1,7.275525E2,7.807965E2,6.380479E3,3.0339868E3,1.3416452E2,1.8143416E2,5.597058E2,4.4790607E1,2.9314444E2,1.26559235E2,2.7144707E3,9.6873E1,1.7275324E0,5.0218452E1,6.100792E1,6.6654456E2,1.16213E2,6.645835E2,6.3539585E3,2.6520784E1,2.999515E3,3.447191E1,9.473002E1,3.9434505E1,7.426085E0,1.7400807E2,5.503433E2,9.362519E0,2.8618665E0,4.192874E1,2.6364294E2,2.9501482E1,6.5823917E0,1.19976845E2,2.3224792E3,3.919914E2,4.4225183E0,9.245048E1,4.8584045E1,1.6344067E0,1.0747528E1,5.026039E1,3.7785908E1,6.2875867E2,1.1124954E2,4.9634495E0,6.1204876E1,6.033786E2,6.302941E3,5.1017437E1,1.1099513E1,1.5421271E1,2.982154E3,1.7360641E1,3.281933E1,1.6525817E0,8.997828E1,4.7517385E0,3.4475656E0,3.598694E1,7.382182E0,1.6662589E2,5.7441093E1,4.9290222E2,3.4207386E1,7.721352E0,2.53196E2,1.0446965E1,4.8013844E0,1.1517546E2,2.6516348E2,2.057316E3,1.2130985E2,2.7068152E2,4.3369613E0,8.811352E1,4.7267345E1,1.3166978E0,7.124942E0,3.6225865E0,1.1048406E0,4.9155552E1,5.2380304E0,3.254788E1,2.03133E1,6.084454E2,2.2287884E0,1.0902076E2,1.1327746E0,3.8306746E0,5.742487E1,3.7800064E0,5.0058475E2,1.0279387E2,6.2834263E3,1.9514612E1,2.9904916E0,4.8026943E1,4.91322E0,6.1862936E0,9.2033424E1,2.8901208E3,3.101678E1,1.8025461E0,3.2959893E0,8.668229E1,2.118507E0,3.3868435E1,1.26783E0,6.114352E0,4.4019446E0,1.6222394E2,2.1191697E0,5.5321926E1,4.8080774E2,1.2094461E1,1.1839608E0,3.3023426E1,8.859736E0,2.4433626E2,3.0263712E0,1.12149086E2,5.9675716E1,2.0548776E2,2.0355133E3,2.1802525E1,1.16490555E2,4.8192973E0,2.646482E2,6.033346E0,8.526268E1,2.8508406E0,5.4369826E0,1.6879593E0,4.687326E1,2.28229E0,3.0912968E1,1.6349099E0,1.2742636E0,1.9039036E1,2.2344107E1,5.8610126E2,6.173055E0,1.028477E2,3.701962E1,2.040525E1,3.7184433E1,4.634003E2,3.7151432E0,9.907873E1,6.2712075E3,1.2219006E1,1.474158E0,1.8040453E1,2.9943676E0,4.5032578E1,3.342416E0,2.8438773E0,9.091507E1,1.1183558E0,2.2340535E3,6.5606726E2,8.488106E1,1.8012276E0,2.0509787E0,3.1817455E1,6.901856E0,1.5532208E2,2.1310835E0,5.319084E1,1.5723462E2,3.2357312E2,1.228764E0,1.0865698E1,3.1860537E1,1.1628913E0,2.390891E2,5.2471566E0,2.4608908E0,1.09688194E2,3.2305598E0,5.6445156E1,1.6823468E2,3.7253086E1,2.022717E3,1.2796329E1,1.5651888E0,2.0237335E1,1.1339941E2,3.0911474E0,9.491152E0,2.5515703E2,1.6893198E0,8.357336E1,3.071313E0,4.380195E1,2.1708633E1,9.204333E0,1.2811874E0,1.7757849E1,1.6378517E1,5.9655895E0,3.464777E1,5.514535E2,3.2830522E0,2.8900027E0,7.447167E1,2.8376032E1,1.2659695E0,3.5753647E1,1.844724E1,1.9580104E0,3.3203064E1,3.9813688E0,1.6912153E1,4.4648816E2,6.4819885E1,3.4258842E1],"tree_param":{"num_deleted":"0","num_feature":"5013","num_nodes":"231","size_leaf_vector":"1"}},{"base_weights":[4.5946343E-3,6.356254E-1,-1.2963897E-2,7.943347E-1,4.8041895E-2,6.179126E-1,-2.4515552E-2,9.3124753E-1,3.288822E-1,-3.1346476E-1,3.4401816E-1,-1.11143194E-1,7.479355E-1,-3.093814E-2,1.1089491E0,9.682289E-1,-7.9701304E-2,4.8575133E-1,-1.7658683E-2,-3.970834E-1,1.4565377E-1,4.9752182E-1,-1.9565293E-1,-2.595319E-1,8.066632E-1,7.162443E-1,-3.8382888E-2,-3.400944E-2,1.1507233E0,9.9077463E-1,-4.0826913E-2,1.4351365E-1,-7.749506E-2,-8.794593E-2,5.864983E-1,-7.7522926E-2,1.1960393E-1,4.3665335E-2,-4.4318378E-1,6.88765E-1,-8.602624E-3,-1.0664721E-1,8.5198484E-2,5.952363E-2,-7.910266E-2,8.505588E-1,-2.9683182E-2,8.254733E-1,-1.8183412E-1,7.866629E-1,-4.455341E-2,-1.1809628E-2,1.1846141E0,1.0094433E0,-5.9765775E-2,-7.1532406E-2,6.66495E-1,-3.969679E-2,4.31548E-1,3.0445114E-2,-4.9043322E-1,-2.9415105E-2,7.663003E-1,-7.6706894E-2,4.728147E-1,-3.356134E-2,8.845893E-1,-7.741602E-2,8.701827E-1,1.9513026E-1,-3.6414543E-1,-1.5046417E-2,8.867845E-1,-5.4900147E-2,3.895018E-1,-0E0,1.2140263E0,-3.5637774E-2,1.0298283E0,7.481848E-1,-2.722094E-2,-1.7107753E-2,6.35164E-1,-1.08207956E-1,2.8935704E-2,8.844647E-1,-0E0,-0E0,1.9256334E-1,4.445425E-1,1.002846E0,9.168256E-1,-7.577189E-2,5.837825E-2,-9.942753E-2,-8.1565686E-2,9.4920135E-1,-5.966802E-2,8.167351E-1,4.567578E-1,-4.146841E-1,-0E0,